{"learner":{"attributes":{"scikit_learn":"{\"_estimator_type\": \"classifier\"}"},"feature_names":[],"feature_types":[],"gradient_booster":{"model":{"cats":{"enc":[],"feature_segments":[],"sorted_idx":[]},"gbtree_model_param":{"num_parallel_tree":"1","num_trees":"400"},"iteration_indptr":[0,4,8,12,16,20,24,28,32,36,40,44,48,52,56,60,64,68,72,76,80,84,88,92,96,100,104,108,112,116,120,124,128,132,136,140,144,148,152,156,160,164,168,172,176,180,184,188,192,196,200,204,208,212,216,220,224,228,232,236,240,244,248,252,256,260,264,268,272,276,280,284,288,292,296,300,304,308,312,316,320,324,328,332,336,340,344,348,352,356,360,364,368,372,376,380,384,388,392,396,400],"tree_info":[0,1,2,3,0,1,2,3,0,1,2,3,0,1,2,3,0,1,2,3,0,1,2,3,0,1,2,3,0,1,2,3,0,1,2,3,0,1,2,3,0,1,2,3,0,1,2,3,0,1,2,3,0,1,2,3,0,1,2,3,0,1,2,3,0,1,2,3,0,1,2,3,0,1,2,3,0,1,2,3,0,1,2,3,0,1,2,3,0,1,2,3,0,1,2,3,0,1,2,3,0,1,2,3,0,1,2,3,0,1,2,3,0,1,2,3,0,1,2,3,0,1,2,3,0,1,2,3,0,1,2,3,0,1,2,3,0,1,2,3,0,1,2,3,0,1,2,3,0,1,2,3,0,1,2,3,0,1,2,3,0,1,2,3,0,1,2,3,0,1,2,3,0,1,2,3,0,1,2,3,0,1,2,3,0,1,2,3,0,1,2,3,0,1,2,3,0,1,2,3,0,1,2,3,0,1,2,3,0,1,2,3,0,1,2,3,0,1,2,3,0,1,2,3,0,1,2,3,0,1,2,3,0,1,2,3,0,1,2,3,0,1,2,3,0,1,2,3,0,1,2,3,0,1,2,3,0,1,2,3,0,1,2,3,0,1,2,3,0,1,2,3,0,1,2,3,0,1,2,3,0,1,2,3,0,1,2,3,0,1,2,3,0,1,2,3,0,1,2,3,0,1,2,3,0,1,2,3,0,1,2,3,0,1,2,3,0,1,2,3,0,1,2,3,0,1,2,3,0,1,2,3,0,1,2,3,0,1,2,3,0,1,2,3,0,1,2,3,0,1,2,3,0,1,2,3,0,1,2,3,0,1,2,3,0,1,2,3,0,1,2,3,0,1,2,3,0,1,2,3,0,1,2,3,0,1,2,3,0,1,2,3,0,1,2,3,0,1,2,3],"trees":[{"base_weights":[-0E0,-6.598203E-2,1.1762013E0,-6.122449E-2,1.6541786E0,1.85E0,-5.1428575E-2,1.9228296E-1,-3.529412E-2],"categories":[],"categories_nodes":[],"categories_segments":[],"categories_sizes":[],"default_left":[0,0,0,0,0,0,0,0,0],"id":0,"left_children":[1,-1,3,-1,5,7,-1,-1,-1],"loss_changes":[1.17964386E2,0E0,4.7708214E1,0E0,1.9369827E1,7.096222E0,0E0,0E0,0E0],"parents":[2147483647,0,0,2,2,4,4,5,5],"right_children":[2,-1,4,-1,6,8,-1,-1,-1],"split_conditions":[7.44E-1,-6.598203E-2,4.26E-1,-6.122449E-2,2.71E-1,1.011E0,-5.1428575E-2,1.9228296E-1,-3.529412E-2],"split_indices":[3,0,1,0,0,3,0,0,0],"split_type":[0,0,0,0,0,0,0,0,0],"sum_hessian":[1.5E2,9.6375E1,5.3625E1,1.125E1,4.2375E1,3.9E1,3.375E0,3.7875E1,1.125E0],"tree_param":{"num_deleted":"0","num_feature":"4","num_nodes":"9","size_leaf_vector":"1"}},{"base_weights":[-0E0,-6.453674E-2,6.847458E-1,-6.403941E-2,1.3518988E0,1.7134328E0,-5.8823533E-2,-5E-2,1.897106E-1],"categories":[],"categories_nodes":[],"categories_segments":[],"categories_sizes":[],"default_left":[0,0,0,0,0,0,0,0,0],"id":1,"left_children":[1,-1,3,-1,5,7,-1,-1,-1],"loss_changes":[6.7170715E1,0E0,6.606598E1,0E0,3.564074E1,1.797277E1,0E0,0E0,0E0],"parents":[2147483647,0,0,2,2,4,4,5,5],"right_children":[2,-1,4,-1,6,8,-1,-1,-1],"split_conditions":[3.15E-1,-6.453674E-2,3.42E-1,-6.403941E-2,7.27E-1,4.26E-1,-5.8823533E-2,-5E-2,1.897106E-1],"split_indices":[0,0,3,0,3,1,0,0,0],"split_type":[0,0,0,0,0,0,0,0,0],"sum_hessian":[1.5E2,7.725E1,7.275E1,2.4375E1,4.8375E1,4.0875E1,7.5E0,3E0,3.7875E1],"tree_param":{"num_deleted":"0","num_feature":"4","num_nodes":"9","size_leaf_vector":"1"}},{"base_weights":[-0E0,-6.6052936E-2,1.6541786E0,1.8485805E0,-3.1578946E-1,1.1764706E-2,1.8961039E0,1.1764706E-2,-4.8275862E-2,1.9464883E-1,1.1764706E-2],"categories":[],"categories_nodes":[],"categories_segments":[],"categories_sizes":[],"default_left":[0,0,0,0,0,0,0,0,0,0,0],"id":2,"left_children":[1,-1,3,5,7,-1,9,-1,-1,-1,-1],"loss_changes":[1.6608029E2,0E0,1.7194885E1,3.0364838E0,4.0055516E-1,0E0,3.2208557E0,0E0,0E0,0E0,0E0],"parents":[2147483647,0,0,2,2,3,3,4,4,6,6],"right_children":[2,-1,4,6,8,-1,10,-1,-1,-1,-1],"split_conditions":[7.65E-1,-6.6052936E-2,9.9E-1,2.4E-2,2E-1,1.1764706E-2,2.75E-1,1.1764706E-2,-4.8275862E-2,1.9464883E-1,1.1764706E-2],"split_indices":[2,0,2,3,0,0,3,0,0,0,0],"split_type":[0,0,0,0,0,0,0,0,0,0,0],"sum_hessian":[1.5E2,1.07625E2,4.2375E1,3.8625E1,3.75E0,1.125E0,3.75E1,1.125E0,2.625E0,3.6375E1,1.125E0],"tree_param":{"num_deleted":"0","num_feature":"4","num_nodes":"11","size_leaf_vector":"1"}},{"base_weights":[-0E0,1.2781955E0,-3.5789475E-1,1.92E-1,-5.945946E-2,1.4545456E-1,-4.420131E-1,-5.163472E-1,1.5428571E-1,-5.9534885E-2,1.5428571E-1],"categories":[],"categories_nodes":[],"categories_segments":[],"categories_sizes":[],"default_left":[0,0,0,0,0,0,0,0,0,0,0],"id":3,"left_children":[1,3,5,-1,-1,-1,7,9,-1,-1,-1],"loss_changes":[6.953384E1,4.1106968E1,1.8747501E1,0E0,0E0,0E0,1.7653503E1,1.895573E1,0E0,0E0,0E0],"parents":[2147483647,0,0,1,1,2,2,6,6,7,7],"right_children":[2,4,6,-1,-1,-1,8,10,-1,-1,-1],"split_conditions":[4.26E-1,7E-1,2.4E-2,1.92E-1,-5.945946E-2,1.4545456E-1,9.8E-1,1.011E0,1.5428571E-1,-5.9534885E-2,1.5428571E-1],"split_indices":[1,2,3,0,0,0,2,3,0,0,0],"split_type":[0,0,0,0,0,0,0,0,0,0,0],"sum_hessian":[1.5E2,3.225E1,1.1775E2,2.4E1,8.25E0,4.5E0,1.1325E2,1.09875E2,3.375E0,1.065E2,3.375E0],"tree_param":{"num_deleted":"0","num_feature":"4","num_nodes":"11","size_leaf_vector":"1"}},{"base_weights":[-9.276484E-4,-6.448975E-2,1.0195808E0,-5.967913E-2,1.3948276E0,1.5461545E0,-5.0465234E-2,1.6015439E-1,-3.433128E-2],"categories":[],"categories_nodes":[],"categories_segments":[],"categories_sizes":[],"default_left":[0,0,0,0,0,0,0,0,0],"id":4,"left_children":[1,-1,3,-1,5,7,-1,-1,-1],"loss_changes":[9.95281E1,0E0,3.6371956E1,0E0,1.4535484E1,5.2142563E0,0E0,0E0,0E0],"parents":[2147483647,0,0,2,2,4,4,5,5],"right_children":[2,-1,4,-1,6,8,-1,-1,-1],"split_conditions":[7.44E-1,-6.448975E-2,4.26E-1,-5.967913E-2,2.71E-1,1.011E0,-5.0465234E-2,1.6015439E-1,-3.433128E-2],"split_indices":[3,0,1,0,0,3,0,0,0],"split_type":[0,0,0,0,0,0,0,0,0],"sum_hessian":[1.4944746E2,9.185342E1,5.7594055E1,1.0740224E1,4.685383E1,4.356882E1,3.2850099E0,4.2476025E1,1.0927941E0],"tree_param":{"num_deleted":"0","num_feature":"4","num_nodes":"9","size_leaf_vector":"1"}},{"base_weights":[-9.7157614E-4,-6.298082E-2,6.098823E-1,-6.2585086E-2,1.1592505E0,1.4415778E0,-5.7481416E-2,-4.8572514E-2,1.5806408E-1],"categories":[],"categories_nodes":[],"categories_segments":[],"categories_sizes":[],"default_left":[0,0,0,0,0,0,0,0,0],"id":5,"left_children":[1,-1,3,-1,5,7,-1,-1,-1],"loss_changes":[5.8182224E1,0E0,5.288491E1,0E0,2.7039276E1,1.31840515E1,0E0,0E0,0E0],"parents":[2147483647,0,0,2,2,4,4,5,5],"right_children":[2,-1,4,-1,6,8,-1,-1,-1],"split_conditions":[3.15E-1,-6.298082E-2,3.42E-1,-6.2585086E-2,7.27E-1,4.26E-1,-5.7481416E-2,-4.8572514E-2,1.5806408E-1],"split_indices":[0,0,3,0,3,1,0,0,0],"split_type":[0,0,0,0,0,0,0,0,0],"sum_hessian":[1.4946603E2,7.363366E1,7.583238E1,2.329471E1,5.253767E1,4.5326607E1,7.2110643E0,2.8826413E0,4.2443966E1],"tree_param":{"num_deleted":"0","num_feature":"4","num_nodes":"9","size_leaf_vector":"1"}},{"base_weights":[-2.7438038E-4,-6.456887E-2,1.3998635E0,1.5325426E0,-4.874311E-2,1.5882173E0,-3.484003E-2,1.1714645E-2,1.6243277E-1],"categories":[],"categories_nodes":[],"categories_segments":[],"categories_sizes":[],"default_left":[0,0,0,0,0,0,0,0,0],"id":6,"left_children":[1,-1,3,5,-1,7,-1,-1,-1],"loss_changes":[1.367762E2,0E0,1.2705383E1,5.251198E0,0E0,2.1338043E0,0E0,0E0,0E0],"parents":[2147483647,0,0,2,2,3,3,5,5],"right_children":[2,-1,4,6,-1,8,-1,-1,-1],"split_conditions":[7.65E-1,-6.456887E-2,1.041E0,2.9E-1,-4.874311E-2,2.4E-2,-3.484003E-2,1.1714645E-2,1.6243277E-1],"split_indices":[2,0,2,3,0,3,0,0,0],"split_type":[0,0,0,0,0,0,0,0,0],"sum_hessian":[1.493563E2,1.026001E2,4.6756203E1,4.386071E1,2.8954928E0,4.2750935E1,1.1097732E0,1.1259518E0,4.1624985E1],"tree_param":{"num_deleted":"0","num_feature":"4","num_nodes":"9","size_leaf_vector":"1"}},{"base_weights":[2.178662E-3,1.1049885E0,-3.405629E-1,1.6019091E-1,-5.7962447E-2,1.264821E-1,-4.2396167E-1,-4.9877244E-1,1.3706236E-1,-5.787797E-2,1.3554649E-1],"categories":[],"categories_nodes":[],"categories_segments":[],"categories_sizes":[],"default_left":[0,0,0,0,0,0,0,0,0,0,0],"id":7,"left_children":[1,3,5,-1,-1,-1,7,9,-1,-1,-1],"loss_changes":[5.7108326E1,3.0916443E1,1.5969429E1,0E0,0E0,0E0,1.549547E1,1.6605532E1,0E0,0E0,0E0],"parents":[2147483647,0,0,1,1,2,2,6,6,7,7],"right_children":[2,4,6,-1,-1,-1,8,10,-1,-1,-1],"split_conditions":[4.26E-1,7E-1,2.4E-2,1.6019091E-1,-5.7962447E-2,1.264821E-1,9.8E-1,1.011E0,1.3706236E-1,-5.787797E-2,1.3554649E-1],"split_indices":[1,2,3,0,0,0,2,3,0,0,0],"split_type":[0,0,0,0,0,0,0,0,0,0,0],"sum_hessian":[1.490931E2,3.4822803E1,1.1427029E2,2.6928604E1,7.894201E0,4.943547E0,1.0932674E2,1.056448E2,3.681941E0,1.01934364E2,3.7104368E0],"tree_param":{"num_deleted":"0","num_feature":"4","num_nodes":"11","size_leaf_vector":"1"}},{"base_weights":[-1.7234886E-3,-6.3118614E-2,9.032134E-1,-5.8223087E-2,1.2113826E0,1.335362E0,-4.9548116E-2,1.380292E-1,-3.3432316E-2],"categories":[],"categories_nodes":[],"categories_segments":[],"categories_sizes":[],"default_left":[0,0,0,0,0,0,0,0,0],"id":8,"left_children":[1,-1,3,-1,5,7,-1,-1,-1],"loss_changes":[8.522171E1,0E0,2.8801311E1,0E0,1.1486938E1,4.059517E0,0E0,0E0,0E0],"parents":[2147483647,0,0,2,2,4,4,5,5],"right_children":[2,-1,4,-1,6,8,-1,-1,-1],"split_conditions":[7.44E-1,-6.3118614E-2,4.26E-1,-5.8223087E-2,2.71E-1,1.011E0,-4.9548116E-2,1.380292E-1,-3.3432316E-2],"split_indices":[3,0,1,0,0,3,0,0,0],"split_type":[0,0,0,0,0,0,0,0,0],"sum_hessian":[1.4760966E2,8.723359E1,6.0376072E1,1.02207E1,5.0155373E1,4.696191E1,3.1934624E0,4.5900093E1,1.0618159E0],"tree_param":{"num_deleted":"0","num_feature":"4","num_nodes":"9","size_leaf_vector":"1"}},{"base_weights":[-1.7955682E-3,-6.1541278E-2,5.5136716E-1,-6.1219316E-2,1.0187106E0,1.2504687E0,-5.6219634E-2,-4.718037E-2,1.3620901E-1],"categories":[],"categories_nodes":[],"categories_segments":[],"categories_sizes":[],"default_left":[0,0,0,0,0,0,0,0,0],"id":9,"left_children":[1,-1,3,-1,5,7,-1,-1,-1],"loss_changes":[5.0801254E1,0E0,4.3425945E1,0E0,2.1415733E1,1.0180626E1,0E0,0E0,0E0],"parents":[2147483647,0,0,2,2,4,4,5,5],"right_children":[2,-1,4,-1,6,8,-1,-1,-1],"split_conditions":[3.15E-1,-6.1541278E-2,3.42E-1,-6.1219316E-2,7.27E-1,4.26E-1,-5.6219634E-2,-4.718037E-2,1.3620901E-1],"split_indices":[0,0,3,0,3,1,0,0,0],"split_type":[0,0,0,0,0,0,0,0,0],"sum_hessian":[1.4766661E2,6.995442E1,7.77122E1,2.2179995E1,5.55322E1,4.861443E1,6.917772E0,2.7625492E0,4.585188E1],"tree_param":{"num_deleted":"0","num_feature":"4","num_nodes":"9","size_leaf_vector":"1"}},{"base_weights":[-7.58701E-4,-6.32118E-2,1.2187458E0,1.3254514E0,-4.723888E-2,1.3706677E0,-3.3883285E-2,1.1759446E-2,1.3987455E-1],"categories":[],"categories_nodes":[],"categories_segments":[],"categories_sizes":[],"default_left":[0,0,0,0,0,0,0,0,0],"id":10,"left_children":[1,-1,3,5,-1,7,-1,-1,-1],"loss_changes":[1.15089905E2,0E0,9.827354E0,4.093567E0,0E0,1.4943771E0,0E0,0E0,0E0],"parents":[2147483647,0,0,2,2,3,3,5,5],"right_children":[2,-1,4,6,-1,8,-1,-1,-1],"split_conditions":[7.65E-1,-6.32118E-2,1.041E0,2.9E-1,-4.723888E-2,2.4E-2,-3.3883285E-2,1.1759446E-2,1.3987455E-1],"split_indices":[2,0,2,3,0,3,0,0,0],"split_type":[0,0,0,0,0,0,0,0,0],"sum_hessian":[1.474774E2,9.7487854E1,4.9989544E1,4.7225964E1,2.7635818E0,4.614859E1,1.0773714E0,1.1251E0,4.502349E1],"tree_param":{"num_deleted":"0","num_feature":"4","num_nodes":"9","size_leaf_vector":"1"}},{"base_weights":[4.2916182E-3,9.7810656E-1,-3.24391E-1,1.3822135E-1,-5.6490887E-2,1.1183506E-1,-4.069397E-1,-4.821006E-1,1.23209134E-1,-5.6291293E-2,1.2072422E-1],"categories":[],"categories_nodes":[],"categories_segments":[],"categories_sizes":[],"default_left":[0,0,0,0,0,0,0,0,0,0,0],"id":11,"left_children":[1,3,5,-1,-1,-1,7,9,-1,-1,-1],"loss_changes":[4.7729366E1,2.4243961E1,1.3734205E1,0E0,0E0,0E0,1.3676601E1,1.4640089E1,0E0,0E0,0E0],"parents":[2147483647,0,0,1,1,2,2,6,6,7,7],"right_children":[2,4,6,-1,-1,-1,8,10,-1,-1,-1],"split_conditions":[4.26E-1,7E-1,2.4E-2,1.3822135E-1,-5.6490887E-2,1.1183506E-1,9.8E-1,1.011E0,1.23209134E-1,-5.6291293E-2,1.2072422E-1],"split_indices":[1,2,3,0,0,0,2,3,0,0,0],"split_type":[0,0,0,0,0,0,0,0,0,0,0],"sum_hessian":[1.4712752E2,3.6628735E1,1.1049879E2,2.9109371E1,7.5193644E0,5.3011065E0,1.05197685E2,1.0126007E2,3.9376135E0,9.727362E1,3.9864483E0],"tree_param":{"num_deleted":"0","num_feature":"4","num_nodes":"11","size_leaf_vector":"1"}},{"base_weights":[-2.4994663E-3,-6.1865E-2,8.1367534E-1,-5.684753E-2,1.0752643E0,1.1811315E0,-4.8652522E-2,1.2191997E-1,-3.251749E-2],"categories":[],"categories_nodes":[],"categories_segments":[],"categories_sizes":[],"default_left":[0,0,0,0,0,0,0,0,0],"id":12,"left_children":[1,-1,3,-1,5,7,-1,-1,-1],"loss_changes":[7.376502E1,0E0,2.3425678E1,0E0,9.404686E0,3.2811203E0,0E0,0E0,0E0],"parents":[2147483647,0,0,2,2,4,4,5,5],"right_children":[2,-1,4,-1,6,8,-1,-1,-1],"split_conditions":[7.44E-1,-6.1865E-2,4.26E-1,-5.684753E-2,2.71E-1,1.011E0,-4.8652522E-2,1.2191997E-1,-3.251749E-2],"split_indices":[3,0,1,0,0,3,0,0,0],"split_type":[0,0,0,0,0,0,0,0,0],"sum_hessian":[1.4468225E2,8.2581474E1,6.2100777E1,9.696177E0,5.2404602E1,4.930608E1,3.0985212E0,4.827661E1,1.0294695E0],"tree_param":{"num_deleted":"0","num_feature":"4","num_nodes":"9","size_leaf_vector":"1"}},{"base_weights":[-2.5907063E-3,-6.0207624E-2,5.042708E-1,-5.9952337E-2,9.1185665E-1,1.109068E0,-5.5021603E-2,-4.582124E-2,1.2024472E-1],"categories":[],"categories_nodes":[],"categories_segments":[],"categories_sizes":[],"default_left":[0,0,0,0,0,0,0,0,0],"id":13,"left_children":[1,-1,3,-1,5,7,-1,-1,-1],"loss_changes":[4.460368E1,0E0,3.633262E1,0E0,1.7474827E1,8.14209E0,0E0,0E0,0E0],"parents":[2147483647,0,0,2,2,4,4,5,5],"right_children":[2,-1,4,-1,6,8,-1,-1,-1],"split_conditions":[3.15E-1,-6.0207624E-2,3.42E-1,-5.9952337E-2,7.27E-1,4.26E-1,-5.5021603E-2,-4.582124E-2,1.2024472E-1],"split_indices":[0,0,3,0,3,1,0,0,0],"split_type":[0,0,0,0,0,0,0,0,0],"sum_hessian":[1.4479292E2,6.624932E1,7.8543594E1,2.1054482E1,5.7489117E1,5.086909E1,6.620026E0,2.6406856E0,4.8228405E1],"tree_param":{"num_deleted":"0","num_feature":"4","num_nodes":"9","size_leaf_vector":"1"}},{"base_weights":[-1.2307587E-3,-6.1970837E-2,1.0844939E0,1.173875E0,-4.5801558E-2,1.2122184E0,-3.291658E-2,1.1881388E-2,1.2351417E-1],"categories":[],"categories_nodes":[],"categories_segments":[],"categories_sizes":[],"default_left":[0,0,0,0,0,0,0,0,0],"id":14,"left_children":[1,-1,3,5,-1,7,-1,-1,-1],"loss_changes":[9.837913E1,0E0,7.8682327E0,3.3116379E0,0E0,1.0938034E0,0E0,0E0,0E0],"parents":[2147483647,0,0,2,2,3,3,5,5],"right_children":[2,-1,4,6,-1,8,-1,-1,-1],"split_conditions":[7.65E-1,-6.1970837E-2,1.041E0,2.9E-1,-4.5801558E-2,2.4E-2,-3.291658E-2,1.1881388E-2,1.2351417E-1],"split_indices":[2,0,2,3,0,3,0,0,0],"split_type":[0,0,0,0,0,0,0,0,0],"sum_hessian":[1.4450645E2,9.233659E1,5.2169857E1,4.9538334E1,2.6315236E0,4.8494694E1,1.043639E0,1.1227809E0,4.7371914E1],"tree_param":{"num_deleted":"0","num_feature":"4","num_nodes":"9","size_leaf_vector":"1"}},{"base_weights":[6.3404506E-3,8.811288E-1,-3.092053E-1,1.2219186E-1,-5.5090666E-2,1.1175251E-1,-3.8462096E-1,1.47199E-1,-4.4724822E-1,-5.2642744E-2,1.1218151E-1],"categories":[],"categories_nodes":[],"categories_segments":[],"categories_sizes":[],"default_left":[0,0,0,0,0,0,0,0,0,0,0],"id":15,"left_children":[1,3,5,-1,-1,-1,7,-1,9,-1,-1],"loss_changes":[4.0365234E1,1.9590279E1,1.1994673E1,0E0,0E0,0E0,1.2614839E1,0E0,1.3044273E1,0E0,0E0],"parents":[2147483647,0,0,1,1,2,2,6,6,8,8],"right_children":[2,4,6,-1,-1,-1,8,-1,10,-1,-1],"split_conditions":[4.26E-1,7E-1,-2E-2,1.2219186E-1,-5.5090666E-2,1.1175251E-1,5.4E-2,1.47199E-1,9.8E-1,-5.2642744E-2,1.1218151E-1],"split_indices":[1,2,3,0,0,0,2,0,2,0,0],"split_type":[0,0,0,0,0,0,0,0,0,0,0],"sum_hessian":[1.4424492E2,3.776275E1,1.0648217E2,3.0622145E1,7.1406045E0,4.652222E0,1.0182995E2,2.5885093E0,9.924144E1,9.510659E1,4.1348443E0],"tree_param":{"num_deleted":"0","num_feature":"4","num_nodes":"11","size_leaf_vector":"1"}},{"base_weights":[-3.366191E-3,-6.0692336E-2,7.404157E-1,-5.5544842E-2,9.67274E-1,1.0624772E0,-4.828083E-2,1.0975325E-1,-3.2871258E-2],"categories":[],"categories_nodes":[],"categories_segments":[],"categories_sizes":[],"default_left":[0,0,0,0,0,0,0,0,0],"id":16,"left_children":[1,-1,3,-1,5,7,-1,-1,-1],"loss_changes":[6.414373E1,0E0,1.9354671E1,0E0,8.083515E0,2.885624E0,0E0,0E0,0E0],"parents":[2147483647,0,0,2,2,4,4,5,5],"right_children":[2,-1,4,-1,6,8,-1,-1,-1],"split_conditions":[7.44E-1,-6.0692336E-2,4.26E-1,-5.5544842E-2,2.71E-1,1.011E0,-4.828083E-2,1.0975325E-1,-3.2871258E-2],"split_indices":[3,0,1,0,0,3,0,0,0],"split_type":[0,0,0,0,0,0,0,0,0],"sum_hessian":[1.4088516E2,7.787549E1,6.3009666E1,9.171518E0,5.3838146E1,5.0772076E1,3.0660725E0,4.9730057E1,1.0420176E0],"tree_param":{"num_deleted":"0","num_feature":"4","num_nodes":"9","size_leaf_vector":"1"}},{"base_weights":[-3.355254E-3,-5.897016E-2,4.6558738E-1,-5.8723956E-2,8.27026E-1,1.0013404E0,-5.4091483E-2,-4.4493593E-2,1.0819645E-1],"categories":[],"categories_nodes":[],"categories_segments":[],"categories_sizes":[],"default_left":[0,0,0,0,0,0,0,0,0],"id":17,"left_children":[1,-1,3,-1,5,7,-1,-1,-1],"loss_changes":[3.9336536E1,0E0,3.0735178E1,0E0,1.4751514E1,6.6856422E0,0E0,0E0,0E0],"parents":[2147483647,0,0,2,2,4,4,5,5],"right_children":[2,-1,4,-1,6,8,-1,-1,-1],"split_conditions":[3.15E-1,-5.897016E-2,3.42E-1,-5.8723956E-2,7.27E-1,4.26E-1,-5.4091483E-2,-4.4493593E-2,1.0819645E-1],"split_indices":[0,0,3,0,3,1,0,0,0],"split_type":[0,0,0,0,0,0,0,0,0],"sum_hessian":[1.4106279E2,6.2570156E1,7.849263E1,1.9900412E1,5.8592216E1,5.2207497E1,6.38472E0,2.5180876E0,4.968941E1],"tree_param":{"num_deleted":"0","num_feature":"4","num_nodes":"9","size_leaf_vector":"1"}},{"base_weights":[-1.8113836E-3,-6.0825255E-2,9.801895E-1,1.0572757E0,-4.441829E-2,1.0919862E0,-3.281096E-2,1.1432151E-2,1.11189626E-1],"categories":[],"categories_nodes":[],"categories_segments":[],"categories_sizes":[],"default_left":[0,0,0,0,0,0,0,0,0],"id":18,"left_children":[1,-1,3,5,-1,7,-1,-1,-1],"loss_changes":[8.495971E1,0E0,6.4500923E0,2.8572388E0,0E0,8.642082E-1,0E0,0E0,0E0],"parents":[2147483647,0,0,2,2,3,3,5,5],"right_children":[2,-1,4,6,-1,8,-1,-1,-1],"split_conditions":[7.65E-1,-6.0825255E-2,1.041E0,2.9E-1,-4.441829E-2,2.4E-2,-3.281096E-2,1.1432151E-2,1.11189626E-1],"split_indices":[2,0,2,3,0,3,0,0,0],"split_type":[0,0,0,0,0,0,0,0,0],"sum_hessian":[1.4066223E2,8.7194984E1,5.3467243E1,5.0966682E1,2.5005589E0,4.992754E1,1.0391454E0,1.131037E0,4.87965E1],"tree_param":{"num_deleted":"0","num_feature":"4","num_nodes":"9","size_leaf_vector":"1"}},{"base_weights":[8.540714E-3,8.0489063E-1,-2.9407275E-1,1.1002953E-1,-5.375467E-2,9.178862E-2,-3.747954E-1,-4.5221034E-1,1.0904894E-1,1.308879E-1,-5.216697E-2],"categories":[],"categories_nodes":[],"categories_segments":[],"categories_sizes":[],"default_left":[0,0,0,0,0,0,0,0,0,0,0],"id":19,"left_children":[1,3,5,-1,-1,-1,7,9,-1,-1,-1],"loss_changes":[3.4402687E1,1.6179262E1,1.0466597E1,0E0,0E0,0E0,1.1577681E1,1.2122614E1,0E0,0E0,0E0],"parents":[2147483647,0,0,1,1,2,2,6,6,7,7],"right_children":[2,4,6,-1,-1,-1,8,10,-1,-1,-1],"split_conditions":[4.26E-1,7E-1,2.4E-2,1.1002953E-1,-5.375467E-2,9.178862E-2,1.011E0,5.4E-2,1.0904894E-1,1.308879E-1,-5.216697E-2],"split_indices":[1,2,3,0,0,0,3,2,0,0,0],"split_type":[0,0,0,0,0,0,0,0,0,0,0],"sum_hessian":[1.4077571E2,3.8307327E1,1.0246838E2,3.1545977E1,6.7613497E0,5.751113E0,9.671727E1,9.2520546E1,4.1967244E0,2.8335743E0,8.968697E1],"tree_param":{"num_deleted":"0","num_feature":"4","num_nodes":"11","size_leaf_vector":"1"}},{"base_weights":[-4.2156754E-3,-5.9640486E-2,6.832899E-1,-5.4307908E-2,8.8471764E-1,9.702024E-1,-4.7179215E-2,1.0016996E-1,-3.1925365E-2],"categories":[],"categories_nodes":[],"categories_segments":[],"categories_sizes":[],"default_left":[0,0,0,0,0,0,0,0,0],"id":20,"left_children":[1,-1,3,-1,5,7,-1,-1,-1],"loss_changes":[5.6322655E1,0E0,1.6295153E1,0E0,6.878395E0,2.448555E0,0E0,0E0,0E0],"parents":[2147483647,0,0,2,2,4,4,5,5],"right_children":[2,-1,4,-1,6,8,-1,-1,-1],"split_conditions":[7.44E-1,-5.9640486E-2,4.26E-1,-5.4307908E-2,2.71E-1,1.011E0,-4.7179215E-2,1.0016996E-1,-3.1925365E-2],"split_indices":[3,0,1,0,0,3,0,0,0],"split_type":[0,0,0,0,0,0,0,0,0],"sum_hessian":[1.3633862E2,7.3318E1,6.3020626E1,8.651408E0,5.4369217E1,5.1413982E1,2.955234E0,5.040589E1,1.0080904E0],"tree_param":{"num_deleted":"0","num_feature":"4","num_nodes":"9","size_leaf_vector":"1"}},{"base_weights":[-4.122121E-3,-5.7822514E-2,4.3361074E-1,-5.7608027E-2,7.601086E-1,9.155116E-1,-5.288711E-2,-4.3195862E-2,9.867393E-2],"categories":[],"categories_nodes":[],"categories_segments":[],"categories_sizes":[],"default_left":[0,0,0,0,0,0,0,0,0],"id":21,"left_children":[1,-1,3,-1,5,7,-1,-1,-1],"loss_changes":[3.4829018E1,0E0,2.6362984E1,0E0,1.2474144E1,5.5881424E0,0E0,0E0,0E0],"parents":[2147483647,0,0,2,2,4,4,5,5],"right_children":[2,-1,4,-1,6,8,-1,-1,-1],"split_conditions":[3.15E-1,-5.7822514E-2,3.42E-1,-5.7608027E-2,7.27E-1,4.26E-1,-5.288711E-2,-4.3195862E-2,9.867393E-2],"split_indices":[0,0,3,0,3,1,0,0,0],"split_type":[0,0,0,0,0,0,0,0,0],"sum_hessian":[1.365956E2,5.8954117E1,7.764149E1,1.8784916E1,5.885657E1,5.278268E1,6.07389E0,2.3957596E0,5.038692E1],"tree_param":{"num_deleted":"0","num_feature":"4","num_nodes":"9","size_leaf_vector":"1"}},{"base_weights":[-2.3553467E-3,-5.9750613E-2,8.947727E-1,9.665933E-1,-4.436759E-2,9.983562E-1,-3.225642E-2,1.1650149E-2,1.0157504E-1],"categories":[],"categories_nodes":[],"categories_segments":[],"categories_sizes":[],"default_left":[0,0,0,0,0,0,0,0,0],"id":22,"left_children":[1,-1,3,5,-1,7,-1,-1,-1],"loss_changes":[7.37225E1,0E0,5.7225E0,2.4749985E0,0E0,6.725273E-1,0E0,0E0,0E0],"parents":[2147483647,0,0,2,2,3,3,5,5],"right_children":[2,-1,4,6,-1,8,-1,-1,-1],"split_conditions":[7.65E-1,-5.9750613E-2,1.041E0,2.9E-1,-4.436759E-2,2.4E-2,-3.225642E-2,1.1650149E-2,1.0157504E-1],"split_indices":[2,0,2,3,0,3,0,0,0],"split_type":[0,0,0,0,0,0,0,0,0],"sum_hessian":[1.3607483E2,8.200624E1,5.4068596E1,5.1578728E1,2.4898677E0,5.0558613E1,1.0201131E0,1.1268549E0,4.943176E1],"tree_param":{"num_deleted":"0","num_feature":"4","num_nodes":"9","size_leaf_vector":"1"}},{"base_weights":[1.0669519E-2,7.436258E-1,-2.7973193E-1,1.0052557E-1,-5.247593E-2,-3.4992936E-1,1.04510956E-1,9.376253E-2,-4.307769E-1,-5.1466253E-2,9.9580795E-2],"categories":[],"categories_nodes":[],"categories_segments":[],"categories_sizes":[],"default_left":[0,0,0,0,0,0,0,0,0,0,0],"id":23,"left_children":[1,3,5,-1,-1,7,-1,-1,9,-1,-1],"loss_changes":[2.9514112E1,1.3583778E1,9.6043E0,0E0,0E0,1.0302312E1,0E0,0E0,1.1301556E1,0E0,0E0],"parents":[2147483647,0,0,1,1,2,2,5,5,8,8],"right_children":[2,4,6,-1,-1,8,-1,-1,10,-1,-1],"split_conditions":[4.26E-1,7E-1,9.8E-1,1.0052557E-1,-5.247593E-2,-2E-2,1.04510956E-1,9.376253E-2,1.011E0,-5.1466253E-2,9.9580795E-2],"split_indices":[1,2,2,0,0,3,0,0,3,0,0],"split_type":[0,0,0,0,0,0,0,0,0,0,0],"sum_hessian":[1.3668324E2,3.8344154E1,9.8339096E1,3.195935E1,6.384806E0,9.408958E1,4.249516E0,4.932856E0,8.915672E1,8.480904E1,4.34768E0],"tree_param":{"num_deleted":"0","num_feature":"4","num_nodes":"11","size_leaf_vector":"1"}},{"base_weights":[-5.030603E-3,-5.8682807E-2,6.361606E-1,-5.3129274E-2,8.178356E-1,8.965261E-1,-4.6298202E-2,9.2469454E-2,1.17126275E-2],"categories":[],"categories_nodes":[],"categories_segments":[],"categories_sizes":[],"default_left":[0,0,0,0,0,0,0,0,0],"id":24,"left_children":[1,-1,3,-1,5,7,-1,-1,-1],"loss_changes":[4.9691074E1,0E0,1.3875425E1,0E0,5.9817734E0,1.0415688E0,0E0,0E0,0E0],"parents":[2147483647,0,0,2,2,4,4,5,5],"right_children":[2,-1,4,-1,6,8,-1,-1,-1],"split_conditions":[7.44E-1,-5.8682807E-2,4.26E-1,-5.3129274E-2,2.71E-1,9.79E-1,-4.6298202E-2,9.2469454E-2,1.17126275E-2],"split_indices":[3,0,1,0,0,3,0,0,0],"split_type":[0,0,0,0,0,0,0,0,0],"sum_hessian":[1.312038E2,6.883227E1,6.237153E1,8.139869E0,5.423166E1,5.1375313E1,2.8563457E0,4.9403397E1,1.9719149E0],"tree_param":{"num_deleted":"0","num_feature":"4","num_nodes":"9","size_leaf_vector":"1"}},{"base_weights":[-4.933512E-3,-5.6749403E-2,4.061737E-1,-5.658369E-2,7.0483047E-1,8.4612125E-1,-5.1824372E-2,-4.192652E-2,9.102544E-2],"categories":[],"categories_nodes":[],"categories_segments":[],"categories_sizes":[],"default_left":[0,0,0,0,0,0,0,0,0],"id":25,"left_children":[1,-1,3,-1,5,7,-1,-1,-1],"loss_changes":[3.088366E1,0E0,2.2798697E1,0E0,1.0715633E1,4.7389297E0,0E0,0E0,0E0],"parents":[2147483647,0,0,2,2,4,4,5,5],"right_children":[2,-1,4,-1,6,8,-1,-1,-1],"split_conditions":[3.15E-1,-5.6749403E-2,3.42E-1,-5.658369E-2,7.27E-1,4.26E-1,-5.1824372E-2,-4.192652E-2,9.102544E-2],"split_indices":[0,0,3,0,3,1,0,0,0],"split_type":[0,0,0,0,0,0,0,0,0],"sum_hessian":[1.315412E2,5.5379417E1,7.616179E1,1.7690746E1,5.847104E1,5.269219E1,5.7788525E0,2.2746453E0,5.041754E1],"tree_param":{"num_deleted":"0","num_feature":"4","num_nodes":"9","size_leaf_vector":"1"}},{"base_weights":[-2.8962672E-3,-5.880154E-2,8.291046E-1,8.939149E-1,-4.302658E-2,9.218071E-1,-3.9269794E-3,1.1291491E-2,9.379069E-2],"categories":[],"categories_nodes":[],"categories_segments":[],"categories_sizes":[],"default_left":[0,0,0,0,0,0,0,0,0],"id":26,"left_children":[1,-1,3,5,-1,7,-1,-1,-1],"loss_changes":[6.4696884E1,0E0,4.863426E0,1.403038E0,0E0,5.586586E-1,0E0,0E0,0E0],"parents":[2147483647,0,0,2,2,3,3,5,5],"right_children":[2,-1,4,6,-1,8,-1,-1,-1],"split_conditions":[7.65E-1,-5.880154E-2,1.041E0,2.75E-1,-4.302658E-2,2.4E-2,-3.9269794E-3,1.1291491E-2,9.379069E-2],"split_indices":[2,0,2,3,0,3,0,0,0],"split_type":[0,0,0,0,0,0,0,0,0],"sum_hessian":[1.3089558E2,7.7021866E1,5.3873722E1,5.1512928E1,2.3607934E0,5.0029766E1,1.4831626E0,1.132715E0,4.889705E1],"tree_param":{"num_deleted":"0","num_feature":"4","num_nodes":"9","size_leaf_vector":"1"}},{"base_weights":[1.2791793E-2,6.9351643E-1,-2.6640078E-1,9.292712E-2,-5.124829E-2,1.18459E-1,-3.2694376E-1,-4.0233186E-1,9.710293E-2,7.804864E-2,-4.9783092E-2],"categories":[],"categories_nodes":[],"categories_segments":[],"categories_sizes":[],"default_left":[0,0,0,0,0,0,0,0,0,0,0],"id":27,"left_children":[1,3,5,-1,-1,-1,7,9,-1,-1,-1],"loss_changes":[2.5456692E1,1.1551296E1,8.734554E0,0E0,0E0,0E0,9.392833E0,1.0289873E1,0E0,0E0,0E0],"parents":[2147483647,0,0,1,1,2,2,6,6,7,7],"right_children":[2,4,6,-1,-1,-1,8,10,-1,-1,-1],"split_conditions":[4.26E-1,7E-1,5.4E-2,9.292712E-2,-5.124829E-2,1.18459E-1,9.8E-1,2.4E-2,9.710293E-2,7.804864E-2,-4.9783092E-2],"split_indices":[1,2,2,0,0,0,2,3,0,0,0],"split_type":[0,0,0,0,0,0,0,0,0,0,0],"sum_hessian":[1.3197293E2,3.7952793E1,9.4020134E1,3.1938713E1,6.01408E0,3.0222354E0,9.09979E1,8.665489E1,4.3430095E0,5.9378633E0,8.071703E1],"tree_param":{"num_deleted":"0","num_feature":"4","num_nodes":"11","size_leaf_vector":"1"}},{"base_weights":[-5.8476347E-3,-5.7777554E-2,5.9441185E-1,-5.2002143E-2,7.596574E-1,8.357971E-1,-4.6185117E-2,8.6357675E-2,-6.9550136E-3],"categories":[],"categories_nodes":[],"categories_segments":[],"categories_sizes":[],"default_left":[0,0,0,0,0,0,0,0,0],"id":28,"left_children":[1,-1,3,-1,5,7,-1,-1,-1],"loss_changes":[4.384368E1,0E0,1.1870983E1,0E0,5.4711723E0,1.3634491E0,0E0,0E0,0E0],"parents":[2147483647,0,0,2,2,4,4,5,5],"right_children":[2,-1,4,-1,6,8,-1,-1,-1],"split_conditions":[7.44E-1,-5.7777554E-2,4.26E-1,-5.2002143E-2,1.011E0,2.39E-1,-4.6185117E-2,8.6357675E-2,-6.9550136E-3],"split_indices":[3,0,1,0,3,0,0,0,0],"split_type":[0,0,0,0,0,0,0,0,0],"sum_hessian":[1.2571016E2,6.4393456E1,6.13167E1,7.640618E0,5.3676083E1,5.082387E1,2.8522124E0,4.935558E1,1.4682903E0],"tree_param":{"num_deleted":"0","num_feature":"4","num_nodes":"9","size_leaf_vector":"1"}},{"base_weights":[-5.7984237E-3,-5.5740416E-2,3.82386E-1,-5.5581033E-2,6.5764934E-1,7.893897E-1,-5.100267E-2,-4.068404E-2,8.480468E-2],"categories":[],"categories_nodes":[],"categories_segments":[],"categories_sizes":[],"default_left":[0,0,0,0,0,0,0,0,0],"id":29,"left_children":[1,-1,3,-1,5,7,-1,-1,-1],"loss_changes":[2.7431166E1,0E0,1.9786388E1,0E0,9.417166E0,4.0675354E0,0E0,0E0,0E0],"parents":[2147483647,0,0,2,2,4,4,5,5],"right_children":[2,-1,4,-1,6,8,-1,-1,-1],"split_conditions":[3.15E-1,-5.5740416E-2,3.42E-1,-5.5581033E-2,7.27E-1,4.26E-1,-5.100267E-2,-4.068404E-2,8.480468E-2],"split_indices":[0,0,3,0,3,1,0,0,0],"split_type":[0,0,0,0,0,0,0,0,0],"sum_hessian":[1.2611292E2,5.191143E1,7.4201485E1,1.66008E1,5.760069E1,5.2052002E1,5.5486856E0,2.155598E0,4.9896404E1],"tree_param":{"num_deleted":"0","num_feature":"4","num_nodes":"9","size_leaf_vector":"1"}},{"base_weights":[-3.436136E-3,-5.792467E-2,7.747226E-1,8.34055E-1,-4.172149E-2,8.610537E-1,-4.7074887E-3,1.1573295E-2,8.757463E-2],"categories":[],"categories_nodes":[],"categories_segments":[],"categories_sizes":[],"default_left":[0,0,0,0,0,0,0,0,0],"id":30,"left_children":[1,-1,3,5,-1,7,-1,-1,-1],"loss_changes":[5.7058964E1,0E0,4.1780624E0,1.2757568E0,0E0,4.5090485E-1,0E0,0E0,0E0],"parents":[2147483647,0,0,2,2,3,3,5,5],"right_children":[2,-1,4,6,-1,8,-1,-1,-1],"split_conditions":[7.65E-1,-5.792467E-2,1.041E0,2.75E-1,-4.172149E-2,2.4E-2,-4.7074887E-3,1.1573295E-2,8.757463E-2],"split_indices":[2,0,2,3,0,3,0,0,0],"split_type":[0,0,0,0,0,0,0,0,0],"sum_hessian":[1.25341774E2,7.218384E1,5.3157932E1,5.0923313E1,2.2346165E0,4.9431473E1,1.4918427E0,1.127223E0,4.830425E1],"tree_param":{"num_deleted":"0","num_feature":"4","num_nodes":"9","size_leaf_vector":"1"}},{"base_weights":[1.4931763E-2,6.5190285E-1,-2.5312686E-1,8.673761E-2,-5.006645E-2,-3.2418066E-1,9.224254E-2,-4.01358E-1,9.1018684E-2,1.07992984E-1,-4.747383E-2],"categories":[],"categories_nodes":[],"categories_segments":[],"categories_sizes":[],"default_left":[0,0,0,0,0,0,0,0,0,0,0],"id":31,"left_children":[1,3,5,-1,-1,7,-1,9,-1,-1,-1],"loss_changes":[2.2030418E1,9.92337E0,7.8874497E0,0E0,0E0,8.597283E0,0E0,9.428073E0,0E0,0E0,0E0],"parents":[2147483647,0,0,1,1,2,2,5,5,7,7],"right_children":[2,4,6,-1,-1,8,-1,10,-1,-1,-1],"split_conditions":[4.26E-1,7E-1,1.011E0,8.673761E-2,-5.006645E-2,9.8E-1,9.224254E-2,5.4E-2,9.1018684E-2,1.07992984E-1,-4.747383E-2],"split_indices":[1,2,3,0,0,2,0,2,0,0,0],"split_type":[0,0,0,0,0,0,0,0,0,0,0],"sum_hessian":[1.2705838E2,3.7209E1,8.984938E1,3.1556864E1,5.6521354E0,8.541112E1,4.438265E0,8.102027E1,4.390848E0,3.1767185E0,7.784355E1],"tree_param":{"num_deleted":"0","num_feature":"4","num_nodes":"11","size_leaf_vector":"1"}},{"base_weights":[-6.6796904E-3,-5.6983855E-2,5.618759E-1,-5.091981E-2,7.145984E-1,7.857173E-1,-4.4927023E-2,8.120778E-2,-6.7881173E-3],"categories":[],"categories_nodes":[],"categories_segments":[],"categories_sizes":[],"default_left":[0,0,0,0,0,0,0,0,0],"id":32,"left_children":[1,-1,3,-1,5,7,-1,-1,-1],"loss_changes":[3.904189E1,0E0,1.0290144E1,0E0,4.783489E0,1.1983509E0,0E0,0E0,0E0],"parents":[2147483647,0,0,2,2,4,4,5,5],"right_children":[2,-1,4,-1,6,8,-1,-1,-1],"split_conditions":[7.44E-1,-5.6983855E-2,4.26E-1,-5.091981E-2,1.011E0,2.39E-1,-4.4927023E-2,8.120778E-2,-6.7881173E-3],"split_indices":[3,0,1,0,3,0,0,0,0],"split_type":[0,0,0,0,0,0,0,0,0],"sum_hessian":[1.19934654E2,6.025216E1,5.96825E1,7.156735E0,5.252576E1,4.9807175E1,2.7185879E0,4.836231E1,1.4448645E0],"tree_param":{"num_deleted":"0","num_feature":"4","num_nodes":"9","size_leaf_vector":"1"}},{"base_weights":[-6.657801E-3,-5.4787885E-2,3.614638E-1,-5.4765936E-2,6.1999035E-1,7.42061E-1,-4.981811E-2,-3.9466653E-2,7.9639055E-2],"categories":[],"categories_nodes":[],"categories_segments":[],"categories_sizes":[],"default_left":[0,0,0,0,0,0,0,0,0],"id":33,"left_children":[1,-1,3,-1,5,7,-1,-1,-1],"loss_changes":[2.4387543E1,0E0,1.7464994E1,0E0,8.177322E0,3.524004E0,0E0,0E0,0E0],"parents":[2147483647,0,0,2,2,4,4,5,5],"right_children":[2,-1,4,-1,6,8,-1,-1,-1],"split_conditions":[3.15E-1,-5.4787885E-2,3.42E-1,-5.4765936E-2,7.27E-1,4.26E-1,-4.981811E-2,-3.9466653E-2,7.9639055E-2],"split_indices":[0,0,3,0,3,1,0,0,0],"split_type":[0,0,0,0,0,0,0,0,0],"sum_hessian":[1.20411835E2,4.8547638E1,7.18642E1,1.5663662E1,5.6200535E1,5.097226E1,5.228276E0,2.039331E0,4.8932926E1],"tree_param":{"num_deleted":"0","num_feature":"4","num_nodes":"9","size_leaf_vector":"1"}},{"base_weights":[-4.10189E-3,-5.7121087E-2,7.2888637E-1,7.8381336E-1,-4.0431578E-2,8.094096E-1,-4.5294287E-3,9.725033E-3,8.245392E-2],"categories":[],"categories_nodes":[],"categories_segments":[],"categories_sizes":[],"default_left":[0,0,0,0,0,0,0,0,0],"id":34,"left_children":[1,-1,3,5,-1,7,-1,-1,-1],"loss_changes":[5.051612E1,0E0,3.616579E0,1.1169052E0,0E0,4.5240784E-1,0E0,0E0,0E0],"parents":[2147483647,0,0,2,2,3,3,5,5],"right_children":[2,-1,4,6,-1,8,-1,-1,-1],"split_conditions":[7.65E-1,-5.7121087E-2,1.041E0,2.75E-1,-4.0431578E-2,2.4E-2,-4.5294287E-3,9.725033E-3,8.245392E-2],"split_indices":[2,0,2,3,0,3,0,0,0],"split_type":[0,0,0,0,0,0,0,0,0],"sum_hessian":[1.1952363E2,6.751125E1,5.201238E1,4.990192E1,2.1104562E0,4.8430527E1,1.471393E0,1.1620047E0,4.7268524E1],"tree_param":{"num_deleted":"0","num_feature":"4","num_nodes":"9","size_leaf_vector":"1"}},{"base_weights":[1.7161988E-2,6.1691463E-1,-2.3996846E-1,8.161768E-2,-4.892314E-2,8.130282E-2,-3.1407803E-1,-3.9314476E-1,8.5726015E-2,-4.805334E-2,8.5982025E-2],"categories":[],"categories_nodes":[],"categories_segments":[],"categories_sizes":[],"default_left":[0,0,0,0,0,0,0,0,0,0,0],"id":35,"left_children":[1,3,5,-1,-1,-1,7,9,-1,-1,-1],"loss_changes":[1.9112741E1,8.594753E0,7.0284877E0,0E0,0E0,0E0,7.913604E0,8.879408E0,0E0,0E0,0E0],"parents":[2147483647,0,0,1,1,2,2,6,6,7,7],"right_children":[2,4,6,-1,-1,-1,8,10,-1,-1,-1],"split_conditions":[4.26E-1,7E-1,-2E-2,8.161768E-2,-4.892314E-2,8.130282E-2,1.011E0,9.8E-1,8.5726015E-2,-4.805334E-2,8.5982025E-2],"split_indices":[1,2,3,0,0,0,3,2,0,0,0],"split_type":[0,0,0,0,0,0,0,0,0,0,0],"sum_hessian":[1.2197598E2,3.6182247E1,8.579374E1,3.0881388E1,5.3008595E0,4.9855256E0,8.080821E1,7.632082E1,4.487385E0,7.1921135E1,4.39969E0],"tree_param":{"num_deleted":"0","num_feature":"4","num_nodes":"11","size_leaf_vector":"1"}},{"base_weights":[-7.533136E-3,-5.624934E-2,5.3308356E-1,-4.9875494E-2,6.753075E-1,7.438108E-1,-4.428171E-2,7.681508E-2,4.6079936E-3],"categories":[],"categories_nodes":[],"categories_segments":[],"categories_sizes":[],"default_left":[0,0,0,0,0,0,0,0,0],"id":36,"left_children":[1,-1,3,-1,5,7,-1,-1,-1],"loss_changes":[3.4785294E1,0E0,8.95668E0,0E0,4.3159256E0,8.0381584E-1,0E0,0E0,0E0],"parents":[2147483647,0,0,2,2,4,4,5,5],"right_children":[2,-1,4,-1,6,8,-1,-1,-1],"split_conditions":[7.44E-1,-5.624934E-2,4.26E-1,-4.9875494E-2,2.71E-1,5.6E-1,-4.428171E-2,7.681508E-2,4.6079936E-3],"split_indices":[3,0,1,0,0,2,0,0,0],"split_type":[0,0,0,0,0,0,0,0,0],"sum_hessian":[1.1394348E2,5.6205887E1,5.77376E1,6.6905622E0,5.1047035E1,4.8415565E1,2.6314683E0,4.668602E1,1.7295488E0],"tree_param":{"num_deleted":"0","num_feature":"4","num_nodes":"9","size_leaf_vector":"1"}},{"base_weights":[-7.6384633E-3,-5.39003E-2,3.4334823E-1,-5.3924162E-2,5.8650744E-1,7.0136696E-1,-4.882781E-2,-3.827287E-2,7.522055E-2],"categories":[],"categories_nodes":[],"categories_segments":[],"categories_sizes":[],"default_left":[0,0,0,0,0,0,0,0,0],"id":37,"left_children":[1,-1,3,-1,5,7,-1,-1,-1],"loss_changes":[2.1722681E1,0E0,1.5372398E1,0E0,7.1915894E0,3.0730724E0,0E0,0E0,0E0],"parents":[2147483647,0,0,2,2,4,4,5,5],"right_children":[2,-1,4,-1,6,8,-1,-1,-1],"split_conditions":[3.15E-1,-5.39003E-2,3.42E-1,-5.3924162E-2,7.27E-1,4.26E-1,-4.882781E-2,-3.827287E-2,7.522055E-2],"split_indices":[0,0,3,0,3,1,0,0,0],"split_type":[0,0,0,0,0,0,0,0,0],"sum_hessian":[1.1448203E2,4.5326225E1,6.915581E1,1.4674487E1,5.4481316E1,4.9535072E1,4.9462457E0,1.9264551E0,4.7608616E1],"tree_param":{"num_deleted":"0","num_feature":"4","num_nodes":"9","size_leaf_vector":"1"}},{"base_weights":[-4.615103E-3,-5.639221E-2,6.908451E-1,7.422986E-1,-3.9171536E-2,7.6690745E-1,-4.3368E-3,9.510192E-3,7.815632E-2],"categories":[],"categories_nodes":[],"categories_segments":[],"categories_sizes":[],"default_left":[0,0,0,0,0,0,0,0,0],"id":38,"left_children":[1,-1,3,5,-1,7,-1,-1,-1],"loss_changes":[4.4922356E1,0E0,3.1583786E0,9.901352E-1,0E0,3.9868355E-1,0E0,0E0,0E0],"parents":[2147483647,0,0,2,2,3,3,5,5],"right_children":[2,-1,4,6,-1,8,-1,-1,-1],"split_conditions":[7.65E-1,-5.639221E-2,1.041E0,2.75E-1,-3.9171536E-2,2.4E-2,-4.3368E-3,9.510192E-3,7.815632E-2],"split_indices":[2,0,2,3,0,3,0,0,0],"split_type":[0,0,0,0,0,0,0,0,0],"sum_hessian":[1.13487274E2,6.3005646E1,5.048163E1,4.8491177E1,1.9904493E0,4.7041607E1,1.449573E0,1.1642159E0,4.5877388E1],"tree_param":{"num_deleted":"0","num_feature":"4","num_nodes":"9","size_leaf_vector":"1"}},{"base_weights":[1.9373493E-2,4.3383044E-1,-3.2797086E-1,-5.356608E-2,5.7283723E-1,6.1118394E-1,-4.0735456E-1,-4.9665105E-2,4.5106018E-1,7.732766E-2,1.3862015E-2,2.0182677E-2,7.109321E-2,-4.6771884E-1,7.029826E-2,7.256255E-2,-3.3452045E-2,-3.627051E-2,4.09037E-2,-5.1921126E-2,6.674279E-2],"categories":[],"categories_nodes":[],"categories_segments":[],"categories_sizes":[],"default_left":[0,0,0,0,0,0,0,0,0,0,0,0,0,0,0,0,0,0,0,0,0],"id":39,"left_children":[1,3,5,7,9,11,13,-1,15,-1,17,-1,-1,19,-1,-1,-1,-1,-1,-1,-1],"loss_changes":[1.7057274E1,3.689538E0,5.057252E0,3.1080644E0,4.7067986E0,7.8095436E-2,4.354824E0,0E0,1.6565175E0,0E0,1.9536511E0,0E0,0E0,3.7116442E0,0E0,0E0,0E0,0E0,0E0,0E0,0E0],"parents":[2147483647,0,0,1,1,2,2,3,3,4,4,5,5,6,6,8,8,10,10,13,13],"right_children":[2,4,6,8,10,12,14,-1,16,-1,18,-1,-1,20,-1,-1,-1,-1,-1,-1,-1],"split_conditions":[6.55E-1,4.56E-1,2.4E-2,5.02E-1,4.26E-1,7.28E-1,1.011E0,-4.9665105E-2,6.81E-1,7.732766E-2,1.97E-1,2.0182677E-2,7.109321E-2,9.8E-1,7.029826E-2,7.256255E-2,-3.3452045E-2,-3.627051E-2,4.09037E-2,-5.1921126E-2,6.674279E-2],"split_indices":[1,3,3,1,1,1,3,0,0,0,0,0,0,2,0,0,0,0,0,0,0],"split_type":[0,0,0,0,0,0,0,0,0,0,0,0,0,0,0,0,0,0,0,0,0],"sum_hessian":[1.1649843E2,5.3004093E1,6.349434E1,1.1898677E1,4.1105415E1,4.426554E0,5.9067787E1,6.344084E0,5.5545926E0,2.9973888E1,1.1131528E1,1.4596498E0,2.9669044E0,5.6571022E1,2.4967651E0,4.172572E0,1.3820205E0,5.742036E0,5.3894916E0,5.4635265E1,1.9357544E0],"tree_param":{"num_deleted":"0","num_feature":"4","num_nodes":"21","size_leaf_vector":"1"}},{"base_weights":[-8.536587E-3,-5.5563867E-2,5.069012E-1,-4.8863117E-2,6.4002854E-1,7.068237E-1,-4.3692064E-2,7.3209606E-2,5.376818E-3],"categories":[],"categories_nodes":[],"categories_segments":[],"categories_sizes":[],"default_left":[0,0,0,0,0,0,0,0,0],"id":40,"left_children":[1,-1,3,-1,5,7,-1,-1,-1],"loss_changes":[3.0997753E1,0E0,7.815095E0,0E0,3.931734E0,7.49609E-1,0E0,0E0,0E0],"parents":[2147483647,0,0,2,2,4,4,5,5],"right_children":[2,-1,4,-1,6,8,-1,-1,-1],"split_conditions":[7.44E-1,-5.5563867E-2,4.26E-1,-4.8863117E-2,2.71E-1,9.79E-1,-4.3692064E-2,7.3209606E-2,5.376818E-3],"split_indices":[3,0,1,0,0,3,0,0,0],"split_type":[0,0,0,0,0,0,0,0,0],"sum_hessian":[1.0792347E2,5.2315807E1,5.560766E1,6.244038E0,4.936362E1,4.680437E1,2.5592499E0,4.494407E1,1.8603041E0],"tree_param":{"num_deleted":"0","num_feature":"4","num_nodes":"9","size_leaf_vector":"1"}},{"base_weights":[-8.314982E-3,-5.3047216E-1,3.272886E-1,-5.5077672E-2,-3.2549977E-1,-5.3128283E-2,5.573506E-1,1.310677E-2,-4.568046E-2,6.839541E-1,-3.6675152E-1,-3.7101243E-2,7.34091E-2,-5.2025754E-2,5.660912E-3],"categories":[],"categories_nodes":[],"categories_segments":[],"categories_sizes":[],"default_left":[0,0,0,0,0,0,0,0,0,0,0,0,0,0,0],"id":41,"left_children":[1,3,5,-1,7,-1,9,-1,-1,11,13,-1,-1,-1,-1],"loss_changes":[1.936888E1,6.7806244E-4,1.3589384E1,0E0,4.400776E-1,0E0,6.517647E0,0E0,0E0,2.782631E0,4.9120623E-1,0E0,0E0,0E0,0E0],"parents":[2147483647,0,0,1,1,2,2,4,4,6,6,9,9,10,10],"right_children":[2,4,6,-1,8,-1,10,-1,-1,12,14,-1,-1,-1,-1],"split_conditions":[3.15E-1,2.04E-1,3.42E-1,-5.5077672E-2,2.13E-1,-5.3128283E-2,6.54E-1,1.310677E-2,-4.568046E-2,4.26E-1,7.32E-1,-3.7101243E-2,7.34091E-2,-5.2025754E-2,5.660912E-3],"split_indices":[0,0,3,0,0,0,3,0,0,1,1,0,0,0,0],"split_type":[0,0,0,0,0,0,0,0,0,0,0,0,0,0,0],"sum_hessian":[1.0853835E2,4.223904E1,6.629932E1,3.689695E1,5.342091E0,1.3734405E1,5.256491E1,1.1935915E0,4.1484995E0,4.645972E1,6.105187E0,1.8174504E0,4.4642273E1,4.3126063E0,1.7925804E0],"tree_param":{"num_deleted":"0","num_feature":"4","num_nodes":"15","size_leaf_vector":"1"}},{"base_weights":[-5.461659E-3,-5.5717535E-2,6.5737265E-1,7.0660853E-1,-3.8167614E-2,7.3069704E-1,-4.316325E-3,9.65653E-3,7.4484E-2],"categories":[],"categories_nodes":[],"categories_segments":[],"categories_sizes":[],"default_left":[0,0,0,0,0,0,0,0,0],"id":42,"left_children":[1,-1,3,5,-1,7,-1,-1,-1],"loss_changes":[3.999662E1,0E0,2.811575E0,8.946514E-1,0E0,3.4383202E-1,0E0,0E0,0E0],"parents":[2147483647,0,0,2,2,3,3,5,5],"right_children":[2,-1,4,6,-1,8,-1,-1,-1],"split_conditions":[7.65E-1,-5.5717535E-2,1.041E0,2.75E-1,-3.8167614E-2,2.4E-2,-4.316325E-3,9.65653E-3,7.4484E-2],"split_indices":[2,0,2,3,0,3,0,0,0],"split_type":[0,0,0,0,0,0,0,0,0],"sum_hessian":[1.0737002E2,5.8683712E1,4.8686302E1,4.678912E1,1.8971832E0,4.535733E1,1.4317887E0,1.1603007E0,4.419703E1],"tree_param":{"num_deleted":"0","num_feature":"4","num_nodes":"9","size_leaf_vector":"1"}},{"base_weights":[2.171584E-2,3.9291552E-1,-3.3941597E-1,5.618795E-1,1.1225578E-1,-3.9751935E-1,6.71713E-2,7.3691994E-2,-4.6707194E-2,7.596814E-2,-9.036654E-2,5.0904926E-2,-4.6757984E-1,8.043703E-2,-2.1251708E-2,-5.2322295E-2,6.358655E-2],"categories":[],"categories_nodes":[],"categories_segments":[],"categories_sizes":[],"default_left":[0,0,0,0,0,0,0,0,0,0,0,0,0,0,0,0,0],"id":43,"left_children":[1,3,5,7,9,11,-1,-1,-1,-1,13,-1,15,-1,-1,-1,-1],"loss_changes":[1.5149341E1,2.5783691E0,3.6342478E0,6.561491E0,2.9785123E0,3.720417E0,0E0,0E0,0E0,0E0,2.1150446E0,0E0,3.4896097E0,0E0,0E0,0E0,0E0],"parents":[2147483647,0,0,1,1,2,2,3,3,4,4,5,5,10,10,12,12],"right_children":[2,4,6,8,10,12,-1,-1,-1,-1,14,-1,16,-1,-1,-1,-1],"split_conditions":[6.88E-1,4.26E-1,1.011E0,7E-1,3.42E-1,2.4E-2,6.71713E-2,7.3691994E-2,-4.6707194E-2,7.596814E-2,-1.39E-1,5.0904926E-2,9.8E-1,8.043703E-2,-2.1251708E-2,-5.2322295E-2,6.358655E-2],"split_indices":[1,1,3,2,3,3,0,0,0,0,2,0,2,0,0,0,0],"split_type":[0,0,0,0,0,0,0,0,0,0,0,0,0,0,0,0,0],"sum_hessian":[1.1101606E2,5.4701523E1,5.631454E1,3.35198E1,2.1181726E1,5.3828217E1,2.4863217E0,2.8889126E1,4.6306705E0,4.393672E0,1.6788055E1,3.4119842E0,5.0416233E1,1.3457246E0,1.544233E1,4.849654E1,1.9196924E0],"tree_param":{"num_deleted":"0","num_feature":"4","num_nodes":"17","size_leaf_vector":"1"}},{"base_weights":[-9.38642E-3,-5.4917373E-2,4.8364472E-1,-4.787947E-2,6.0900044E-1,6.754891E-1,-4.3338887E-2,6.9998845E-2,1.6185679E-3],"categories":[],"categories_nodes":[],"categories_segments":[],"categories_sizes":[],"default_left":[0,0,0,0,0,0,0,0,0],"id":44,"left_children":[1,-1,3,-1,5,7,-1,-1,-1],"loss_changes":[2.7655378E1,0E0,6.8451853E0,0E0,3.65419E0,7.314148E-1,0E0,0E0,0E0],"parents":[2147483647,0,0,2,2,4,4,5,5],"right_children":[2,-1,4,-1,6,8,-1,-1,-1],"split_conditions":[7.44E-1,-5.4917373E-2,4.26E-1,-4.787947E-2,2.71E-1,5.6E-1,-4.3338887E-2,6.9998845E-2,1.6185679E-3],"split_indices":[3,0,1,0,0,2,0,0,0],"split_type":[0,0,0,0,0,0,0,0,0],"sum_hessian":[1.0191802E2,4.8597717E1,5.332031E1,5.8196306E0,4.7500675E1,4.4983395E1,2.5172818E0,4.3312233E1,1.671164E0],"tree_param":{"num_deleted":"0","num_feature":"4","num_nodes":"9","size_leaf_vector":"1"}},{"base_weights":[-9.519829E-3,-5.224499E-1,3.1213292E-1,-5.438524E-2,-3.1258893E-1,-5.233199E-2,5.301604E-1,1.94361E-2,-4.5095038E-2,6.537672E-1,-3.616894E-1,-3.595052E-2,7.015147E-2,-5.1099718E-2,4.1454085E-3],"categories":[],"categories_nodes":[],"categories_segments":[],"categories_sizes":[],"default_left":[0,0,0,0,0,0,0,0,0,0,0,0,0,0,0],"id":45,"left_children":[1,3,5,-1,7,-1,9,-1,-1,11,13,-1,-1,-1,-1],"loss_changes":[1.725985E1,1.1060715E-2,1.1992344E1,0E0,5.142787E-1,0E0,5.9137926E0,0E0,0E0,2.4577808E0,4.37276E-1,0E0,0E0,0E0,0E0],"parents":[2147483647,0,0,1,1,2,2,4,4,6,6,9,9,10,10],"right_children":[2,4,6,-1,8,-1,10,-1,-1,12,14,-1,-1,-1,-1],"split_conditions":[3.15E-1,2.04E-1,3.42E-1,-5.438524E-2,2.11E-1,-5.233199E-2,6.54E-1,1.94361E-2,-4.5095038E-2,4.26E-1,7.32E-1,-3.595052E-2,7.015147E-2,-5.1099718E-2,4.1454085E-3],"split_indices":[0,0,3,0,0,0,3,0,0,1,1,0,0,0,0],"split_type":[0,0,0,0,0,0,0,0,0,0,0,0,0,0,0],"sum_hessian":[1.0262601E2,3.9312023E1,6.3313984E1,3.4229652E1,5.0823727E0,1.2813622E1,5.0500362E1,1.0029341E0,4.0794387E0,4.458765E1,5.9127126E0,1.7126807E0,4.287497E1,4.1194906E0,1.7932218E0],"tree_param":{"num_deleted":"0","num_feature":"4","num_nodes":"15","size_leaf_vector":"1"}},{"base_weights":[-6.298288E-3,-5.5087317E-2,6.279679E-1,6.755216E-1,-3.722551E-2,6.9990736E-1,-4.8510465E-3,9.970473E-3,7.135917E-2],"categories":[],"categories_nodes":[],"categories_segments":[],"categories_sizes":[],"default_left":[0,0,0,0,0,0,0,0,0],"id":46,"left_children":[1,-1,3,5,-1,7,-1,-1,-1],"loss_changes":[3.5673286E1,0E0,2.521017E0,8.444557E-1,0E0,2.9413605E-1,0E0,0E0,0E0],"parents":[2147483647,0,0,2,2,3,3,5,5],"right_children":[2,-1,4,6,-1,8,-1,-1,-1],"split_conditions":[7.65E-1,-5.5087317E-2,1.041E0,2.75E-1,-3.722551E-2,2.4E-2,-4.8510465E-3,9.970473E-3,7.135917E-2],"split_indices":[2,0,2,3,0,3,0,0,0],"split_type":[0,0,0,0,0,0,0,0,0],"sum_hessian":[1.0127795E2,5.4562546E1,4.67154E1,4.49051E1,1.8102998E0,4.347419E1,1.4309117E0,1.1538061E0,4.2320385E1],"tree_param":{"num_deleted":"0","num_feature":"4","num_nodes":"9","size_leaf_vector":"1"}},{"base_weights":[2.4374334E-2,3.784154E-1,-3.276815E-1,5.395829E-1,1.1461398E-1,-3.8651237E-1,6.412678E-2,7.0566915E-2,-4.5649838E-2,7.175969E-2,-7.817028E-2,4.7603598E-1,-4.5692733E-1,-2.190422E-2,6.8440355E-2,1.7811043E-2,5.6358308E-2,-5.1392257E-2,6.1294165E-2],"categories":[],"categories_nodes":[],"categories_segments":[],"categories_sizes":[],"default_left":[0,0,0,0,0,0,0,0,0,0,0,0,0,0,0,0,0,0,0],"id":47,"left_children":[1,3,5,7,9,11,-1,-1,-1,-1,13,15,17,-1,-1,-1,-1,-1,-1],"loss_changes":[1.3402682E1,2.216238E0,3.3233924E0,5.780061E0,2.5658653E0,3.344738E0,0E0,0E0,0E0,0E0,2.0042348E0,1.375258E-2,3.2487917E0,0E0,0E0,0E0,0E0,0E0,0E0],"parents":[2147483647,0,0,1,1,2,2,3,3,4,4,5,5,10,10,11,11,12,12],"right_children":[2,4,6,8,10,12,-1,-1,-1,-1,14,16,18,-1,-1,-1,-1,-1,-1],"split_conditions":[6.88E-1,4.26E-1,1.011E0,7E-1,3.42E-1,2.4E-2,6.412678E-2,7.0566915E-2,-4.5649838E-2,7.175969E-2,7.11E-1,8.19E-1,9.8E-1,-2.190422E-2,6.8440355E-2,1.7811043E-2,5.6358308E-2,-5.1392257E-2,6.1294165E-2],"split_indices":[1,1,3,2,3,3,0,0,0,0,2,1,2,0,0,0,0,0,0],"split_type":[0,0,0,0,0,0,0,0,0,0,0,0,0,0,0,0,0,0,0],"sum_hessian":[1.0553438E2,5.25815E1,5.2952873E1,3.1991262E1,2.0590237E1,5.048851E1,2.4643648E0,2.7669254E1,4.322008E0,4.3287296E0,1.6261507E1,3.375831E0,4.711268E1,1.4327515E1,1.9339936E0,1.4558792E0,1.9199517E0,4.522314E1,1.8895371E0],"tree_param":{"num_deleted":"0","num_feature":"4","num_nodes":"19","size_leaf_vector":"1"}},{"base_weights":[-1.0330713E-2,-5.432722E-2,4.629926E-1,-4.691617E-2,5.8166003E-1,6.476933E-1,-4.2837836E-2,6.735747E-2,2.7838387E-3],"categories":[],"categories_nodes":[],"categories_segments":[],"categories_sizes":[],"default_left":[0,0,0,0,0,0,0,0,0],"id":48,"left_children":[1,-1,3,-1,5,7,-1,-1,-1],"loss_changes":[2.4723713E1,0E0,6.0161924E0,0E0,3.379095E0,6.8790627E-1,0E0,0E0,0E0],"parents":[2147483647,0,0,2,2,4,4,5,5],"right_children":[2,-1,4,-1,6,8,-1,-1,-1],"split_conditions":[7.44E-1,-5.432722E-2,4.26E-1,-4.691617E-2,2.71E-1,9.79E-1,-4.2837836E-2,6.735747E-2,2.7838387E-3],"split_indices":[3,0,1,0,0,3,0,0,0],"split_type":[0,0,0,0,0,0,0,0,0],"sum_hessian":[9.601419E1,4.5093304E1,5.0920883E1,5.4168625E0,4.550402E1,4.3048393E1,2.455629E0,4.12398E1,1.8085933E0],"tree_param":{"num_deleted":"0","num_feature":"4","num_nodes":"9","size_leaf_vector":"1"}},{"base_weights":[-1.0792904E-2,-5.1489115E-1,2.9854766E-1,-5.3752787E-2,-2.9912487E-1,-5.1571757E-2,5.0629747E-1,1.9021455E-2,-4.4089537E-2,6.277448E-1,-3.583821E-1,-3.4819853E-2,6.7354076E-2,-5.0444376E-2,2.7010876E-3],"categories":[],"categories_nodes":[],"categories_segments":[],"categories_sizes":[],"default_left":[0,0,0,0,0,0,0,0,0,0,0,0,0,0,0],"id":49,"left_children":[1,3,5,-1,7,-1,9,-1,-1,11,13,-1,-1,-1,-1],"loss_changes":[1.5400319E1,2.2608757E-2,1.0618036E1,0E0,4.8762345E-1,0E0,5.4004E0,0E0,0E0,2.182188E0,3.9112198E-1,0E0,0E0,0E0,0E0],"parents":[2147483647,0,0,1,1,2,2,4,4,6,6,9,9,10,10],"right_children":[2,4,6,-1,8,-1,10,-1,-1,12,14,-1,-1,-1,-1],"split_conditions":[3.15E-1,2.04E-1,3.42E-1,-5.3752787E-2,2.11E-1,-5.1571757E-2,6.54E-1,1.9021455E-2,-4.4089537E-2,4.26E-1,7.32E-1,-3.4819853E-2,6.7354076E-2,-5.0444376E-2,2.7010876E-3],"split_indices":[0,0,3,0,0,0,3,0,0,1,1,0,0,0,0],"split_type":[0,0,0,0,0,0,0,0,0,0,0,0,0,0,0],"sum_hessian":[9.6773445E1,3.6549034E1,6.022441E1,3.1728994E1,4.82004E0,1.1940764E1,4.828365E1,1.005998E0,3.8140423E0,4.25775E1,5.7061477E0,1.6124201E0,4.096508E1,3.913897E0,1.7922508E0],"tree_param":{"num_deleted":"0","num_feature":"4","num_nodes":"15","size_leaf_vector":"1"}},{"base_weights":[-7.175618E-3,-5.451391E-2,6.029335E-1,6.490587E-1,-3.725901E-2,6.750321E-1,-8.934999E-3,9.890521E-3,6.887194E-2],"categories":[],"categories_nodes":[],"categories_segments":[],"categories_sizes":[],"default_left":[0,0,0,0,0,0,0,0,0],"id":50,"left_children":[1,-1,3,5,-1,7,-1,-1,-1],"loss_changes":[3.1923933E1,0E0,2.2928524E0,9.0205E-1,0E0,2.6713562E-1,0E0,0E0,0E0],"parents":[2147483647,0,0,2,2,3,3,5,5],"right_children":[2,-1,4,6,-1,8,-1,-1,-1],"split_conditions":[7.65E-1,-5.451391E-2,2.9E-1,9.9E-1,-3.725901E-2,2.4E-2,-8.934999E-3,9.890521E-3,6.887194E-2],"split_indices":[2,0,3,2,0,3,0,0,0],"split_type":[0,0,0,0,0,0,0,0,0],"sum_hessian":[9.526347E1,5.0681534E1,4.4581936E1,4.2888702E1,1.6932303E0,4.151428E1,1.3744271E0,1.1542755E0,4.036E1],"tree_param":{"num_deleted":"0","num_feature":"4","num_nodes":"9","size_leaf_vector":"1"}},{"base_weights":[2.7190093E-2,3.6591914E-1,-3.159254E-1,5.2011055E-1,1.1727458E-1,-3.7577778E-1,6.173713E-2,6.786899E-2,-4.46097E-2,6.8081014E-2,-6.6509776E-2,4.4901597E-1,-4.4675842E-1,-2.0582851E-2,6.612202E-2,5.351804E-2,1.6387349E-2,-5.049255E-2,5.872382E-2],"categories":[],"categories_nodes":[],"categories_segments":[],"categories_sizes":[],"default_left":[0,0,0,0,0,0,0,0,0,0,0,0,0,0,0,0,0,0,0],"id":51,"left_children":[1,3,5,7,9,11,-1,-1,-1,-1,13,15,17,-1,-1,-1,-1,-1,-1],"loss_changes":[1.1862857E1,1.9067822E0,3.0668359E0,5.1122093E0,2.2136927E0,3.0290127E0,0E0,0E0,0E0,0E0,1.8291487E0,1.8608034E-2,3.0021315E0,0E0,0E0,0E0,0E0,0E0,0E0],"parents":[2147483647,0,0,1,1,2,2,3,3,4,4,5,5,10,10,11,11,12,12],"right_children":[2,4,6,8,10,12,-1,-1,-1,-1,14,16,18,-1,-1,-1,-1,-1,-1],"split_conditions":[6.88E-1,4.26E-1,1.011E0,7E-1,3.42E-1,2.4E-2,6.173713E-2,6.786899E-2,-4.46097E-2,6.8081014E-2,7.11E-1,-2.3E-2,9.8E-1,-2.0582851E-2,6.612202E-2,5.351804E-2,1.6387349E-2,-5.049255E-2,5.872382E-2],"split_indices":[1,1,3,2,3,3,0,0,0,0,2,3,2,0,0,0,0,0,0],"split_type":[0,0,0,0,0,0,0,0,0,0,0,0,0,0,0,0,0,0,0],"sum_hessian":[1.0007496E2,5.0325935E1,4.974902E1,3.0389053E1,1.9936882E1,4.731225E1,2.4367726E0,2.6360239E1,4.0288153E0,4.2378926E0,1.569899E1,3.3269734E0,4.3985275E1,1.377838E1,1.9206097E0,1.8815264E0,1.4454472E0,4.2127106E1,1.8581686E0],"tree_param":{"num_deleted":"0","num_feature":"4","num_nodes":"19","size_leaf_vector":"1"}},{"base_weights":[-1.13002965E-2,-5.377863E-2,4.4455552E-1,-4.596847E-2,5.574691E-1,6.23513E-1,-4.2361226E-2,6.489618E-2,-1.0365945E-3],"categories":[],"categories_nodes":[],"categories_segments":[],"categories_sizes":[],"default_left":[0,0,0,0,0,0,0,0,0],"id":52,"left_children":[1,-1,3,-1,5,7,-1,-1,-1],"loss_changes":[2.213297E1,0E0,5.3040247E0,0E0,3.1411715E0,6.843548E-1,0E0,0E0,0E0],"parents":[2147483647,0,0,2,2,4,4,5,5],"right_children":[2,-1,4,-1,6,8,-1,-1,-1],"split_conditions":[7.44E-1,-5.377863E-2,4.26E-1,-4.596847E-2,2.71E-1,5.6E-1,-4.2361226E-2,6.489618E-2,-1.0365945E-3],"split_indices":[3,0,1,0,0,2,0,0,0],"split_type":[0,0,0,0,0,0,0,0,0],"sum_hessian":[9.0223915E1,4.178501E1,4.8438904E1,5.0362496E0,4.3402653E1,4.1006657E1,2.3959978E0,3.9401E1,1.6056557E0],"tree_param":{"num_deleted":"0","num_feature":"4","num_nodes":"9","size_leaf_vector":"1"}},{"base_weights":[-1.2126447E-2,-5.076996E-1,2.862198E-1,-5.3166162E-2,-2.8585622E-1,-5.082302E-2,4.8473346E-1,1.8572254E-2,-4.3090474E-2,6.048724E-1,-3.5550824E-1,-3.370857E-2,6.490534E-2,-4.9817532E-2,1.3238951E-3],"categories":[],"categories_nodes":[],"categories_segments":[],"categories_sizes":[],"default_left":[0,0,0,0,0,0,0,0,0,0,0,0,0,0,0],"id":53,"left_children":[1,3,5,-1,7,-1,9,-1,-1,11,13,-1,-1,-1,-1],"loss_changes":[1.3755106E1,3.38192E-2,9.408945E0,0E0,4.610387E-1,0E0,4.958969E0,0E0,0E0,1.945301E0,3.4900326E-1,0E0,0E0,0E0,0E0],"parents":[2147483647,0,0,1,1,2,2,4,4,6,6,9,9,10,10],"right_children":[2,4,6,-1,8,-1,10,-1,-1,12,14,-1,-1,-1,-1],"split_conditions":[3.15E-1,2.04E-1,3.42E-1,-5.3166162E-2,2.11E-1,-5.082302E-2,6.54E-1,1.8572254E-2,-4.3090474E-2,4.26E-1,7.32E-1,-3.370857E-2,6.490534E-2,-4.9817532E-2,1.3238951E-3],"split_indices":[0,0,3,0,0,0,3,0,0,1,1,0,0,0,0],"split_type":[0,0,0,0,0,0,0,0,0,0,0,0,0,0,0],"sum_hessian":[9.104986E1,3.3951847E1,5.709801E1,2.9381672E1,4.570174E0,1.1103144E1,4.599487E1,1.0090748E0,3.5610995E0,4.0486214E1,5.5086546E0,1.5168396E0,3.896937E1,3.7188492E0,1.789805E0],"tree_param":{"num_deleted":"0","num_feature":"4","num_nodes":"15","size_leaf_vector":"1"}},{"base_weights":[-8.071283E-3,-5.398629E-2,5.810897E-1,6.259499E-1,-3.612213E-2,6.516477E-1,-8.5990345E-3,1.0076635E-2,6.652032E-2],"categories":[],"categories_nodes":[],"categories_segments":[],"categories_sizes":[],"default_left":[0,0,0,0,0,0,0,0,0],"id":54,"left_children":[1,-1,3,5,-1,7,-1,-1,-1],"loss_changes":[2.8633999E1,0E0,2.0591927E0,8.200302E-1,0E0,2.3480797E-1,0E0,0E0,0E0],"parents":[2147483647,0,0,2,2,3,3,5,5],"right_children":[2,-1,4,6,-1,8,-1,-1,-1],"split_conditions":[7.65E-1,-5.398629E-2,2.9E-1,9.9E-1,-3.612213E-2,2.4E-2,-8.5990345E-3,1.0076635E-2,6.652032E-2],"split_indices":[2,0,3,2,0,3,0,0,0],"split_type":[0,0,0,0,0,0,0,0,0],"sum_hessian":[8.939039E1,4.7026634E1,4.2363754E1,4.0759083E1,1.6046729E0,3.9420856E1,1.3382238E0,1.1492689E0,3.827159E1],"tree_param":{"num_deleted":"0","num_feature":"4","num_nodes":"9","size_leaf_vector":"1"}},{"base_weights":[3.0054256E-2,3.5440913E-1,-3.0430168E-1,5.026323E-1,1.1954757E-1,-3.648019E-1,5.9152663E-2,6.5520205E-2,-4.362033E-2,6.4886265E-2,-5.586829E-2,5.463607E-2,-4.259375E-1,7.2993435E-2,-1.7965237E-2,-4.8380557E-2,5.700859E-2],"categories":[],"categories_nodes":[],"categories_segments":[],"categories_sizes":[],"default_left":[0,0,0,0,0,0,0,0,0,0,0,0,0,0,0,0,0],"id":55,"left_children":[1,3,5,7,9,11,-1,-1,-1,-1,13,-1,15,-1,-1,-1,-1],"loss_changes":[1.0488197E1,1.6473103E0,2.799358E0,4.548171E0,1.9200976E0,2.75457E0,0E0,0E0,0E0,0E0,1.7029781E0,0E0,2.7535157E0,0E0,0E0,0E0,0E0],"parents":[2147483647,0,0,1,1,2,2,3,3,4,4,5,5,10,10,12,12],"right_children":[2,4,6,8,10,12,-1,-1,-1,-1,14,-1,16,-1,-1,-1,-1],"split_conditions":[6.88E-1,4.26E-1,1.011E0,7E-1,3.42E-1,-2E-2,5.9152663E-2,6.5520205E-2,-4.362033E-2,6.4886265E-2,-1.39E-1,5.463607E-2,9.8E-1,7.2993435E-2,-1.7965237E-2,-4.8380557E-2,5.700859E-2],"split_indices":[1,1,3,2,3,3,0,0,0,0,2,0,2,0,0,0,0],"split_type":[0,0,0,0,0,0,0,0,0,0,0,0,0,0,0,0,0],"sum_hessian":[9.471557E1,4.8046364E1,4.6669205E1,2.8757275E1,1.928909E1,4.4272045E1,2.3971593E0,2.4997116E1,3.7601578E0,4.1294703E0,1.5159618E1,2.2846622E0,4.1987385E1,1.3966442E0,1.3762974E1,4.0167927E1,1.8194569E0],"tree_param":{"num_deleted":"0","num_feature":"4","num_nodes":"17","size_leaf_vector":"1"}},{"base_weights":[-1.2268976E-2,-5.3260446E-2,4.2721626E-1,-4.5032024E-2,5.348766E-1,6.018183E-1,-4.1934848E-2,6.298122E-2,-1.2372798E-2],"categories":[],"categories_nodes":[],"categories_segments":[],"categories_sizes":[],"default_left":[0,0,0,0,0,0,0,0,0],"id":56,"left_children":[1,-1,3,-1,5,7,-1,-1,-1],"loss_changes":[1.9815231E1,0E0,4.680313E0,0E0,2.9551792E0,8.893261E-1,0E0,0E0,0E0],"parents":[2147483647,0,0,2,2,4,4,5,5],"right_children":[2,-1,4,-1,6,8,-1,-1,-1],"split_conditions":[7.44E-1,-5.3260446E-2,4.26E-1,-4.5032024E-2,1.011E0,2.39E-1,-4.1934848E-2,6.298122E-2,-1.2372798E-2],"split_indices":[3,0,1,0,3,0,0,0,0],"split_type":[0,0,0,0,0,0,0,0,0],"sum_hessian":[8.465556E1,3.8665295E1,4.5990273E1,4.6779165E0,4.1312355E1,3.894926E1,2.3630953E0,3.7629353E1,1.3199086E0],"tree_param":{"num_deleted":"0","num_feature":"4","num_nodes":"9","size_leaf_vector":"1"}},{"base_weights":[-1.3489886E-2,-5.006972E-1,2.7462646E-1,-5.2602638E-2,-2.7337092E-1,-5.0095703E-2,4.6473137E-1,1.7733838E-2,-4.2089857E-2,5.843143E-1,-3.513656E-1,-3.261624E-2,6.2713385E-2,-5.035274E-2,-1.7198194E-3],"categories":[],"categories_nodes":[],"categories_segments":[],"categories_sizes":[],"default_left":[0,0,0,0,0,0,0,0,0,0,0,0,0,0,0],"id":57,"left_children":[1,3,5,-1,7,-1,9,-1,-1,11,13,-1,-1,-1,-1],"loss_changes":[1.228242E1,4.336548E-2,8.34417E0,0E0,4.2975703E-1,0E0,4.56789E0,0E0,0E0,1.7392359E0,3.1359243E-1,0E0,0E0,0E0,0E0],"parents":[2147483647,0,0,1,1,2,2,4,4,6,6,9,9,10,10],"right_children":[2,4,6,-1,8,-1,10,-1,-1,12,14,-1,-1,-1,-1],"split_conditions":[3.15E-1,2.04E-1,3.42E-1,-5.2602638E-2,2.11E-1,-5.0095703E-2,6.54E-1,1.7733838E-2,-4.2089857E-2,4.26E-1,6.56E-1,-3.261624E-2,6.2713385E-2,-5.035274E-2,-1.7198194E-3],"split_indices":[0,0,3,0,0,0,3,0,0,1,0,0,0,0,0],"split_type":[0,0,0,0,0,0,0,0,0,0,0,0,0,0,0],"sum_hessian":[8.551925E1,3.1505442E1,5.4013813E1,2.716472E1,4.3407197E0,1.0311233E1,4.370258E1,1.020608E0,3.3201118E0,3.8364964E1,5.3376164E0,1.4260269E0,3.6938934E1,3.319351E0,2.0182657E0],"tree_param":{"num_deleted":"0","num_feature":"4","num_nodes":"15","size_leaf_vector":"1"}},{"base_weights":[-9.094258E-3,-5.348716E-2,5.603163E-1,6.0535103E-1,-3.5557587E-2,6.309011E-1,-8.26508E-3,9.850233E-3,6.447273E-2],"categories":[],"categories_nodes":[],"categories_segments":[],"categories_sizes":[],"default_left":[0,0,0,0,0,0,0,0,0],"id":58,"left_children":[1,-1,3,5,-1,7,-1,-1,-1],"loss_changes":[2.5664486E1,0E0,1.9130716E0,7.4831104E-1,0E0,2.1842957E-1,0E0,0E0,0E0],"parents":[2147483647,0,0,2,2,3,3,5,5],"right_children":[2,-1,4,6,-1,8,-1,-1,-1],"split_conditions":[7.65E-1,-5.348716E-2,2.9E-1,9.9E-1,-3.5557587E-2,2.4E-2,-8.26508E-3,9.850233E-3,6.447273E-2],"split_indices":[2,0,3,2,0,3,0,0,0],"split_type":[0,0,0,0,0,0,0,0,0],"sum_hessian":[8.3723495E1,4.3561096E1,4.0162403E1,3.8603325E1,1.5590782E0,3.7301083E1,1.3022418E0,1.1498209E0,3.615126E1],"tree_param":{"num_deleted":"0","num_feature":"4","num_nodes":"9","size_leaf_vector":"1"}},{"base_weights":[3.299202E-2,3.6617568E-1,-2.7159712E-1,-3.1593416E-2,4.772163E-1,5.6523044E-2,-3.4145707E-1,-4.5087077E-2,3.6945918E-1,6.345943E-2,6.7053884E-2,-4.055618E-1,5.714332E-2,5.759095E-2,-2.879861E-2,-3.1778406E-2,4.1387595E-2,6.957729E-2,-4.6112273E-2],"categories":[],"categories_nodes":[],"categories_segments":[],"categories_sizes":[],"default_left":[0,0,0,0,0,0,0,0,0,0,0,0,0,0,0,0,0,0,0],"id":59,"left_children":[1,3,5,7,9,-1,11,-1,13,-1,15,17,-1,-1,-1,-1,-1,-1,-1],"loss_changes":[9.292249E0,1.9446673E0,2.9930725E0,1.927466E0,2.1660461E0,0E0,2.855206E0,0E0,9.6692264E-1,0E0,1.5470974E0,2.9198089E0,0E0,0E0,0E0,0E0,0E0,0E0,0E0],"parents":[2147483647,0,0,1,1,2,2,3,3,4,4,6,6,8,8,10,10,11,11],"right_children":[2,4,6,8,10,-1,12,-1,14,-1,16,18,-1,-1,-1,-1,-1,-1,-1],"split_conditions":[6.55E-1,4.56E-1,-2E-2,5.02E-1,4.26E-1,5.6523044E-2,1.011E0,-4.5087077E-2,6.81E-1,6.345943E-2,1.97E-1,5.4E-2,5.714332E-2,5.759095E-2,-2.879861E-2,-3.1778406E-2,4.1387595E-2,6.957729E-2,-4.6112273E-2],"split_indices":[1,3,3,1,1,0,3,0,0,0,0,2,0,0,0,0,0,0,0],"split_type":[0,0,0,0,0,0,0,0,0,0,0,0,0,0,0,0,0,0,0],"sum_hessian":[8.958359E1,4.2686993E1,4.68966E1,9.471983E0,3.3215008E1,3.0670152E0,4.3829586E1,4.5700455E0,4.9019375E0,2.3609095E1,9.605913E0,4.1473015E1,2.3565683E0,3.8248737E0,1.0770637E0,4.5930905E0,5.0128226E0,1.4383897E0,4.0034626E1],"tree_param":{"num_deleted":"0","num_feature":"4","num_nodes":"19","size_leaf_vector":"1"}},{"base_weights":[-1.3727375E-2,-5.278648E-2,4.1208917E-1,-4.409748E-2,5.1542175E-1,5.8234215E-1,-4.136054E-2,6.096641E-2,-3.9097886E-3],"categories":[],"categories_nodes":[],"categories_segments":[],"categories_sizes":[],"default_left":[0,0,0,0,0,0,0,0,0],"id":60,"left_children":[1,-1,3,-1,5,7,-1,-1,-1],"loss_changes":[1.7777391E1,0E0,4.144119E0,0E0,2.7335567E0,6.6590405E-1,0E0,0E0,0E0],"parents":[2147483647,0,0,2,2,4,4,5,5],"right_children":[2,-1,4,-1,6,8,-1,-1,-1],"split_conditions":[7.44E-1,-5.278648E-2,4.26E-1,-4.409748E-2,2.71E-1,5.6E-1,-4.136054E-2,6.096641E-2,-3.9097886E-3],"split_indices":[3,0,1,0,0,2,0,0,0],"split_type":[0,0,0,0,0,0,0,0,0],"sum_hessian":[7.920831E1,3.5774265E1,4.343405E1,4.339739E0,3.909431E1,3.6815556E1,2.2787557E0,3.528326E1,1.532297E0],"tree_param":{"num_deleted":"0","num_feature":"4","num_nodes":"9","size_leaf_vector":"1"}},{"base_weights":[-1.4278015E-2,-4.940367E-1,2.6502702E-1,-5.2078087E-2,-2.6202384E-1,-4.940857E-2,4.4831926E-1,1.730762E-2,-4.1208386E-2,5.6646276E-1,-3.4330484E-1,-3.154267E-2,6.081297E-2,-4.813735E-2,5.207725E-4],"categories":[],"categories_nodes":[],"categories_segments":[],"categories_sizes":[],"default_left":[0,0,0,0,0,0,0,0,0,0,0,0,0,0,0],"id":61,"left_children":[1,3,5,-1,7,-1,9,-1,-1,11,13,-1,-1,-1,-1],"loss_changes":[1.1014791E1,5.1157475E-2,7.4549923E0,0E0,4.06769E-1,0E0,4.159974E0,0E0,0E0,1.5613871E0,2.9741687E-1,0E0,0E0,0E0,0E0],"parents":[2147483647,0,0,1,1,2,2,4,4,6,6,9,9,10,10],"right_children":[2,4,6,-1,8,-1,10,-1,-1,12,14,-1,-1,-1,-1],"split_conditions":[3.15E-1,2.04E-1,3.42E-1,-5.2078087E-2,2.11E-1,-4.940857E-2,6.54E-1,1.730762E-2,-4.1208386E-2,4.26E-1,7.32E-1,-3.154267E-2,6.081297E-2,-4.813735E-2,5.207725E-4],"split_indices":[0,0,3,0,0,0,3,0,0,1,1,0,0,0,0],"split_type":[0,0,0,0,0,0,0,0,0,0,0,0,0,0,0],"sum_hessian":[8.022341E1,2.923611E1,5.09873E1,2.5098396E1,4.137714E0,9.586944E0,4.140036E1,1.0217534E0,3.1159606E0,3.6271553E1,5.1288056E0,1.3399991E0,3.4931553E1,3.400444E0,1.7283615E0],"tree_param":{"num_deleted":"0","num_feature":"4","num_nodes":"15","size_leaf_vector":"1"}},{"base_weights":[-9.986319E-3,-5.3012367E-2,5.412314E-1,5.873125E-1,-3.4424994E-2,6.1152834E-1,-5.426792E-3,9.637318E-3,6.2569685E-2],"categories":[],"categories_nodes":[],"categories_segments":[],"categories_sizes":[],"default_left":[0,0,0,0,0,0,0,0,0],"id":62,"left_children":[1,-1,3,5,-1,7,-1,-1,-1],"loss_changes":[2.3013348E1,0E0,1.7926531E0,6.145525E-1,0E0,2.0348835E-1,0E0,0E0,0E0],"parents":[2147483647,0,0,2,2,3,3,5,5],"right_children":[2,-1,4,6,-1,8,-1,-1,-1],"split_conditions":[7.65E-1,-5.3012367E-2,1.041E0,2.75E-1,-3.4424994E-2,2.4E-2,-5.426792E-3,9.637318E-3,6.2569685E-2],"split_indices":[2,0,2,3,0,3,0,0,0],"split_type":[0,0,0,0,0,0,0,0,0],"sum_hessian":[7.8266556E1,4.028824E1,3.797832E1,3.641974E1,1.5585796E0,3.5140247E1,1.2794942E0,1.1494415E0,3.3990803E1],"tree_param":{"num_deleted":"0","num_feature":"4","num_nodes":"9","size_leaf_vector":"1"}},{"base_weights":[3.5634268E-2,3.5576615E-1,-2.603287E-1,-1.5258523E-2,4.6658584E-1,5.425623E-2,-3.2945558E-1,-3.748771E-1,3.2653263E-1,6.1619848E-2,8.323235E-2,-3.9368197E-1,5.463292E-2,-7.0598E-3,-4.2605102E-2,5.5094417E-2,-3.0223189E-2,-3.0521274E-2,4.272611E-2,6.5847985E-2,-4.5067433E-2],"categories":[],"categories_nodes":[],"categories_segments":[],"categories_sizes":[],"default_left":[0,0,0,0,0,0,0,0,0,0,0,0,0,0,0,0,0,0,0,0,0],"id":63,"left_children":[1,3,5,7,9,-1,11,13,15,-1,17,19,-1,-1,-1,-1,-1,-1,-1,-1,-1],"loss_changes":[8.208423E0,1.716394E0,2.681103E0,1.416614E0,1.7864571E0,0E0,2.5850787E0,5.7063878E-2,1.0036606E0,0E0,1.4869282E0,2.6855793E0,0E0,0E0,0E0,0E0,0E0,0E0,0E0,0E0,0E0],"parents":[2147483647,0,0,1,1,2,2,3,3,4,4,6,6,7,7,8,8,10,10,11,11],"right_children":[2,4,6,8,10,-1,12,14,16,-1,18,20,-1,-1,-1,-1,-1,-1,-1,-1,-1],"split_conditions":[6.55E-1,4.65E-1,-2E-2,5.02E-1,4.26E-1,5.425623E-2,1.011E0,6.33E-1,6.81E-1,6.1619848E-2,1.97E-1,5.4E-2,5.463292E-2,-7.0598E-3,-4.2605102E-2,5.5094417E-2,-3.0223189E-2,-3.0521274E-2,4.272611E-2,6.5847985E-2,-4.5067433E-2],"split_indices":[1,3,3,1,1,0,3,2,0,0,0,2,0,0,0,0,0,0,0,0,0],"split_type":[0,0,0,0,0,0,0,0,0,0,0,0,0,0,0,0,0,0,0,0,0],"sum_hessian":[8.465749E1,4.057115E1,4.4086338E1,9.529309E0,3.1041843E1,2.951907E0,4.113443E1,4.596383E0,4.932926E0,2.1890985E1,9.150858E0,3.8836784E1,2.2976468E0,1.0043154E0,3.5920677E0,3.7266278E0,1.2062986E0,4.3509736E0,4.7998843E0,1.4532806E0,3.7383503E1],"tree_param":{"num_deleted":"0","num_feature":"4","num_nodes":"21","size_leaf_vector":"1"}},{"base_weights":[-1.5176463E-2,-5.2343454E-2,3.9803177E-1,-4.3173112E-2,4.9746948E-1,5.644107E-1,-4.0506534E-2,5.927391E-2,-1.2244332E-2],"categories":[],"categories_nodes":[],"categories_segments":[],"categories_sizes":[],"default_left":[0,0,0,0,0,0,0,0,0],"id":64,"left_children":[1,-1,3,-1,5,7,-1,-1,-1],"loss_changes":[1.5967916E1,0E0,3.676724E0,0E0,2.5203876E0,7.678175E-1,0E0,0E0,0E0],"parents":[2147483647,0,0,2,2,4,4,5,5],"right_children":[2,-1,4,-1,6,8,-1,-1,-1],"split_conditions":[7.44E-1,-5.2343454E-2,4.26E-1,-4.3173112E-2,1.011E0,2.39E-1,-4.0506534E-2,5.927391E-2,-1.2244332E-2],"split_indices":[3,0,1,0,3,0,0,0,0],"split_type":[0,0,0,0,0,0,0,0,0],"sum_hessian":[7.403971E1,3.3081615E1,4.09581E1,4.025488E0,3.693261E1,3.4731228E1,2.201384E0,3.3487118E1,1.2441101E0],"tree_param":{"num_deleted":"0","num_feature":"4","num_nodes":"9","size_leaf_vector":"1"}},{"base_weights":[-1.5074381E-2,-4.8754436E-1,2.5609592E-1,-5.158008E-2,-2.5067788E-1,-4.8751272E-2,4.3348995E-1,1.6921591E-2,-4.0318165E-2,5.5043435E-1,-3.3610243E-1,-3.0488152E-2,5.911203E-2,-4.8568796E-2,-7.69902E-4],"categories":[],"categories_nodes":[],"categories_segments":[],"categories_sizes":[],"default_left":[0,0,0,0,0,0,0,0,0,0,0,0,0,0,0],"id":65,"left_children":[1,3,5,-1,7,-1,9,-1,-1,11,13,-1,-1,-1,-1],"loss_changes":[9.882814E0,5.888939E-2,6.6809998E0,0E0,3.847016E-1,0E0,3.7965155E0,0E0,0E0,1.4056396E0,2.8679442E-1,0E0,0E0,0E0,0E0],"parents":[2147483647,0,0,1,1,2,2,4,4,6,6,9,9,10,10],"right_children":[2,4,6,-1,8,-1,10,-1,-1,12,14,-1,-1,-1,-1],"split_conditions":[3.15E-1,2.04E-1,3.42E-1,-5.158008E-2,2.11E-1,-4.8751272E-2,6.54E-1,1.6921591E-2,-4.0318165E-2,4.26E-1,6.56E-1,-3.0488152E-2,5.911203E-2,-4.8568796E-2,-7.69902E-4],"split_indices":[0,0,3,0,0,0,3,0,0,1,0,0,0,0,0],"split_type":[0,0,0,0,0,0,0,0,0,0,0,0,0,0,0],"sum_hessian":[7.516275E1,2.711732E1,4.804543E1,2.3175098E1,3.9422193E0,8.917296E0,3.912813E1,1.0211278E0,2.9210916E0,3.4213886E1,4.914245E0,1.2587342E0,3.2955154E1,3.0472887E0,1.8669564E0],"tree_param":{"num_deleted":"0","num_feature":"4","num_nodes":"15","size_leaf_vector":"1"}},{"base_weights":[-1.0912806E-2,-5.2566465E-2,5.2379483E-1,5.7073396E-1,-3.4034606E-2,5.952731E-1,-5.303829E-3,9.428798E-3,6.098913E-2],"categories":[],"categories_nodes":[],"categories_segments":[],"categories_sizes":[],"default_left":[0,0,0,0,0,0,0,0,0],"id":66,"left_children":[1,-1,3,5,-1,7,-1,-1,-1],"loss_changes":[2.0660637E1,0E0,1.6880798E0,5.7197E-1,0E0,1.9186115E-1,0E0,0E0,0E0],"parents":[2147483647,0,0,2,2,3,3,5,5],"right_children":[2,-1,4,6,-1,8,-1,-1,-1],"split_conditions":[7.65E-1,-5.2566465E-2,1.041E0,2.75E-1,-3.4034606E-2,2.4E-2,-5.303829E-3,9.428798E-3,6.098913E-2],"split_indices":[2,0,2,3,0,3,0,0,0],"split_type":[0,0,0,0,0,0,0,0,0],"sum_hessian":[7.306324E1,3.72349E1,3.5828342E1,3.4304497E1,1.5238448E0,3.3050007E1,1.2544912E0,1.1482449E0,3.190176E1],"tree_param":{"num_deleted":"0","num_feature":"4","num_nodes":"9","size_leaf_vector":"1"}},{"base_weights":[3.823319E-2,3.4590083E-1,-2.4881713E-1,-2.4753626E-2,4.4902793E-1,5.2187633E-2,-3.170648E-1,-4.3289624E-2,3.434824E-1,6.0051102E-2,7.5324E-2,-3.8226014E-1,5.3038884E-2,4.9762964E-2,-6.2045404E-3,-2.9281616E-2,3.7977006E-2,6.267608E-2,-4.4067804E-2],"categories":[],"categories_nodes":[],"categories_segments":[],"categories_sizes":[],"default_left":[0,0,0,0,0,0,0,0,0,0,0,0,0,0,0,0,0,0,0],"id":67,"left_children":[1,3,5,7,9,-1,11,-1,13,-1,15,17,-1,-1,-1,-1,-1,-1,-1],"loss_changes":[7.2357197E0,1.5207062E0,2.3989131E0,1.5830961E0,1.7067676E0,0E0,2.3923206E0,0E0,3.793683E-1,0E0,1.2398539E0,2.4795833E0,0E0,0E0,0E0,0E0,0E0,0E0,0E0],"parents":[2147483647,0,0,1,1,2,2,3,3,4,4,6,6,8,8,10,10,11,11],"right_children":[2,4,6,8,10,-1,12,-1,14,-1,16,18,-1,-1,-1,-1,-1,-1,-1],"split_conditions":[6.55E-1,4.56E-1,-2E-2,5.02E-1,4.26E-1,5.2187633E-2,1.011E0,-4.3289624E-2,6.62E-1,6.0051102E-2,1.97E-1,5.4E-2,5.3038884E-2,4.9762964E-2,-6.2045404E-3,-2.9281616E-2,3.7977006E-2,6.267608E-2,-4.4067804E-2],"split_indices":[1,3,3,1,1,0,3,0,0,0,0,2,0,0,0,0,0,0,0],"split_type":[0,0,0,0,0,0,0,0,0,0,0,0,0,0,0,0,0,0,0],"sum_hessian":[7.995527E1,3.8492756E1,4.146251E1,8.544062E0,2.9948696E1,2.8322496E0,3.863026E1,3.9691603E0,4.5749016E0,2.087854E1,9.070155E0,3.6380413E1,2.2498467E0,3.1503067E0,1.424595E0,4.1228957E0,4.9472594E0,1.4585601E0,3.4921852E1],"tree_param":{"num_deleted":"0","num_feature":"4","num_nodes":"19","size_leaf_vector":"1"}},{"base_weights":[-1.683689E-2,-5.1927835E-2,3.8508403E-1,-4.2244803E-2,4.8107585E-1,5.477994E-1,-3.973564E-2,5.7809647E-2,-7.2754594E-3],"categories":[],"categories_nodes":[],"categories_segments":[],"categories_sizes":[],"default_left":[0,0,0,0,0,0,0,0,0],"id":68,"left_children":[1,-1,3,-1,5,7,-1,-1,-1],"loss_changes":[1.4354478E1,0E0,3.2663398E0,0E0,2.3151064E0,6.7525864E-1,0E0,0E0,0E0],"parents":[2147483647,0,0,2,2,4,4,5,5],"right_children":[2,-1,4,-1,6,8,-1,-1,-1],"split_conditions":[7.44E-1,-5.1927835E-2,4.26E-1,-4.2244803E-2,2.71E-1,5.6E-1,-3.973564E-2,5.7809647E-2,-7.2754594E-3],"split_indices":[3,0,1,0,0,2,0,0,0],"split_type":[0,0,0,0,0,0,0,0,0],"sum_hessian":[6.909206E1,3.0576445E1,3.8515614E1,3.7306464E0,3.478497E1,3.267913E1,2.1058376E0,3.1223154E1,1.4559762E0],"tree_param":{"num_deleted":"0","num_feature":"4","num_nodes":"9","size_leaf_vector":"1"}},{"base_weights":[-1.5872084E-2,-4.811762E-1,2.4754378E-1,-5.1100034E-2,-2.4004565E-1,-4.8120756E-2,4.1968855E-1,1.652087E-2,-3.9463572E-2,5.358698E-1,-3.2835436E-1,-2.945213E-2,5.7571482E-2,-4.756606E-2,-7.403301E-4],"categories":[],"categories_nodes":[],"categories_segments":[],"categories_sizes":[],"default_left":[0,0,0,0,0,0,0,0,0,0,0,0,0,0,0],"id":69,"left_children":[1,3,5,-1,7,-1,9,-1,-1,11,13,-1,-1,-1,-1],"loss_changes":[8.865888E0,6.5291405E-2,6.0011387E0,0E0,3.6357138E-1,0E0,3.4722066E0,0E0,0E0,1.2683449E0,2.6685494E-1,0E0,0E0,0E0,0E0],"parents":[2147483647,0,0,1,1,2,2,4,4,6,6,9,9,10,10],"right_children":[2,4,6,-1,8,-1,10,-1,-1,12,14,-1,-1,-1,-1],"split_conditions":[3.15E-1,2.04E-1,3.42E-1,-5.1100034E-2,2.11E-1,-4.8120756E-2,6.54E-1,1.652087E-2,-3.9463572E-2,4.26E-1,6.56E-1,-2.945213E-2,5.7571482E-2,-4.756606E-2,-7.403301E-4],"split_indices":[0,0,3,0,0,0,3,0,0,1,0,0,0,0,0],"split_type":[0,0,0,0,0,0,0,0,0,0,0,0,0,0,0],"sum_hessian":[7.036235E1,2.5135578E1,4.522677E1,2.1372892E1,3.7626858E0,8.298947E0,3.6927822E1,1.0200247E0,2.742661E0,3.220897E1,4.7188525E0,1.1820844E0,3.1026886E1,2.9039829E0,1.8148696E0],"tree_param":{"num_deleted":"0","num_feature":"4","num_nodes":"15","size_leaf_vector":"1"}},{"base_weights":[-1.1926303E-2,-5.214885E-2,5.077316E-1,5.555951E-1,-3.3626076E-2,5.8062524E-1,-5.242112E-3,9.201597E-3,5.9579916E-2],"categories":[],"categories_nodes":[],"categories_segments":[],"categories_sizes":[],"default_left":[0,0,0,0,0,0,0,0,0],"id":70,"left_children":[1,-1,3,5,-1,7,-1,-1,-1],"loss_changes":[1.8567226E1,0E0,1.5896702E0,5.363121E-1,0E0,1.8249321E-1,0E0,0E0,0E0],"parents":[2147483647,0,0,2,2,3,3,5,5],"right_children":[2,-1,4,6,-1,8,-1,-1,-1],"split_conditions":[7.65E-1,-5.214885E-2,1.041E0,2.75E-1,-3.3626076E-2,2.4E-2,-5.242112E-3,9.201597E-3,5.9579916E-2],"split_indices":[2,0,2,3,0,3,0,0,0],"split_type":[0,0,0,0,0,0,0,0,0],"sum_hessian":[6.811852E1,3.4391575E1,3.372695E1,3.2240284E1,1.4866679E0,3.1008797E1,1.231486E0,1.1467526E0,2.9862045E1],"tree_param":{"num_deleted":"0","num_feature":"4","num_nodes":"9","size_leaf_vector":"1"}},{"base_weights":[4.103514E-2,3.374343E-1,-2.3799863E-1,-8.6194435E-3,4.4090053E-1,5.028652E-2,-3.053929E-1,-3.573382E-1,3.034601E-1,5.855567E-2,9.12921E-2,-3.7063968E-1,5.095048E-2,-9.804859E-3,-4.0124696E-2,5.099457E-2,-2.8608317E-2,-2.8058847E-2,3.940269E-2,-4.3786123E-2,5.7247557E-2],"categories":[],"categories_nodes":[],"categories_segments":[],"categories_sizes":[],"default_left":[0,0,0,0,0,0,0,0,0,0,0,0,0,0,0,0,0,0,0,0,0],"id":71,"left_children":[1,3,5,7,9,-1,11,13,15,-1,17,19,-1,-1,-1,-1,-1,-1,-1,-1,-1],"loss_changes":[6.403117E0,1.3459444E0,2.1490152E0,1.1541394E0,1.4068999E0,0E0,2.169652E0,1.7552137E-2,8.2899106E-1,0E0,1.1953787E0,2.474135E0,0E0,0E0,0E0,0E0,0E0,0E0,0E0,0E0,0E0],"parents":[2147483647,0,0,1,1,2,2,3,3,4,4,6,6,7,7,8,8,10,10,11,11],"right_children":[2,4,6,8,10,-1,12,14,16,-1,18,20,-1,-1,-1,-1,-1,-1,-1,-1,-1],"split_conditions":[6.55E-1,4.65E-1,-2E-2,5.02E-1,4.26E-1,5.028652E-2,1.011E0,6.71E-1,6.81E-1,5.855567E-2,1.97E-1,9.8E-1,5.095048E-2,-9.804859E-3,-4.0124696E-2,5.099457E-2,-2.8608317E-2,-2.8058847E-2,3.940269E-2,-4.3786123E-2,5.7247557E-2],"split_indices":[1,3,3,1,1,0,3,2,0,0,0,2,0,0,0,0,0,0,0,0,0],"split_type":[0,0,0,0,0,0,0,0,0,0,0,0,0,0,0,0,0,0,0,0,0],"sum_hessian":[7.544979E1,3.6484947E1,3.8964844E1,8.608756E0,2.7876192E1,2.7101936E0,3.625465E1,3.9972227E0,4.611533E0,1.9240309E1,8.635882E0,3.407178E1,2.1828701E0,1.0470717E0,2.950151E0,3.5153198E0,1.0962133E0,3.9081953E0,4.7276874E0,3.230494E1,1.7668414E0],"tree_param":{"num_deleted":"0","num_feature":"4","num_nodes":"21","size_leaf_vector":"1"}},{"base_weights":[-1.8369706E-2,-5.1527478E-2,3.7238085E-1,-4.1316595E-2,4.6505076E-1,5.325276E-1,-3.920108E-2,5.6362133E-2,-7.331165E-3],"categories":[],"categories_nodes":[],"categories_segments":[],"categories_sizes":[],"default_left":[0,0,0,0,0,0,0,0,0],"id":72,"left_children":[1,-1,3,-1,5,7,-1,-1,-1],"loss_changes":[1.2898957E1,0E0,2.9013343E0,0E0,2.1611223E0,6.3884544E-1,0E0,0E0,0E0],"parents":[2147483647,0,0,2,2,4,4,5,5],"right_children":[2,-1,4,-1,6,8,-1,-1,-1],"split_conditions":[7.44E-1,-5.1527478E-2,4.26E-1,-4.1316595E-2,2.71E-1,5.6E-1,-3.920108E-2,5.6362133E-2,-7.331165E-3],"split_indices":[3,0,1,0,0,2,0,0,0],"split_type":[0,0,0,0,0,0,0,0,0],"sum_hessian":[6.444443E1,2.8228485E1,3.6215946E1,3.4565864E0,3.275936E1,3.071946E1,2.0398996E0,2.9286083E1,1.4333758E0],"tree_param":{"num_deleted":"0","num_feature":"4","num_nodes":"9","size_leaf_vector":"1"}},{"base_weights":[-1.6847068E-2,-4.748621E-1,2.3909415E-1,-5.064044E-2,-2.2852643E-1,-4.747921E-2,4.0594223E-1,1.613516E-2,-3.8523715E-2,5.224776E-1,-3.2302597E-1,-2.843619E-2,5.6160714E-2,-4.6805803E-2,-7.185324E-4],"categories":[],"categories_nodes":[],"categories_segments":[],"categories_sizes":[],"default_left":[0,0,0,0,0,0,0,0,0,0,0,0,0,0,0],"id":73,"left_children":[1,3,5,-1,7,-1,9,-1,-1,11,13,-1,-1,-1,-1],"loss_changes":[7.9457607E0,7.297897E-2,5.377286E0,0E0,3.419382E-1,0E0,3.211738E0,0E0,0E0,1.1467857E0,2.510975E-1,0E0,0E0,0E0,0E0],"parents":[2147483647,0,0,1,1,2,2,4,4,6,6,9,9,10,10],"right_children":[2,4,6,-1,8,-1,10,-1,-1,12,14,-1,-1,-1,-1],"split_conditions":[3.15E-1,2.04E-1,3.42E-1,-5.064044E-2,2.11E-1,-4.747921E-2,6.54E-1,1.613516E-2,-3.8523715E-2,4.26E-1,6.56E-1,-2.843619E-2,5.6160714E-2,-4.6805803E-2,-7.185324E-4],"split_indices":[0,0,3,0,0,0,3,0,0,1,0,0,0,0,0],"split_type":[0,0,0,0,0,0,0,0,0,0,0,0,0,0,0],"sum_hessian":[6.5813644E1,2.3286446E1,4.2527195E1,1.9707258E1,3.5791876E0,7.7067933E0,3.4820404E1,1.017687E0,2.5615005E0,3.0265345E1,4.555058E0,1.1100119E0,2.9155333E1,2.791346E0,1.763712E0],"tree_param":{"num_deleted":"0","num_feature":"4","num_nodes":"15","size_leaf_vector":"1"}},{"base_weights":[-1.2873513E-2,-5.1766932E-2,4.9429715E-1,5.418388E-1,-3.26803E-2,5.6737983E-1,-5.1319576E-3,8.995839E-3,5.831712E-2],"categories":[],"categories_nodes":[],"categories_segments":[],"categories_sizes":[],"default_left":[0,0,0,0,0,0,0,0,0],"id":74,"left_children":[1,-1,3,5,-1,7,-1,-1,-1],"loss_changes":[1.6751852E1,0E0,1.4517112E0,5.0242233E-1,0E0,1.7397499E-1,0E0,0E0,0E0],"parents":[2147483647,0,0,2,2,3,3,5,5],"right_children":[2,-1,4,6,-1,8,-1,-1,-1],"split_conditions":[7.65E-1,-5.1766932E-2,1.041E0,2.75E-1,-3.26803E-2,2.4E-2,-5.1319576E-3,8.995839E-3,5.831712E-2],"split_indices":[2,0,2,3,0,3,0,0,0],"split_type":[0,0,0,0,0,0,0,0,0],"sum_hessian":[6.3432953E1,3.1780533E1,3.165242E1,3.024154E1,1.4108791E0,2.9034782E1,1.206758E0,1.1440253E0,2.7890757E1],"tree_param":{"num_deleted":"0","num_feature":"4","num_nodes":"9","size_leaf_vector":"1"}},{"base_weights":[4.3763265E-2,3.1095934E-1,-2.4668822E-1,4.4151247E-1,1.2583865E-1,-3.096798E-1,4.9595647E-2,5.7328064E-2,-3.8589355E-2,2.6334736E-1,-4.0869974E-2,-3.7486213E-1,5.516203E-2,-1.4651159E-2,5.202371E-2,3.4523256E-2,-4.5941718E-2],"categories":[],"categories_nodes":[],"categories_segments":[],"categories_sizes":[],"default_left":[0,0,0,0,0,0,0,0,0,0,0,0,0,0,0,0,0],"id":75,"left_children":[1,3,5,7,9,11,-1,-1,-1,13,-1,15,-1,-1,-1,-1,-1],"loss_changes":[5.675684E0,8.632891E-1,1.7967808E0,2.608551E0,1.3661728E0,2.059165E0,0E0,0E0,0E0,1.5741522E0,0E0,2.0624957E0,0E0,0E0,0E0,0E0,0E0],"parents":[2147483647,0,0,1,1,2,2,3,3,4,4,5,5,9,9,11,11],"right_children":[2,4,6,8,10,12,-1,-1,-1,14,-1,16,-1,-1,-1,-1,-1],"split_conditions":[6.88E-1,4.26E-1,1.011E0,7E-1,7.19E-1,9.8E-1,4.9595647E-2,5.7328064E-2,-3.8589355E-2,1.97E-1,-4.0869974E-2,2.4E-2,5.516203E-2,-1.4651159E-2,5.202371E-2,3.4523256E-2,-4.5941718E-2],"split_indices":[1,1,3,2,0,2,0,0,0,0,0,3,0,0,0,0,0],"split_type":[0,0,0,0,0,0,0,0,0,0,0,0,0,0,0,0,0],"sum_hessian":[7.114477E1,3.7019073E1,3.4125694E1,2.0896898E1,1.6122173E1,3.1994871E1,2.1308217E0,1.8291094E1,2.605804E0,1.3226917E1,2.895256E0,3.0268923E1,1.72595E0,5.2617083E0,7.965209E0,2.8567853E0,2.7412136E1],"tree_param":{"num_deleted":"0","num_feature":"4","num_nodes":"17","size_leaf_vector":"1"}},{"base_weights":[-1.943788E-2,-5.1134743E-2,3.6080554E-1,4.4837892E-1,-4.2404987E-2,-3.6128502E-2,5.185176E-1,5.504753E-2,-7.384444E-3],"categories":[],"categories_nodes":[],"categories_segments":[],"categories_sizes":[],"default_left":[0,0,0,0,0,0,0,0,0],"id":76,"left_children":[1,-1,3,5,-1,-1,7,-1,-1],"loss_changes":[1.160744E1,0E0,2.597909E0,2.0046163E0,0E0,0E0,6.059208E-1,0E0,0E0],"parents":[2147483647,0,0,2,2,3,3,6,6],"right_children":[2,-1,4,6,-1,-1,8,-1,-1],"split_conditions":[7.44E-1,-5.1134743E-2,2.71E-1,4.26E-1,-4.2404987E-2,-3.6128502E-2,5.6E-1,5.504753E-2,-7.384444E-3],"split_indices":[3,0,0,1,0,0,2,0,0],"split_type":[0,0,0,0,0,0,0,0,0],"sum_hessian":[6.0070442E1,2.603934E1,3.4031105E1,3.100078E1,3.030324E0,2.1404881E0,2.886029E1,2.745008E1,1.4102111E0],"tree_param":{"num_deleted":"0","num_feature":"4","num_nodes":"9","size_leaf_vector":"1"}},{"base_weights":[-1.811568E-2,-4.6856472E-1,2.3089698E-1,-5.019036E-2,-2.1697487E-1,-4.6811387E-2,3.9274678E-1,1.5750153E-2,-3.7559584E-2,5.097004E-1,-3.1717294E-1,-2.7439386E-2,5.4825306E-2,-4.59765E-2,-6.7485165E-4],"categories":[],"categories_nodes":[],"categories_segments":[],"categories_sizes":[],"default_left":[0,0,0,0,0,0,0,0,0,0,0,0,0,0,0],"id":77,"left_children":[1,3,5,-1,7,-1,9,-1,-1,11,13,-1,-1,-1,-1],"loss_changes":[7.1137266E0,8.036661E-2,4.8100643E0,0E0,3.206209E-1,0E0,2.963602E0,0E0,0E0,1.037879E0,2.3546398E-1,0E0,0E0,0E0,0E0],"parents":[2147483647,0,0,1,1,2,2,4,4,6,6,9,9,10,10],"right_children":[2,4,6,-1,8,-1,10,-1,-1,12,14,-1,-1,-1,-1],"split_conditions":[3.15E-1,2.04E-1,3.42E-1,-5.019036E-2,2.11E-1,-4.6811387E-2,6.54E-1,1.5750153E-2,-3.7559584E-2,4.26E-1,6.56E-1,-2.7439386E-2,5.4825306E-2,-4.59765E-2,-6.7485165E-4],"split_indices":[0,0,3,0,0,0,3,0,0,1,0,0,0,0,0],"split_type":[0,0,0,0,0,0,0,0,0,0,0,0,0,0,0],"sum_hessian":[6.1456017E1,2.1564833E1,3.9891186E1,1.8163069E1,3.401765E0,7.144148E0,3.2747036E1,1.0142815E0,2.3874836E0,2.835741E1,4.3896265E0,1.0422596E0,2.7315151E1,2.6782842E0,1.7113425E0],"tree_param":{"num_deleted":"0","num_feature":"4","num_nodes":"15","size_leaf_vector":"1"}},{"base_weights":[-1.3766306E-2,-5.139509E-2,4.8182157E-1,5.2922E-1,-3.2407068E-2,5.569751E-1,-9.740791E-3,8.8019585E-3,5.735999E-2],"categories":[],"categories_nodes":[],"categories_segments":[],"categories_sizes":[],"default_left":[0,0,0,0,0,0,0,0,0],"id":78,"left_children":[1,-1,3,5,-1,7,-1,-1,-1],"loss_changes":[1.511839E1,0E0,1.3422666E0,5.643139E-1,0E0,1.6961765E-1,0E0,0E0,0E0],"parents":[2147483647,0,0,2,2,3,3,5,5],"right_children":[2,-1,4,6,-1,8,-1,-1,-1],"split_conditions":[7.65E-1,-5.139509E-2,2.9E-1,9.9E-1,-3.2407068E-2,2.4E-2,-9.740791E-3,8.8019585E-3,5.735999E-2],"split_indices":[2,0,3,2,0,3,0,0,0],"split_type":[0,0,0,0,0,0,0,0,0],"sum_hessian":[5.899045E1,2.934063E1,2.9649824E1,2.8327084E1,1.3227403E0,2.7232054E1,1.0950302E0,1.1478447E0,2.608421E1],"tree_param":{"num_deleted":"0","num_feature":"4","num_nodes":"9","size_leaf_vector":"1"}},{"base_weights":[4.6234086E-2,3.2283136E-1,-2.1791388E-1,-1.3081984E-3,4.2013484E-1,4.7067713E-2,-2.840504E-1,-3.40456E-2,2.8690508E-1,5.6072034E-2,9.900358E-2,5.8903523E-2,-3.428295E-1,4.9189802E-2,-4.3646134E-3,-2.5966654E-2,3.7552804E-2,-4.17733E-2,4.835137E-2],"categories":[],"categories_nodes":[],"categories_segments":[],"categories_sizes":[],"default_left":[0,0,0,0,0,0,0,0,0,0,0,0,0,0,0,0,0,0,0],"id":79,"left_children":[1,3,5,7,9,-1,11,-1,13,-1,15,-1,17,-1,-1,-1,-1,-1,-1],"loss_changes":[5.0393095E0,1.0610759E0,1.7451512E0,9.539679E-1,1.1121817E0,0E0,1.8907282E0,0E0,3.791395E-1,0E0,9.990485E-1,0E0,2.1494734E0,0E0,0E0,0E0,0E0,0E0,0E0],"parents":[2147483647,0,0,1,1,2,2,3,3,4,4,6,6,8,8,10,10,12,12],"right_children":[2,4,6,8,10,-1,12,-1,14,-1,16,-1,18,-1,-1,-1,-1,-1,-1],"split_conditions":[6.55E-1,4.65E-1,-2E-2,5.02E-1,4.26E-1,4.7067713E-2,5.4E-2,-3.40456E-2,6.04E-1,5.6072034E-2,1.97E-1,5.8903523E-2,1.011E0,4.9189802E-2,-4.3646134E-3,-2.5966654E-2,3.7552804E-2,-4.17733E-2,4.835137E-2],"split_indices":[1,3,3,1,1,0,2,0,0,0,0,0,3,0,0,0,0,0,0],"split_type":[0,0,0,0,0,0,0,0,0,0,0,0,0,0,0,0,0,0,0],"sum_hessian":[6.700961E1,3.2624916E1,3.4384697E1,7.760272E0,2.4864645E1,2.477111E0,3.1907583E1,3.48184E0,4.2784324E0,1.6774843E1,8.089804E0,1.4436024E0,3.0463982E1,2.339479E0,1.9389532E0,3.54834E0,4.5414634E0,2.8385473E1,2.078508E0],"tree_param":{"num_deleted":"0","num_feature":"4","num_nodes":"19","size_leaf_vector":"1"}},{"base_weights":[-2.132301E-2,-5.0769426E-2,3.4943765E-1,4.3607813E-1,-4.1536685E-2,-3.5128165E-2,5.044551E-1,5.3807266E-2,-8.205987E-3],"categories":[],"categories_nodes":[],"categories_segments":[],"categories_sizes":[],"default_left":[0,0,0,0,0,0,0,0,0],"id":80,"left_children":[1,-1,3,5,-1,-1,7,-1,-1],"loss_changes":[1.0449388E1,0E0,2.362207E0,1.7952228E0,0E0,0E0,5.9747696E-1,0E0,0E0],"parents":[2147483647,0,0,2,2,3,3,6,6],"right_children":[2,-1,4,6,-1,-1,8,-1,-1],"split_conditions":[7.44E-1,-5.0769426E-2,2.71E-1,4.26E-1,-4.1536685E-2,-3.5128165E-2,5.6E-1,5.3807266E-2,-8.205987E-3],"split_indices":[3,0,0,1,0,0,2,0,0],"split_type":[0,0,0,0,0,0,0,0,0],"sum_hessian":[5.5962967E1,2.4047564E1,3.1915403E1,2.9053867E1,2.8615348E0,1.9909275E0,2.706294E1,2.5673967E1,1.3889728E0],"tree_param":{"num_deleted":"0","num_feature":"4","num_nodes":"9","size_leaf_vector":"1"}},{"base_weights":[-1.9175999E-2,-4.6247768E-1,2.2349504E-1,-4.975728E-2,-2.0729175E-1,3.74015E-1,-5.0005373E-2,1.535509E-2,-3.6712527E-2,-4.5290314E-2,4.6406022E-1,5.166632E-2,-3.233662E-2],"categories":[],"categories_nodes":[],"categories_segments":[],"categories_sizes":[],"default_left":[0,0,0,0,0,0,0,0,0,0,0,0,0],"id":81,"left_children":[1,3,5,-1,7,9,-1,-1,-1,-1,11,-1,-1],"loss_changes":[6.389077E0,8.489418E-2,4.37282E0,0E0,3.0163753E-1,2.6217513E0,0E0,0E0,0E0,0E0,1.3973169E0,0E0,0E0],"parents":[2147483647,0,0,1,1,2,2,4,4,5,5,10,10],"right_children":[2,4,6,-1,8,10,-1,-1,-1,-1,12,-1,-1],"split_conditions":[3.15E-1,2.04E-1,7.65E-1,-4.975728E-2,2.11E-1,2.85E-1,-5.0005373E-2,1.535509E-2,-3.6712527E-2,-4.5290314E-2,7.27E-1,5.166632E-2,-3.233662E-2],"split_indices":[0,0,2,0,0,2,0,0,0,0,3,0,0],"split_type":[0,0,0,0,0,0,0,0,0,0,0,0,0],"sum_hessian":[5.7430206E1,1.9996191E1,3.7434013E1,1.6743635E1,3.2525556E0,3.1387543E1,6.0464725E0,1.010513E0,2.2420425E0,2.6865194E0,2.8701023E1,2.7226078E1,1.4749439E0],"tree_param":{"num_deleted":"0","num_feature":"4","num_nodes":"13","size_leaf_vector":"1"}},{"base_weights":[-1.4935821E-2,-5.1033963E-2,4.686613E-1,5.1784927E-1,-3.1563196E-2,5.441755E-1,-5.0703515E-3,8.621044E-3,5.615438E-2],"categories":[],"categories_nodes":[],"categories_segments":[],"categories_sizes":[],"default_left":[0,0,0,0,0,0,0,0,0],"id":82,"left_children":[1,-1,3,5,-1,7,-1,-1,-1],"loss_changes":[1.3626381E1,0E0,1.2743993E0,4.3886042E-1,0E0,1.6114855E-1,0E0,0E0,0E0],"parents":[2147483647,0,0,2,2,3,3,5,5],"right_children":[2,-1,4,6,-1,8,-1,-1,-1],"split_conditions":[7.65E-1,-5.1033963E-2,1.041E0,2.75E-1,-3.1563196E-2,2.4E-2,-5.0703515E-3,8.621044E-3,5.615438E-2],"split_indices":[2,0,2,3,0,3,0,0,0],"split_type":[0,0,0,0,0,0,0,0,0],"sum_hessian":[5.4878773E1,2.7081154E1,2.779762E1,2.6476818E1,1.3208034E0,2.5346071E1,1.1307462E0,1.1440346E0,2.4202036E1],"tree_param":{"num_deleted":"0","num_feature":"4","num_nodes":"9","size_leaf_vector":"1"}},{"base_weights":[4.9353223E-2,3.1580478E-1,-2.0683004E-1,-8.393333E-3,4.0676105E-1,4.552645E-2,-2.718837E-1,-3.9719187E-2,3.0422488E-1,5.5084497E-2,9.0701595E-2,-3.3660787E-1,5.3634074E-2,4.454353E-2,-5.565622E-3,-2.4803048E-2,3.374609E-2,-4.1384023E-2,4.714562E-2],"categories":[],"categories_nodes":[],"categories_segments":[],"categories_sizes":[],"default_left":[0,0,0,0,0,0,0,0,0,0,0,0,0,0,0,0,0,0,0],"id":83,"left_children":[1,3,5,7,9,-1,11,-1,13,-1,15,17,-1,-1,-1,-1,-1,-1,-1],"loss_changes":[4.4492908E0,9.4339705E-1,1.560102E0,1.0887887E0,1.0845628E0,0E0,1.8016741E0,0E0,2.7789977E-1,0E0,8.3581376E-1,2.0240982E0,0E0,0E0,0E0,0E0,0E0,0E0,0E0],"parents":[2147483647,0,0,1,1,2,2,3,3,4,4,6,6,8,8,10,10,11,11],"right_children":[2,4,6,8,10,-1,12,-1,14,-1,16,18,-1,-1,-1,-1,-1,-1,-1],"split_conditions":[6.55E-1,4.56E-1,-2E-2,5.02E-1,4.26E-1,4.552645E-2,9.8E-1,-3.9719187E-2,4.04E-1,5.5084497E-2,1.97E-1,1.011E0,5.3634074E-2,4.454353E-2,-5.565622E-3,-2.4803048E-2,3.374609E-2,-4.1384023E-2,4.714562E-2],"split_indices":[1,3,3,1,1,0,2,0,3,0,0,3,0,0,0,0,0,0,0],"split_type":[0,0,0,0,0,0,0,0,0,0,0,0,0,0,0,0,0,0,0],"sum_hessian":[6.322422E1,3.0876944E1,3.234728E1,6.96371E0,2.3913233E1,2.357288E0,2.998999E1,2.983118E0,3.9805915E0,1.591508E1,7.9981537E0,2.830666E1,1.6833303E0,2.6881027E0,1.292489E0,3.3687046E0,4.629449E0,2.6282516E1,2.0241427E0],"tree_param":{"num_deleted":"0","num_feature":"4","num_nodes":"19","size_leaf_vector":"1"}},{"base_weights":[-2.3102012E-2,-5.041009E-2,3.3820683E-1,4.2496854E-1,-4.092529E-2,-3.412982E-2,4.9177143E-1,5.2701004E-2,-7.722662E-3],"categories":[],"categories_nodes":[],"categories_segments":[],"categories_sizes":[],"default_left":[0,0,0,0,0,0,0,0,0],"id":84,"left_children":[1,-1,3,5,-1,-1,7,-1,-1],"loss_changes":[9.401828E0,0E0,2.1798522E0,1.6116266E0,0E0,0E0,5.6909513E-1,0E0,0E0],"parents":[2147483647,0,0,2,2,3,3,6,6],"right_children":[2,-1,4,6,-1,-1,8,-1,-1],"split_conditions":[7.44E-1,-5.041009E-2,2.71E-1,4.26E-1,-4.092529E-2,-3.412982E-2,9.79E-1,5.2701004E-2,-7.722662E-3],"split_indices":[3,0,0,1,0,0,3,0,0],"split_type":[0,0,0,0,0,0,0,0,0],"sum_hessian":[5.211804E1,2.2186567E1,2.9931469E1,2.7205078E1,2.7263916E0,1.8520452E0,2.5353033E1,2.3943954E1,1.4090781E0],"tree_param":{"num_deleted":"0","num_feature":"4","num_nodes":"9","size_leaf_vector":"1"}},{"base_weights":[-2.045379E-2,-4.563277E-1,2.1519254E-1,-4.933397E-2,-1.9640362E-1,3.6152065E-1,-4.9344886E-2,1.49694225E-2,-3.5749964E-2,-4.4599663E-2,4.519469E-1,5.03951E-2,-3.146317E-2],"categories":[],"categories_nodes":[],"categories_segments":[],"categories_sizes":[],"default_left":[0,0,0,0,0,0,0,0,0,0,0,0,0],"id":85,"left_children":[1,3,5,-1,7,9,-1,-1,-1,-1,11,-1,-1],"loss_changes":[5.7201653E0,9.0970516E-2,3.9328825E0,0E0,2.818606E-1,2.4350984E0,0E0,0E0,0E0,0E0,1.2749467E0,0E0,0E0],"parents":[2147483647,0,0,1,1,2,2,4,4,5,5,10,10],"right_children":[2,4,6,-1,8,10,-1,-1,-1,-1,12,-1,-1],"split_conditions":[3.15E-1,2.04E-1,7.65E-1,-4.933397E-2,2.11E-1,2.85E-1,-4.9344886E-2,1.49694225E-2,-3.5749964E-2,-4.4599663E-2,7.27E-1,5.03951E-2,-3.146317E-2],"split_indices":[0,0,2,0,0,2,0,0,0,0,3,0,0],"split_type":[0,0,0,0,0,0,0,0,0,0,0,0,0],"sum_hessian":[5.37352E1,1.8527843E1,3.520736E1,1.5432335E1,3.095508E0,2.958762E1,5.619738E0,1.005682E0,2.0898259E0,2.5836012E0,2.7004019E1,2.5609299E1,1.394719E0],"tree_param":{"num_deleted":"0","num_feature":"4","num_nodes":"13","size_leaf_vector":"1"}},{"base_weights":[-1.6247613E-2,-5.0697803E-2,4.573105E-1,5.0635767E-1,-3.1155622E-2,5.35578E-1,-9.9400785E-3,8.40707E-3,5.5384375E-2],"categories":[],"categories_nodes":[],"categories_segments":[],"categories_sizes":[],"default_left":[0,0,0,0,0,0,0,0,0],"id":86,"left_children":[1,-1,3,5,-1,7,-1,-1,-1],"loss_changes":[1.2315062E1,0E0,1.1754394E0,5.0900936E-1,0E0,1.5731287E-1,0E0,0E0,0E0],"parents":[2147483647,0,0,2,2,3,3,5,5],"right_children":[2,-1,4,6,-1,8,-1,-1,-1],"split_conditions":[7.65E-1,-5.0697803E-2,2.9E-1,9.9E-1,-3.1155622E-2,2.4E-2,-9.9400785E-3,8.40707E-3,5.5384375E-2],"split_indices":[2,0,3,2,0,3,0,0,0],"split_type":[0,0,0,0,0,0,0,0,0],"sum_hessian":[5.099556E1,2.500905E1,2.5986507E1,2.4749147E1,1.2373617E0,2.3720768E1,1.0283787E0,1.1401541E0,2.2580614E1],"tree_param":{"num_deleted":"0","num_feature":"4","num_nodes":"9","size_leaf_vector":"1"}},{"base_weights":[5.2616574E-2,2.9159215E-1,-2.1286057E-1,3.570442E-1,-3.0822657E-2,-2.748618E-1,5.1826872E-2,2.1704496E-1,5.590505E-1,-3.491297E-2,4.1066404E-2,-3.4912682E-1,4.6047937E-2,3.1151434E-2,-2.6760047E-2,6.0297113E-2,1.7815229E-2,3.0565817E-2,-4.3732453E-2],"categories":[],"categories_nodes":[],"categories_segments":[],"categories_sizes":[],"default_left":[0,0,0,0,0,0,0,0,0,0,0,0,0,0,0,0,0,0,0],"id":87,"left_children":[1,3,5,7,9,11,-1,13,15,-1,-1,17,-1,-1,-1,-1,-1,-1,-1],"loss_changes":[3.9102068E0,6.935291E-1,1.4712147E0,6.412401E-1,1.0397167E0,1.6720736E0,0E0,8.873919E-1,6.661868E-2,0E0,0E0,1.6181314E0,0E0,0E0,0E0,0E0,0E0,0E0,0E0],"parents":[2147483647,0,0,1,1,2,2,3,3,4,4,5,5,7,7,8,8,11,11],"right_children":[2,4,6,8,10,12,-1,14,16,-1,-1,18,-1,-1,-1,-1,-1,-1,-1],"split_conditions":[6.88E-1,6.81E-1,9.8E-1,2.01E-1,5.7E-1,1.011E0,5.1826872E-2,8.28E-1,6.55E-1,-3.491297E-2,4.1066404E-2,2.4E-2,4.6047937E-2,3.1151434E-2,-2.6760047E-2,6.0297113E-2,1.7815229E-2,3.0565817E-2,-4.3732453E-2],"split_indices":[1,0,2,0,3,3,0,2,1,0,0,3,0,0,0,0,0,0,0],"split_type":[0,0,0,0,0,0,0,0,0,0,0,0,0,0,0,0,0,0,0],"sum_hessian":[5.9655476E1,3.1342978E1,2.8312496E1,2.596461E1,5.37837E0,2.6674503E1,1.6379932E0,1.6561329E1,9.403278E0,3.2467177E0,2.131652E0,2.4704697E1,1.9698067E0,1.4158685E1,2.402645E0,7.908358E0,1.4949207E0,2.63995E0,2.2064747E1],"tree_param":{"num_deleted":"0","num_feature":"4","num_nodes":"19","size_leaf_vector":"1"}},{"base_weights":[-2.3667153E-2,-5.0045695E-2,3.2838112E-1,4.1471827E-1,-4.0264297E-2,-3.3383556E-2,4.8107335E-1,5.177774E-2,-9.74454E-3],"categories":[],"categories_nodes":[],"categories_segments":[],"categories_sizes":[],"default_left":[0,0,0,0,0,0,0,0,0],"id":88,"left_children":[1,-1,3,5,-1,-1,7,-1,-1],"loss_changes":[8.499022E0,0E0,2.007888E0,1.480804E0,0E0,0E0,5.7758284E-1,0E0,0E0],"parents":[2147483647,0,0,2,2,3,3,6,6],"right_children":[2,-1,4,6,-1,-1,8,-1,-1],"split_conditions":[7.44E-1,-5.0045695E-2,2.71E-1,4.26E-1,-4.0264297E-2,-3.3383556E-2,5.6E-1,5.177774E-2,-9.74454E-3],"split_indices":[3,0,0,1,0,0,2,0,0],"split_type":[0,0,0,0,0,0,0,0,0],"sum_hessian":[4.8654636E1,2.0486961E1,2.8167677E1,2.5579334E1,2.588343E0,1.754599E0,2.3824736E1,2.2502089E1,1.3226463E0],"tree_param":{"num_deleted":"0","num_feature":"4","num_nodes":"9","size_leaf_vector":"1"}},{"base_weights":[-2.2796461E-2,-4.5024666E-1,2.0664532E-1,-4.8912924E-2,-1.8572724E-1,-4.508507E-2,3.5847634E-1,-3.480236E-2,1.3069123E-2,4.7624904E-1,-3.0709296E-1,-9.522802E-3,5.1468402E-2,-4.350185E-2,-8.614245E-4],"categories":[],"categories_nodes":[],"categories_segments":[],"categories_sizes":[],"default_left":[0,0,0,0,0,0,0,0,0,0,0,0,0,0,0],"id":89,"left_children":[1,3,5,-1,7,-1,9,-1,-1,11,13,-1,-1,-1,-1],"loss_changes":[5.118816E0,9.648323E-2,3.5588622E0,0E0,2.4813953E-1,0E0,2.3570247E0,0E0,0E0,5.8397055E-1,1.8137541E-1,0E0,0E0,0E0,0E0],"parents":[2147483647,0,0,1,1,2,2,4,4,6,6,9,9,10,10],"right_children":[2,4,6,-1,8,-1,10,-1,-1,12,14,-1,-1,-1,-1],"split_conditions":[3.15E-1,2.04E-1,3.42E-1,-4.8912924E-2,8.77E-1,-4.508507E-2,6.54E-1,-3.480236E-2,1.3069123E-2,4.37E-1,6.56E-1,-9.522802E-3,5.1468402E-2,-4.350185E-2,-8.614245E-4],"split_indices":[0,0,3,0,1,0,3,0,0,1,0,0,0,0,0],"split_type":[0,0,0,0,0,0,0,0,0,0,0,0,0,0,0],"sum_hessian":[5.0244232E1,1.7213366E1,3.3030865E1,1.4267077E1,2.9462876E0,5.827175E0,2.7203691E1,1.8814017E0,1.0648861E0,2.3355394E1,3.848296E0,1.3786751E0,2.197672E1,2.3735566E0,1.4747393E0],"tree_param":{"num_deleted":"0","num_feature":"4","num_nodes":"15","size_leaf_vector":"1"}},{"base_weights":[-1.7699396E-2,-5.0362535E-2,4.470167E-1,4.9730018E-1,-3.0109037E-2,5.245117E-1,-4.9790763E-3,8.561987E-3,5.433924E-2],"categories":[],"categories_nodes":[],"categories_segments":[],"categories_sizes":[],"default_left":[0,0,0,0,0,0,0,0,0],"id":90,"left_children":[1,-1,3,5,-1,7,-1,-1,-1],"loss_changes":[1.1155242E1,0E0,1.1003604E0,3.8424778E-1,0E0,1.4409399E-1,0E0,0E0,0E0],"parents":[2147483647,0,0,2,2,3,3,5,5],"right_children":[2,-1,4,6,-1,8,-1,-1,-1],"split_conditions":[7.65E-1,-5.0362535E-2,1.041E0,2.75E-1,-3.0109037E-2,2.4E-2,-4.9790763E-3,8.561987E-3,5.433924E-2],"split_indices":[2,0,2,3,0,3,0,0,0],"split_type":[0,0,0,0,0,0,0,0,0],"sum_hessian":[4.74024E1,2.3131472E1,2.427093E1,2.3056461E1,1.2144691E0,2.2003319E1,1.053141E0,1.1358032E0,2.0867516E1],"tree_param":{"num_deleted":"0","num_feature":"4","num_nodes":"9","size_leaf_vector":"1"}},{"base_weights":[5.5649634E-2,3.0058414E-1,-1.8415584E-1,8.015976E-3,3.8845187E-1,5.549537E-2,-2.4102217E-1,-3.171959E-2,2.64835E-1,5.3236455E-2,9.189495E-2,4.3852285E-2,-3.16114E-1,4.5223124E-2,-4.611791E-3,-2.3986222E-2,3.3698525E-2,-3.9052915E-2,5.0760817E-2],"categories":[],"categories_nodes":[],"categories_segments":[],"categories_sizes":[],"default_left":[0,0,0,0,0,0,0,0,0,0,0,0,0,0,0,0,0,0,0],"id":91,"left_children":[1,3,5,7,9,-1,11,-1,13,-1,15,-1,17,-1,-1,-1,-1,-1,-1],"loss_changes":[3.4329333E0,7.379656E-1,1.3810607E0,7.2538096E-1,8.963311E-1,0E0,1.5803394E0,0E0,3.0264455E-1,0E0,7.675011E-1,0E0,1.7933762E0,0E0,0E0,0E0,0E0,0E0,0E0],"parents":[2147483647,0,0,1,1,2,2,3,3,4,4,6,6,8,8,10,10,12,12],"right_children":[2,4,6,8,10,-1,12,-1,14,-1,16,-1,18,-1,-1,-1,-1,-1,-1],"split_conditions":[6.55E-1,4.65E-1,5.4E-2,5.02E-1,4.26E-1,5.549537E-2,-2E-2,-3.171959E-2,6.04E-1,5.3236455E-2,1.97E-1,4.3852285E-2,9.8E-1,4.5223124E-2,-4.611791E-3,-2.3986222E-2,3.3698525E-2,-3.9052915E-2,5.0760817E-2],"split_indices":[1,3,2,1,1,0,3,0,0,0,0,0,2,0,0,0,0,0,0],"split_type":[0,0,0,0,0,0,0,0,0,0,0,0,0,0,0,0,0,0,0],"sum_hessian":[5.650379E1,2.782758E1,2.8676212E1,6.67926E0,2.114832E1,1.4229374E0,2.7253275E1,2.8434641E0,3.8357956E0,1.3703267E1,7.445052E0,2.2303014E0,2.5022974E1,2.1099133E0,1.7258824E0,3.1723084E0,4.2727437E0,2.343202E1,1.5909531E0],"tree_param":{"num_deleted":"0","num_feature":"4","num_nodes":"19","size_leaf_vector":"1"}},{"base_weights":[-2.5920108E-2,-4.9696937E-2,3.1672513E-1,4.0268108E-1,-3.949603E-2,-3.2394297E-2,4.6740246E-1,5.07434E-2,-9.740616E-3],"categories":[],"categories_nodes":[],"categories_segments":[],"categories_sizes":[],"default_left":[0,0,0,0,0,0,0,0,0],"id":92,"left_children":[1,-1,3,5,-1,-1,7,-1,-1],"loss_changes":[7.636857E0,0E0,1.8374779E0,1.3259711E0,0E0,0E0,5.772028E-1,0E0,0E0],"parents":[2147483647,0,0,2,2,3,3,6,6],"right_children":[2,-1,4,6,-1,-1,8,-1,-1],"split_conditions":[7.44E-1,-4.9696937E-2,2.71E-1,4.26E-1,-3.949603E-2,-3.2394297E-2,9.79E-1,5.07434E-2,-9.740616E-3],"split_indices":[3,0,0,1,0,0,3,0,0],"split_type":[0,0,0,0,0,0,0,0,0],"sum_hessian":[4.53403E1,1.8903059E1,2.6437244E1,2.3975695E1,2.4615498E0,1.6333172E0,2.2342377E1,2.0958498E1,1.3838801E0],"tree_param":{"num_deleted":"0","num_feature":"4","num_nodes":"9","size_leaf_vector":"1"}},{"base_weights":[-2.3876885E-2,-4.440865E-1,1.9980913E-1,-4.849293E-2,-1.7679234E-1,3.4005702E-1,-4.8321135E-2,-3.393699E-2,1.2893378E-2,-4.2931784E-2,4.3150863E-1,4.830367E-2,-2.9784491E-2],"categories":[],"categories_nodes":[],"categories_segments":[],"categories_sizes":[],"default_left":[0,0,0,0,0,0,0,0,0,0,0,0,0],"id":93,"left_children":[1,3,5,-1,7,9,-1,-1,-1,-1,11,-1,-1],"loss_changes":[4.598498E0,9.961653E-2,3.2297535E0,0E0,2.3383123E-1,2.0945807E0,0E0,0E0,0E0,0E0,1.07411E0,0E0,0E0],"parents":[2147483647,0,0,1,1,2,2,4,4,5,5,10,10],"right_children":[2,4,6,-1,8,10,-1,-1,-1,-1,12,-1,-1],"split_conditions":[3.15E-1,2.04E-1,7.65E-1,-4.849293E-2,8.77E-1,2.85E-1,-4.8321135E-2,-3.393699E-2,1.2893378E-2,-4.2931784E-2,7.27E-1,4.830367E-2,-2.9784491E-2],"split_indices":[0,0,2,0,1,2,0,0,0,0,3,0,0],"split_type":[0,0,0,0,0,0,0,0,0,0,0,0,0],"sum_hessian":[4.697877E1,1.597789E1,3.1000881E1,1.3153767E1,2.824123E0,2.6136312E1,4.8645678E0,1.7718511E0,1.052272E0,2.3841527E0,2.3752161E1,2.250026E1,1.2519003E0],"tree_param":{"num_deleted":"0","num_feature":"4","num_nodes":"13","size_leaf_vector":"1"}},{"base_weights":[-1.882892E-2,4.3689206E-1,-5.0125994E-2,-3.3523135E-2,5.009498E-1,5.31699E-1,-3.548763E-3,1.379098E-2,5.5191573E-2],"categories":[],"categories_nodes":[],"categories_segments":[],"categories_sizes":[],"default_left":[0,0,0,0,0,0,0,0,0],"id":94,"left_children":[1,3,-1,-1,5,7,-1,-1,-1],"loss_changes":[1.0126517E1,1.3405366E0,0E0,0E0,3.8658524E-1,9.2235565E-2,0E0,0E0,0E0],"parents":[2147483647,0,0,1,1,4,4,5,5],"right_children":[2,4,-1,-1,6,8,-1,-1,-1],"split_conditions":[2.9E-1,-2E-2,-5.0125994E-2,-3.3523135E-2,9.8E-1,8.03E-1,-3.548763E-3,1.379098E-2,5.5191573E-2],"split_indices":[3,3,0,0,2,2,0,0,0],"split_type":[0,0,0,0,0,0,0,0,0],"sum_hessian":[4.406411E1,2.2707869E1,2.1356241E1,1.4152927E0,2.1292576E1,2.0146584E1,1.1459917E0,1.3657386E0,1.8780846E1],"tree_param":{"num_deleted":"0","num_feature":"4","num_nodes":"9","size_leaf_vector":"1"}},{"base_weights":[5.8753826E-2,2.7148876E-1,-1.986387E-1,3.3463132E-1,-4.1163817E-2,-2.6453146E-1,4.9161445E-2,1.9893162E-1,5.103637E-1,-3.3927273E-2,3.871456E-2,-3.2818323E-1,4.058739E-2,2.8328145E-2,-3.292934E-2,5.771471E-2,1.7210552E-2,2.8103292E-2,-4.205853E-2],"categories":[],"categories_nodes":[],"categories_segments":[],"categories_sizes":[],"default_left":[0,0,0,0,0,0,0,0,0,0,0,0,0,0,0,0,0,0,0],"id":95,"left_children":[1,3,5,7,9,11,-1,13,15,-1,-1,17,-1,-1,-1,-1,-1,-1,-1],"loss_changes":[3.031768E0,6.099181E-1,1.2755849E0,5.0019646E-1,8.9288837E-1,1.1420466E0,0E0,8.006919E-1,1.3461018E-1,0E0,0E0,1.364775E0,0E0,0E0,0E0,0E0,0E0,0E0,0E0],"parents":[2147483647,0,0,1,1,2,2,3,3,4,4,5,5,7,7,8,8,11,11],"right_children":[2,4,6,8,10,12,-1,14,16,-1,-1,18,-1,-1,-1,-1,-1,-1,-1],"split_conditions":[7.01E-1,6.81E-1,9.8E-1,2.01E-1,5.7E-1,1.011E0,4.9161445E-2,5.77E-1,6.55E-1,-3.3927273E-2,3.871456E-2,2.4E-2,4.058739E-2,2.8328145E-2,-3.292934E-2,5.771471E-2,1.7210552E-2,2.8103292E-2,-4.205853E-2],"split_indices":[1,0,2,0,3,3,0,1,1,0,0,3,0,0,0,0,0,0,0],"split_type":[0,0,0,0,0,0,0,0,0,0,0,0,0,0,0,0,0,0,0],"sum_hessian":[5.3383427E1,2.9197187E1,2.418624E1,2.4232876E1,4.964312E0,2.2641596E1,1.5446438E0,1.4876966E1,9.355909E0,3.049618E0,1.9146943E0,2.1144499E1,1.4970978E0,1.3228309E1,1.6486571E0,7.223515E0,2.1323938E0,2.5158484E0,1.862865E1],"tree_param":{"num_deleted":"0","num_feature":"4","num_nodes":"19","size_leaf_vector":"1"}},{"base_weights":[-2.7624574E-2,-4.9335703E-2,3.0622253E-1,3.9205462E-1,-3.8865913E-2,4.5021635E-1,-3.8811885E-2,-2.7160812E-2,5.0002526E-2],"categories":[],"categories_nodes":[],"categories_segments":[],"categories_sizes":[],"default_left":[0,0,0,0,0,0,0,0,0],"id":96,"left_children":[1,-1,3,5,-1,7,-1,-1,-1],"loss_changes":[6.879957E0,0E0,1.6926439E0,1.240325E0,0E0,9.3818474E-1,0E0,0E0,0E0],"parents":[2147483647,0,0,2,2,3,3,5,5],"right_children":[2,-1,4,6,-1,8,-1,-1,-1],"split_conditions":[7.44E-1,-4.9335703E-2,2.71E-1,5.68E-1,-3.8865913E-2,0E0,-3.8811885E-2,-2.7160812E-2,5.0002526E-2],"split_indices":[3,0,0,2,0,0,0,0,0],"split_type":[0,0,0,0,0,0,0,0,0],"sum_hessian":[4.2277153E1,1.7452415E1,2.4824738E1,2.2483377E1,2.34136E0,2.131712E1,1.1662581E0,1.0885777E0,2.0228542E1],"tree_param":{"num_deleted":"0","num_feature":"4","num_nodes":"9","size_leaf_vector":"1"}},{"base_weights":[-2.620402E-2,-4.379022E-1,1.916377E-1,-4.8068885E-2,-1.6717805E-1,-4.3870322E-2,3.3706418E-1,-3.2991853E-2,1.2707417E-2,4.5603818E-1,-2.995421E-1,-9.599706E-3,4.956216E-2,-4.179268E-2,-1.2280332E-3],"categories":[],"categories_nodes":[],"categories_segments":[],"categories_sizes":[],"default_left":[0,0,0,0,0,0,0,0,0,0,0,0,0,0,0],"id":97,