{"learner":{"attributes":{"scikit_learn":"{\"_estimator_type\": \"classifier\"}"},"feature_names":["obstruction_ratio","confidence_score","obstruction_mean_30m","obstruction_delta_30m","obstruction_persistence_count_30m","water_level_latest","flow_velocity_latest","water_level_mean_5m","flow_velocity_mean_5m","water_level_delta_5m","flow_velocity_delta_5m","water_level_mean_30m","flow_velocity_mean_30m","water_level_delta_30m","flow_velocity_delta_30m","water_level_slope_30m","flow_velocity_slope_30m","water_level_max_30m","flow_velocity_min_30m","water_level_std_30m","flow_velocity_std_30m","sensor_age_seconds","sensor_count_30m","sensor_valid_ratio_30m"],"feature_types":["float","float","float","float","float","float","float","float","float","float","float","float","float","float","float","float","float","float","float","float","float","float","float","float"],"gradient_booster":{"model":{"cats":{"enc":[],"feature_segments":[],"sorted_idx":[]},"gbtree_model_param":{"num_parallel_tree":"1","num_trees":"780"},"iteration_indptr":[0,3,6,9,12,15,18,21,24,27,30,33,36,39,42,45,48,51,54,57,60,63,66,69,72,75,78,81,84,87,90,93,96,99,102,105,108,111,114,117,120,123,126,129,132,135,138,141,144,147,150,153,156,159,162,165,168,171,174,177,180,183,186,189,192,195,198,201,204,207,210,213,216,219,222,225,228,231,234,237,240,243,246,249,252,255,258,261,264,267,270,273,276,279,282,285,288,291,294,297,300,303,306,309,312,315,318,321,324,327,330,333,336,339,342,345,348,351,354,357,360,363,366,369,372,375,378,381,384,387,390,393,396,399,402,405,408,411,414,417,420,423,426,429,432,435,438,441,444,447,450,453,456,459,462,465,468,471,474,477,480,483,486,489,492,495,498,501,504,507,510,513,516,519,522,525,528,531,534,537,540,543,546,549,552,555,558,561,564,567,570,573,576,579,582,585,588,591,594,597,600,603,606,609,612,615,618,621,624,627,630,633,636,639,642,645,648,651,654,657,660,663,666,669,672,675,678,681,684,687,690,693,696,699,702,705,708,711,714,717,720,723,726,729,732,735,738,741,744,747,750,753,756,759,762,765,768,771,774,777,780],"tree_info":[0,1,2,0,1,2,0,1,2,0,1,2,0,1,2,0,1,2,0,1,2,0,1,2,0,1,2,0,1,2,0,1,2,0,1,2,0,1,2,0,1,2,0,1,2,0,1,2,0,1,2,0,1,2,0,1,2,0,1,2,0,1,2,0,1,2,0,1,2,0,1,2,0,1,2,0,1,2,0,1,2,0,1,2,0,1,2,0,1,2,0,1,2,0,1,2,0,1,2,0,1,2,0,1,2,0,1,2,0,1,2,0,1,2,0,1,2,0,1,2,0,1,2,0,1,2,0,1,2,0,1,2,0,1,2,0,1,2,0,1,2,0,1,2,0,1,2,0,1,2,0,1,2,0,1,2,0,1,2,0,1,2,0,1,2,0,1,2,0,1,2,0,1,2,0,1,2,0,1,2,0,1,2,0,1,2,0,1,2,0,1,2,0,1,2,0,1,2,0,1,2,0,1,2,0,1,2,0,1,2,0,1,2,0,1,2,0,1,2,0,1,2,0,1,2,0,1,2,0,1,2,0,1,2,0,1,2,0,1,2,0,1,2,0,1,2,0,1,2,0,1,2,0,1,2,0,1,2,0,1,2,0,1,2,0,1,2,0,1,2,0,1,2,0,1,2,0,1,2,0,1,2,0,1,2,0,1,2,0,1,2,0,1,2,0,1,2,0,1,2,0,1,2,0,1,2,0,1,2,0,1,2,0,1,2,0,1,2,0,1,2,0,1,2,0,1,2,0,1,2,0,1,2,0,1,2,0,1,2,0,1,2,0,1,2,0,1,2,0,1,2,0,1,2,0,1,2,0,1,2,0,1,2,0,1,2,0,1,2,0,1,2,0,1,2,0,1,2,0,1,2,0,1,2,0,1,2,0,1,2,0,1,2,0,1,2,0,1,2,0,1,2,0,1,2,0,1,2,0,1,2,0,1,2,0,1,2,0,1,2,0,1,2,0,1,2,0,1,2,0,1,2,0,1,2,0,1,2,0,1,2,0,1,2,0,1,2,0,1,2,0,1,2,0,1,2,0,1,2,0,1,2,0,1,2,0,1,2,0,1,2,0,1,2,0,1,2,0,1,2,0,1,2,0,1,2,0,1,2,0,1,2,0,1,2,0,1,2,0,1,2,0,1,2,0,1,2,0,1,2,0,1,2,0,1,2,0,1,2,0,1,2,0,1,2,0,1,2,0,1,2,0,1,2,0,1,2,0,1,2,0,1,2,0,1,2,0,1,2,0,1,2,0,1,2,0,1,2,0,1,2,0,1,2,0,1,2,0,1,2,0,1,2,0,1,2,0,1,2,0,1,2,0,1,2,0,1,2,0,1,2,0,1,2,0,1,2,0,1,2,0,1,2,0,1,2,0,1,2,0,1,2,0,1,2,0,1,2,0,1,2,0,1,2,0,1,2,0,1,2,0,1,2,0,1,2,0,1,2,0,1,2,0,1,2,0,1,2,0,1,2,0,1,2,0,1,2,0,1,2,0,1,2,0,1,2,0,1,2,0,1,2,0,1,2,0,1,2,0,1,2,0,1,2,0,1,2,0,1,2,0,1,2,0,1,2,0,1,2,0,1,2,0,1,2,0,1,2,0,1,2,0,1,2,0,1,2,0,1,2,0,1,2,0,1,2,0,1,2,0,1,2,0,1,2,0,1,2,0,1,2,0,1,2,0,1,2,0,1,2,0,1,2,0,1,2,0,1,2,0,1,2,0,1,2,0,1,2,0,1,2,0,1,2,0,1,2,0,1,2],"trees":[{"base_weights":[1.4521799E-2,5.1030064E-1,-6.7261326E-1,1.046642E0,-1.299097E-1,-1.2540048E-1,-7.290497E-1,1.4048443E0,2.2791731E-1,6.236923E-1,-6.384705E-1,6.3204414E-1,-4.374026E-2,-3.030295E-1,-4.376079E-2,8.919318E-2,1.00155E0,6.46209E-1,-7.2891015E-1,8.884037E-2,-3.4264717E-1,-1.4736117E-1,-7.095717E-1,1.3900876E0,-1.3166244E-1,3.4527548E-4,-2.6592482E-2,8.856665E-2,2.6792591E-2,-4.2675298E-2,5.9730824E-2,1.3884032E-2,-4.4214707E-2,-4.14769E-2,1.2478131E-2,4.977575E-2,-3.2040842E-2,-3.0995876E-2,-4.3511868E-2,8.617128E-2,4.6607465E-2,6.2721245E-2,-3.397298E-2],"categories":[],"categories_nodes":[],"categories_segments":[],"categories_sizes":[],"default_left":[0,0,0,0,0,0,0,0,0,0,0,0,0,0,0,0,0,0,0,0,0,0,0,0,0,0,0,0,0,0,0,0,0,0,0,0,0,0,0,0,0,0,0],"id":0,"left_children":[1,3,5,7,9,11,13,15,17,19,21,23,-1,25,-1,-1,27,29,31,-1,33,35,37,39,41,-1,-1,-1,-1,-1,-1,-1,-1,-1,-1,-1,-1,-1,-1,-1,-1,-1,-1],"loss_changes":[2.878316E3,1.6853942E3,1.09250854E2,7.828562E2,8.583406E2,1.5257945E2,1.4086914E-1,5.942749E1,3.2646582E2,7.480093E2,4.6562805E1,8.596375E1,0E0,1.8867457E-1,0E0,0E0,8.260629E1,2.6980835E2,2.1122437E0,0E0,8.178877E1,6.497819E1,3.0714111E0,7.657623E-1,3.900737E1,0E0,0E0,0E0,0E0,0E0,0E0,0E0,0E0,0E0,0E0,0E0,0E0,0E0,0E0,0E0,0E0,0E0,0E0],"parents":[2147483647,0,0,1,1,2,2,3,3,4,4,5,5,6,6,7,7,8,8,9,9,10,10,11,11,13,13,16,16,17,17,18,18,20,20,21,21,22,22,23,23,24,24],"right_children":[2,4,6,8,10,12,14,16,18,20,22,24,-1,26,-1,-1,28,30,32,-1,34,36,38,40,42,-1,-1,-1,-1,-1,-1,-1,-1,-1,-1,-1,-1,-1,-1,-1,-1,-1,-1],"split_conditions":[3.4173942E-1,4.3809828E-1,4.0313053E-1,4.4841812E1,1.9901041E1,4.518171E1,3.2652261E0,3.7573737E-1,1.6840483E-1,6.973629E-1,5.7965463E-1,4.036872E-1,-4.374026E-2,2.5824407E-1,-4.376079E-2,8.919318E-2,2.0894234E1,3.5134986E-1,4.518171E1,8.884037E-2,9.317686E0,5.271793E-1,4.6434087E-1,4.2104822E-1,1.9551678E1,3.4527548E-4,-2.6592482E-2,8.856665E-2,2.6792591E-2,-4.2675298E-2,5.9730824E-2,1.3884032E-2,-4.4214707E-2,-4.14769E-2,1.2478131E-2,4.977575E-2,-3.2040842E-2,-3.0995876E-2,-4.3511868E-2,8.617128E-2,4.6607465E-2,6.2721245E-2,-3.397298E-2],"split_indices":[15,0,15,5,5,5,19,0,15,0,1,0,0,0,0,0,5,6,5,0,5,0,0,2,5,0,0,0,0,0,0,0,0,0,0,0,0,0,0,0,0,0,0],"split_type":[0,0,0,0,0,0,0,0,0,0,0,0,0,0,0,0,0,0,0,0,0,0,0,0,0,0,0,0,0,0,0,0,0,0,0,0,0,0,0,0,0,0,0],"sum_hessian":[8.44665E3,4.906698E3,3.539952E3,2.6695227E3,2.2371755E3,3.3131903E2,3.2086328E3,1.8564454E3,8.130772E2,9.013113E2,1.3358643E3,1.4690977E2,1.8440926E2,3.0881934E0,3.2055447E3,1.5410085E3,3.154369E2,5.660217E2,2.4705547E2,4.7734647E2,4.2396484E2,1.6940947E2,1.1664547E3,7.32343E1,7.367547E1,1.3235115E0,1.7646819E0,1.6896829E2,1.464686E2,1.1558667E2,4.5043506E2,1.7646819E0,2.4529079E2,2.5940823E2,1.645566E2,4.764641E1,1.21763054E2,9.043995E1,1.0760148E3,6.6616745E1,6.617557E0,1.94115E1,5.426397E1],"tree_param":{"num_deleted":"0","num_feature":"24","num_nodes":"43","size_leaf_vector":"1"}},{"base_weights":[3.1952006E-1,-4.0745E-1,5.446913E-1,-7.536456E-1,8.067087E-1,2.1806335E-1,8.60258E-1,-5.0272044E-2,7.038961E-2,1.1443342E0,2.972206E-1,-4.9547774E-1,6.134196E-1,1.024626E0,9.37198E-2,-3.4270905E-2,1.1609157E0,1.0810126E0,-7.8167677E-1,-6.0654753E-1,7.054011E-2,-5.789882E-2,8.938211E-1,7.123389E-1,1.0720301E0,-7.877096E-1,1.1407243E0,2.7408862E-2,7.0037745E-2,-2.8077167E-2,6.6352315E-2,-4.755368E-2,-5.486067E-3,7.1763024E-3,-4.7557555E-2,5.2606586E-2,-4.877648E-2,2.3205156E-2,6.6583835E-2,6.6391956E-3,5.895595E-2,6.6834085E-2,4.6152327E-2,3.5254605E-2,-4.8430566E-2,7.504929E-3,6.902242E-2],"categories":[],"categories_nodes":[],"categories_segments":[],"categories_sizes":[],"default_left":[0,0,0,0,0,0,0,0,0,0,0,0,0,0,0,0,0,0,0,0,0,0,0,0,0,0,0,0,0,0,0,0,0,0,0,0,0,0,0,0,0,0,0,0,0,0,0],"id":1,"left_children":[1,3,5,7,9,11,13,-1,-1,15,17,19,21,23,25,-1,27,29,31,33,-1,35,37,39,41,43,45,-1,-1,-1,-1,-1,-1,-1,-1,-1,-1,-1,-1,-1,-1,-1,-1,-1,-1,-1,-1],"loss_changes":[1.5293806E3,9.2959753E2,7.3496826E2,2.8032355E2,8.4029816E1,9.8957385E2,4.5691602E2,0E0,0E0,9.181824E0,1.6782571E2,2.3303244E2,4.2489685E2,4.3299072E1,5.933718E2,0E0,6.7355347E-1,5.040024E0,5.41893E-1,1.5870514E2,0E0,4.7091187E2,1.7378162E2,6.446025E1,3.1822266E1,9.916962E0,2.7070312E0,0E0,0E0,0E0,0E0,0E0,0E0,0E0,0E0,0E0,0E0,0E0,0E0,0E0,0E0,0E0,0E0,0E0,0E0,0E0,0E0],"parents":[2147483647,0,0,1,1,2,2,3,3,4,4,5,5,6,6,9,9,10,10,11,11,12,12,13,13,14,14,16,16,17,17,18,18,19,19,21,21,22,22,23,23,24,24,25,25,26,26],"right_children":[2,4,6,8,10,12,14,-1,-1,16,18,20,22,24,26,-1,28,30,32,34,-1,36,38,40,42,44,46,-1,-1,-1,-1,-1,-1,-1,-1,-1,-1,-1,-1,-1,-1,-1,-1,-1,-1,-1,-1],"split_conditions":[1.9901041E1,6.973629E-1,3.9195618E-1,1.2093916E1,9.317686E0,5.052145E0,7.368133E1,-5.0272044E-2,7.038961E-2,3.9591873E-1,9.978045E-1,7.4635864E1,1.2741955E-1,5.894397E-1,2.5692907E-1,-3.4270905E-2,7.032158E-1,3.2501456E-1,9.2253476E-1,3.5134986E-1,7.054011E-2,6.9819336E1,1.2093916E1,5.030867E-1,6.530922E1,7.8637767E0,2.7811092E-1,2.7408862E-2,7.0037745E-2,-2.8077167E-2,6.6352315E-2,-4.755368E-2,-5.486067E-3,7.1763024E-3,-4.7557555E-2,5.2606586E-2,-4.877648E-2,2.3205156E-2,6.6583835E-2,6.6391956E-3,5.895595E-2,6.6834085E-2,4.6152327E-2,3.5254605E-2,-4.8430566E-2,7.504929E-3,6.902242E-2],"split_indices":[5,0,0,13,5,13,5,0,0,1,23,7,6,1,6,0,0,1,1,6,0,5,13,0,5,13,8,0,0,0,0,0,0,0,0,0,0,0,0,0,0,0,0,0,0,0,0],"split_type":[0,0,0,0,0,0,0,0,0,0,0,0,0,0,0,0,0,0,0,0,0,0,0,0,0,0,0,0,0,0,0,0,0,0,0,0,0,0,0,0,0,0,0,0,0,0,0],"sum_hessian":[9.340168E3,2.2086204E3,7.131548E3,1.7189481E3,4.8967212E2,3.5053535E3,3.6261943E3,1.6476084E3,7.1339745E1,2.9360916E2,1.9606297E2,1.2496588E3,2.2556948E3,2.9855925E3,6.406018E2,2.426522E0,2.9118262E2,1.13561226E2,8.250175E1,1.1724954E3,7.71634E1,6.64867E2,1.5908278E3,3.960084E2,2.5895842E3,3.4796326E2,2.9263855E2,3.3971307E0,2.877855E2,1.4559132E0,1.12105316E2,8.104583E1,1.4559132E0,2.3925507E2,9.3324036E2,2.970063E2,3.6786072E2,4.760836E2,1.1147441E3,1.2326731E2,2.7274106E2,2.272195E3,3.1738907E2,4.3677397E0,3.4359552E2,2.9118264E0,2.897267E2],"tree_param":{"num_deleted":"0","num_feature":"24","num_nodes":"47","size_leaf_vector":"1"}},{"base_weights":[-4.3082395E-1,-6.266689E-1,5.642402E-1,-3.9104026E-2,-3.3544844E-1,1.8268667E0,-6.2051684E-1,4.273142E-1,-6.42145E-1,3.7039697E-2,1.8662667E0,5.1793027E-1,-6.3924974E-1,1.0262152E-2,1.5431253E0,-3.950535E-2,-3.8176233E-1,-2.6911786E-1,7.163608E-2,1.3827004E0,1.9087188E0,-1.5253401E-1,8.646021E-2,-6.550935E-1,-1.7535292E-2,-3.0916074E-2,5.9966825E-2,2.502973E-2,1.0643501E-1,-3.472798E-2,2.4101809E-2,-3.466043E-2,2.17925E-2,1.0962547E-1,8.221605E-3,3.1409923E-2,1.146336E-1,-3.2530833E-2,5.698137E-2,5.838472E-3,-3.940398E-2,-3.2074843E-2,8.646021E-2],"categories":[],"categories_nodes":[],"categories_segments":[],"categories_sizes":[],"default_left":[0,0,0,0,0,0,0,0,0,0,0,0,0,0,0,0,0,0,0,0,0,0,0,0,0,0,0,0,0,0,0,0,0,0,0,0,0,0,0,0,0,0,0],"id":2,"left_children":[1,3,5,-1,7,9,11,13,15,17,19,21,23,25,27,-1,29,31,-1,33,35,37,-1,39,41,-1,-1,-1,-1,-1,-1,-1,-1,-1,-1,-1,-1,-1,-1,-1,-1,-1,-1],"loss_changes":[1.4293134E3,4.446118E1,1.8060413E3,0E0,1.1449592E2,4.1122437E1,1.3689926E1,6.5444115E1,1.1756592E0,5.2769756E0,8.569092E0,6.9186954E0,6.031769E0,5.447862E1,9.055855E0,0E0,3.8855793E0,2.573452E0,0E0,2.7651192E1,1.3256836E-1,3.759064E0,0E0,8.149109E-1,1.3356162E1,0E0,0E0,0E0,0E0,0E0,0E0,0E0,0E0,0E0,0E0,0E0,0E0,0E0,0E0,0E0,0E0,0E0,0E0],"parents":[2147483647,0,0,1,1,2,2,4,4,5,5,6,6,7,7,8,8,9,9,10,10,11,11,12,12,13,13,14,14,16,16,17,17,19,19,20,20,21,21,23,23,24,24],"right_children":[2,4,6,-1,8,10,12,14,16,18,20,22,24,26,28,-1,30,32,-1,34,36,38,-1,40,42,-1,-1,-1,-1,-1,-1,-1,-1,-1,-1,-1,-1,-1,-1,-1,-1,-1,-1],"split_conditions":[7.243785E1,6.530922E1,2.4581882E-1,-3.9104026E-2,2.6247E-1,9.556205E0,2.5692907E-1,5.795951E-1,7.858318E-1,6.973629E-1,1.6698717E1,4.5856676E-1,8.557207E-1,6.9819336E1,6.242162E-1,-3.950535E-2,1.9795197E-1,7.8637767E0,7.163608E-2,1.1999893E-1,4.8529735E0,7.488106E1,8.646021E-2,6.6243126E1,1.8102282E-1,-3.0916074E-2,5.9966825E-2,2.502973E-2,1.0643501E-1,-3.472798E-2,2.4101809E-2,-3.466043E-2,2.17925E-2,1.0962547E-1,8.221605E-3,3.1409923E-2,1.146336E-1,-3.2530833E-2,5.698137E-2,5.838472E-3,-3.940398E-2,-3.2074843E-2,8.646021E-2],"split_indices":[5,5,6,0,6,13,6,0,0,0,13,0,0,5,1,0,3,13,0,6,19,11,0,7,3,0,0,0,0,0,0,0,0,0,0,0,0,0,0,0,0,0,0],"split_type":[0,0,0,0,0,0,0,0,0,0,0,0,0,0,0,0,0,0,0,0,0,0,0,0,0,0,0,0,0,0,0,0,0,0,0,0,0,0,0,0,0,0,0],"sum_hessian":[7.3310146E3,6.1258013E3,1.2052135E3,5.6389775E3,4.868237E2,5.831185E2,6.22095E2,1.3947461E2,3.473491E2,1.2610033E1,5.705085E2,9.553056E0,6.1254193E2,1.0240875E2,3.7065857E1,3.25186E2,2.2163088E1,1.0699422E1,1.9106112E0,4.9293766E1,5.212147E2,6.1139555E0,3.4391E0,5.97257E2,1.5284889E1,6.725351E1,3.5155243E1,6.8782E0,3.0187654E1,1.7959743E1,4.2033443E0,7.260322E0,3.4391E0,3.5919487E1,1.3374278E1,1.1463666E0,5.2006836E2,4.967589E0,1.1463666E0,1.1463666E0,5.9611066E2,1.1845789E1,3.4391E0],"tree_param":{"num_deleted":"0","num_feature":"24","num_nodes":"43","size_leaf_vector":"1"}},{"base_weights":[2.166204E-2,4.5663723E-1,-7.058062E-1,9.328553E-1,-1.337505E-1,-1.7381962E-1,-7.1148264E-1,1.2891799E0,1.792776E-1,5.9225106E-1,-6.0158503E-1,3.7385595E-1,-4.109236E-2,-3.3253643E-1,-4.27066E-2,1.3595928E0,9.347522E-1,6.356536E-1,-6.9983095E-1,1.3249052E0,-3.090809E-1,-7.842692E-2,-6.6116345E-1,9.7650725E-1,-3.9962685E-1,-2.8434375E-2,1.0566708E-3,8.205083E-2,7.229263E-2,8.051037E-2,2.7820611E-2,-3.6170203E-2,5.548321E-2,2.5974203E-2,-4.3628663E-2,8.0410525E-2,2.478911E-2,-3.9976764E-2,1.5521235E-2,5.5195663E-2,-2.6932547E-2,-1.4377786E-2,-4.0852007E-2,1.220945E-2,6.678843E-2,2.3083284E-2,-3.6542438E-2],"categories":[],"categories_nodes":[],"categories_segments":[],"categories_sizes":[],"default_left":[0,0,0,0,0,0,0,0,0,0,0,0,0,0,0,0,0,0,0,0,0,0,0,0,0,0,0,0,0,0,0,0,0,0,0,0,0,0,0,0,0,0,0,0,0,0,0],"id":3,"left_children":[1,3,5,7,9,11,13,15,17,19,21,23,-1,25,-1,27,29,31,33,35,37,39,41,43,45,-1,-1,-1,-1,-1,-1,-1,-1,-1,-1,-1,-1,-1,-1,-1,-1,-1,-1,-1,-1,-1,-1],"loss_changes":[2.6751453E3,1.48763E3,9.404785E0,7.8611206E2,8.030896E2,1.0099801E1,6.4575195E-2,4.809375E1,3.7830905E2,6.124439E2,4.4750122E1,8.702484E0,0E0,2.4159896E-1,0E0,5.2490234E-2,6.318283E1,2.2279662E2,1.0350754E1,6.4556885E0,8.467267E1,5.536231E1,1.0523132E1,8.136606E-1,1.6916827E0,0E0,0E0,0E0,0E0,0E0,0E0,0E0,0E0,0E0,0E0,0E0,0E0,0E0,0E0,0E0,0E0,0E0,0E0,0E0,0E0,0E0,0E0],"parents":[2147483647,0,0,1,1,2,2,3,3,4,4,5,5,6,6,7,7,8,8,9,9,10,10,11,11,13,13,15,15,16,16,17,17,18,18,19,19,20,20,21,21,22,22,23,23,24,24],"right_children":[2,4,6,8,10,12,14,16,18,20,22,24,-1,26,-1,28,30,32,34,36,38,40,42,44,46,-1,-1,-1,-1,-1,-1,-1,-1,-1,-1,-1,-1,-1,-1,-1,-1,-1,-1,-1,-1,-1,-1],"split_conditions":[1.1916634E1,4.3809828E-1,1.2093916E1,4.4079132E1,1.9613441E1,4.5666492E1,3.2652261E0,3.7573737E-1,5.052145E0,6.973629E-1,5.4514885E-1,4.005071E-1,-4.109236E-2,7.7523637E-1,-4.27066E-2,3.5869774E-1,2.0641249E1,3.5134986E-1,4.5944965E1,4.1274343E0,9.491424E0,5.271793E-1,2.1750874E1,1.2312537E-1,6.413994E-1,-2.8434375E-2,1.0566708E-3,8.205083E-2,7.229263E-2,8.051037E-2,2.7820611E-2,-3.6170203E-2,5.548321E-2,2.5974203E-2,-4.3628663E-2,8.0410525E-2,2.478911E-2,-3.9976764E-2,1.5521235E-2,5.5195663E-2,-2.6932547E-2,-1.4377786E-2,-4.0852007E-2,1.220945E-2,6.678843E-2,2.3083284E-2,-3.6542438E-2],"split_indices":[13,0,13,7,7,17,19,0,13,0,1,0,0,6,0,0,7,6,17,9,7,0,7,0,1,0,0,0,0,0,0,0,0,0,0,0,0,0,0,0,0,0,0,0,0,0,0],"split_type":[0,0,0,0,0,0,0,0,0,0,0,0,0,0,0,0,0,0,0,0,0,0,0,0,0,0,0,0,0,0,0,0,0,0,0,0,0,0,0,0,0,0,0,0,0,0,0],"sum_hessian":[8.451706E3,5.2894385E3,3.162268E3,2.927425E3,2.3620134E3,3.3786976E1,3.128481E3,1.9870212E3,9.4040375E2,9.2548895E2,1.4365243E3,1.6464628E1,1.7322346E1,3.4784298E0,3.1250027E3,1.6548539E3,3.321674E2,6.192577E2,3.2114603E2,5.1020294E2,4.15286E2,1.4715303E2,1.2893713E3,9.077224E0,7.3874044E0,2.17582E0,1.3026098E0,1.5653075E3,8.954638E1,1.7699564E2,1.5517177E2,1.169385E2,5.023192E2,7.1418567E0,3.1400415E2,5.0124414E2,8.958807E0,2.5478535E2,1.6050066E2,3.9343338E1,1.0780969E2,5.828182E1,1.2310895E3,1.8121256E0,7.2650986E0,1.3450452E0,6.0423594E0],"tree_param":{"num_deleted":"0","num_feature":"24","num_nodes":"47","size_leaf_vector":"1"}},{"base_weights":[3.025525E-1,-3.9181122E-1,5.127748E-1,-7.3218036E-1,7.6665497E-1,2.0081246E-1,8.122201E-1,-8.093471E-1,6.584424E-2,1.0788515E0,2.9227477E-1,-4.8508936E-1,5.7660955E-1,9.6487284E-1,9.178939E-2,-4.859709E-2,-1.1100322E-2,-3.637525E-2,1.0980595E0,-7.678797E-1,1.039917E0,-5.890568E-1,6.829864E-2,-7.029916E-2,8.36646E-1,7.00416E-1,1.0167634E0,-7.5064766E-1,1.0714157E0,1.8190905E-2,6.645419E-2,-4.6737738E-2,-4.886229E-3,1.1781847E-2,6.427133E-2,5.023482E-3,-4.5876183E-2,4.9309716E-2,-4.7033228E-2,2.1680804E-2,6.2271424E-2,9.758104E-3,6.364515E-2,6.391662E-2,4.093208E-2,-4.1449137E-4,-4.7829133E-2,6.501526E-2,2.627128E-2],"categories":[],"categories_nodes":[],"categories_segments":[],"categories_sizes":[],"default_left":[0,0,0,0,0,0,0,0,0,0,0,0,0,0,0,0,0,0,0,0,0,0,0,0,0,0,0,0,0,0,0,0,0,0,0,0,0,0,0,0,0,0,0,0,0,0,0,0,0],"id":4,"left_children":[1,3,5,7,9,11,13,15,-1,17,19,21,23,25,27,-1,-1,-1,29,31,33,35,-1,37,39,41,43,45,47,-1,-1,-1,-1,-1,-1,-1,-1,-1,-1,-1,-1,-1,-1,-1,-1,-1,-1,-1,-1],"loss_changes":[1.3600938E3,8.546089E2,6.6786255E2,2.3747418E2,7.254379E1,9.035574E2,4.0114453E2,4.267578E-1,0E0,1.0396149E1,1.5716406E2,2.102555E2,3.809804E2,4.0458008E1,5.285204E2,0E0,0E0,0E0,1.8164978E0,5.4917145E-1,2.8097916E0,1.3791199E2,0E0,4.1478467E2,1.5402222E2,9.623239E1,3.9932617E1,1.1905106E1,1.7137146E0,0E0,0E0,0E0,0E0,0E0,0E0,0E0,0E0,0E0,0E0,0E0,0E0,0E0,0E0,0E0,0E0,0E0,0E0,0E0,0E0],"parents":[2147483647,0,0,1,1,2,2,3,3,4,4,5,5,6,6,7,7,9,9,10,10,11,11,12,12,13,13,14,14,18,18,19,19,20,20,21,21,23,23,24,24,25,25,26,26,27,27,28,28],"right_children":[2,4,6,8,10,12,14,16,-1,18,20,22,24,26,28,-1,-1,-1,30,32,34,36,-1,38,40,42,44,46,48,-1,-1,-1,-1,-1,-1,-1,-1,-1,-1,-1,-1,-1,-1,-1,-1,-1,-1,-1,-1],"split_conditions":[1.9901041E1,6.973629E-1,3.9195618E-1,4.0313053E-1,9.317686E0,1.6840483E-1,7.368133E1,8.7803227E-1,6.584424E-2,3.9591873E-1,1.3275908E-1,7.446757E1,1.1999893E-1,4.555516E-1,2.6796743E-1,-4.859709E-2,-1.1100322E-2,-3.637525E-2,7.032158E-1,5.4070807E-1,7.032158E-1,3.5134986E-1,6.829864E-2,6.9819336E1,4.0313053E-1,7.507789E-1,6.483232E1,4.5054457E-1,9.102861E-1,1.8190905E-2,6.645419E-2,-4.6737738E-2,-4.886229E-3,1.1781847E-2,6.427133E-2,5.023482E-3,-4.5876183E-2,4.9309716E-2,-4.7033228E-2,2.1680804E-2,6.2271424E-2,9.758104E-3,6.364515E-2,6.391662E-2,4.093208E-2,-4.1449137E-4,-4.7829133E-2,6.501526E-2,2.627128E-2],"split_indices":[5,0,0,15,5,15,5,2,0,1,19,5,6,0,6,0,0,0,0,8,0,6,0,5,15,1,5,15,0,0,0,0,0,0,0,0,0,0,0,0,0,0,0,0,0,0,0,0,0],"split_type":[0,0,0,0,0,0,0,0,0,0,0,0,0,0,0,0,0,0,0,0,0,0,0,0,0,0,0,0,0,0,0,0,0,0,0,0,0,0,0,0,0,0,0,0,0,0,0,0,0],"sum_hessian":[9.314728E3,2.1644658E3,7.150261E3,1.6732805E3,4.9118524E2,3.5029204E3,3.6473408E3,1.6062045E3,6.707606E1,2.95309E2,1.9587624E2,1.239764E3,2.2631565E3,3.009292E3,6.38049E2,1.6042947E3,1.90983E0,2.9148777E0,2.923941E2,8.09942E1,1.14882034E2,1.1658632E3,7.3900826E1,6.4913617E2,1.6140203E3,4.9646945E2,2.5128225E3,3.431957E2,2.948533E2,3.9234545E0,2.8847067E2,7.954817E1,1.4460342E0,4.418881E0,1.1046316E2,2.4138443E2,9.2447876E2,2.883984E2,3.6073773E2,4.8104785E2,1.1329724E3,1.9988882E2,2.9658063E2,2.1923035E3,3.2051904E2,2.0277605E1,3.2291812E2,2.88459E2,6.3942623E0],"tree_param":{"num_deleted":"0","num_feature":"24","num_nodes":"49","size_leaf_vector":"1"}},{"base_weights":[-4.1674402E-1,-6.2514883E-1,4.9485675E-1,-6.4092195E-1,-3.9503336E-1,1.6166036E0,-6.14963E-1,-3.8655415E-2,-6.096273E-1,1.9768845E-1,-6.363935E-1,1.1706973E-1,1.6623164E0,3.2923883E-1,-6.319402E-1,-6.342367E-1,-3.5232824E-1,-2.8542954E-1,1.3940371E0,6.472613E-3,-6.3998187E-1,-4.3797094E-1,8.864845E-2,1.3007222E0,1.0227827E-1,-2.51429E-1,8.0681786E-2,-6.4766085E-1,-2.6946262E-1,-8.677404E-3,-3.816552E-2,-3.5766304E-2,4.20565E-2,-3.0109733E-2,3.786597E-2,-6.6406275E-3,8.9812614E-2,-1.5604791E-4,-3.8613427E-2,4.214153E-2,-3.725068E-2,9.9047594E-2,1.5931511E-2,-2.6490217E-2,3.1292018E-2,-3.9288972E-4,-3.8950853E-2,-3.5361465E-2,5.2490715E-2],"categories":[],"categories_nodes":[],"categories_segments":[],"categories_sizes":[],"default_left":[0,0,0,0,0,0,0,0,0,0,0,0,0,0,0,0,0,0,0,0,0,0,0,0,0,0,0,0,0,0,0,0,0,0,0,0,0,0,0,0,0,0,0,0,0,0,0,0,0],"id":5,"left_children":[1,3,5,7,9,11,13,-1,15,17,19,21,23,25,27,29,31,33,35,-1,37,39,-1,41,-1,43,-1,45,47,-1,-1,-1,-1,-1,-1,-1,-1,-1,-1,-1,-1,-1,-1,-1,-1,-1,-1,-1,-1],"loss_changes":[1.371889E3,2.1025635E1,1.6743643E3,1.0229492E-1,5.4525627E1,4.5606445E1,1.1093124E1,0E0,3.2255707E0,6.4576035E1,8.0496216E-1,1.6688944E1,7.268921E0,7.9160347E0,3.5795288E0,3.4571838E-1,1.3561926E1,1.6246044E1,5.1670456E0,0E0,6.1156464E-1,3.8375094E0,0E0,2.5946785E1,0E0,1.6153895E0,0E0,6.151123E-1,1.1488323E1,0E0,0E0,0E0,0E0,0E0,0E0,0E0,0E0,0E0,0E0,0E0,0E0,0E0,0E0,0E0,0E0,0E0,0E0,0E0,0E0],"parents":[2147483647,0,0,1,1,2,2,3,3,4,4,5,5,6,6,8,8,9,9,10,10,11,11,12,12,13,13,14,14,15,15,16,16,17,17,18,18,20,20,21,21,23,23,25,25,27,27,28,28],"right_children":[2,4,6,8,10,12,14,-1,16,18,20,22,24,26,28,30,32,34,36,-1,38,40,-1,42,-1,44,-1,46,48,-1,-1,-1,-1,-1,-1,-1,-1,-1,-1,-1,-1,-1,-1,-1,-1,-1,-1,-1,-1],"split_conditions":[7.063281E1,6.530922E1,2.4581882E-1,7.787904E-1,2.6796743E-1,9.556205E0,2.6247E-1,-3.8655415E-2,2.1467464E-1,5.8333224E-1,2.5708136E-1,6.256439E-1,1.8039936E1,4.6434087E-1,8.1498146E-1,3.2501456E-1,1.7574772E1,6.9819336E1,-2.7793527E-1,6.472613E-3,1.6394358E0,7.7785355E-1,8.864845E-2,1.1999893E-1,1.0227827E-1,7.488106E1,8.0681786E-2,6.6243126E1,1.8102282E-1,-8.677404E-3,-3.816552E-2,-3.5766304E-2,4.20565E-2,-3.0109733E-2,3.786597E-2,-6.6406275E-3,8.9812614E-2,-1.5604791E-4,-3.8613427E-2,4.214153E-2,-3.725068E-2,9.9047594E-2,1.5931511E-2,-2.6490217E-2,3.1292018E-2,-3.9288972E-4,-3.8950853E-2,-3.5361465E-2,5.2490715E-2],"split_indices":[5,5,6,0,6,13,6,0,3,0,8,2,13,0,0,1,13,5,3,0,21,23,0,6,0,11,0,7,3,0,0,0,0,0,0,0,0,0,0,0,0,0,0,0,0,0,0,0,0],"split_type":[0,0,0,0,0,0,0,0,0,0,0,0,0,0,0,0,0,0,0,0,0,0,0,0,0,0,0,0,0,0,0,0,0,0,0,0,0,0,0,0,0,0,0,0,0,0,0,0,0],"sum_hessian":[7.2179985E3,5.875218E3,1.3427809E3,5.4963335E3,3.7888443E2,6.6752954E2,6.7525134E2,4.945773E3,5.505603E2,1.0970146E2,2.6918298E2,1.9873848E1,6.4765564E2,1.1537049E1,6.637143E2,5.0089423E2,4.9666092E1,7.879543E1,3.0906029E1,1.1242449E0,2.6805875E2,1.4692872E1,5.180975E0,7.185002E1,5.7580566E2,7.9143023E0,3.6227474E0,6.352207E2,2.8493631E1,2.2485442E0,4.986457E2,4.075443E1,8.911666E0,6.418406E1,1.4611374E1,1.9712981E0,2.893473E1,1.5068012E0,2.6655194E2,1.5595169E0,1.3133355E1,5.3159542E1,1.8690483E1,6.7652736E0,1.1490285E0,1.5175581E0,6.337031E2,2.2723234E1,5.7703977E0],"tree_param":{"num_deleted":"0","num_feature":"24","num_nodes":"49","size_leaf_vector":"1"}},{"base_weights":[1.7080385E-2,4.6829167E-1,-6.320465E-1,9.138983E-1,-1.2050083E-1,-1.1718514E-1,-6.974461E-1,1.1910802E0,2.195105E-1,5.408631E-1,-6.038811E-1,5.7274795E-1,-4.2361937E-2,-2.7815312E-1,-4.186487E-2,1.2637391E0,8.536369E-1,5.6283045E-1,-7.145284E-1,7.508152E-2,-3.1102252E-1,-2.041712E-2,-6.713088E-1,1.2310094E0,-1.6052131E-1,-2.5504988E-2,1.7032989E-3,7.6294266E-2,6.658914E-2,7.4636966E-2,2.2653231E-2,-4.3243896E-2,5.0911285E-2,-4.314832E-2,2.1211046E-3,-3.9677963E-2,1.3341959E-2,4.7781583E-2,-3.5443664E-2,-2.8119957E-2,-4.09673E-2,7.665864E-2,4.4655222E-2,5.6233723E-2,-3.382441E-2],"categories":[],"categories_nodes":[],"categories_segments":[],"categories_sizes":[],"default_left":[0,0,0,0,0,0,0,0,0,0,0,0,0,0,0,0,0,0,0,0,0,0,0,0,0,0,0,0,0,0,0,0,0,0,0,0,0,0,0,0,0,0,0,0,0],"id":6,"left_children":[1,3,5,7,9,11,13,15,17,19,21,23,-1,25,-1,27,29,31,33,-1,35,37,39,41,43,-1,-1,-1,-1,-1,-1,-1,-1,-1,-1,-1,-1,-1,-1,-1,-1,-1,-1,-1,-1],"loss_changes":[2.4581616E3,1.2991523E3,1.157854E2,5.421426E2,6.825906E2,1.5865727E2,1.5332031E-1,4.808618E1,2.5879575E2,5.4623694E2,4.8508484E1,8.70913E1,0E0,2.0325166E-1,0E0,3.0126953E-1,6.643057E1,2.169771E2,7.808304E-1,0E0,7.696795E1,6.0660286E1,2.1879578E0,1.0144348E0,3.8781124E1,0E0,0E0,0E0,0E0,0E0,0E0,0E0,0E0,0E0,0E0,0E0,0E0,0E0,0E0,0E0,0E0,0E0,0E0,0E0,0E0],"parents":[2147483647,0,0,1,1,2,2,3,3,4,4,5,5,6,6,7,7,8,8,9,9,10,10,11,11,13,13,15,15,16,16,17,17,18,18,20,20,21,21,22,22,23,23,24,24],"right_children":[2,4,6,8,10,12,14,16,18,20,22,24,-1,26,-1,28,30,32,34,-1,36,38,40,42,44,-1,-1,-1,-1,-1,-1,-1,-1,-1,-1,-1,-1,-1,-1,-1,-1,-1,-1,-1,-1],"split_conditions":[9.921505E0,4.4537112E-1,1.2093916E1,4.518171E1,1.9901041E1,4.518171E1,3.2652261E0,3.7573737E-1,5.052145E0,6.973629E-1,5.4514885E-1,4.1734093E-1,-4.2361937E-2,5.070288E1,-4.186487E-2,3.5869774E-1,2.0894234E1,3.5134986E-1,9.947593E-1,7.508152E-2,9.317686E0,5.7208365E-1,6.001803E-1,3.8370195E-1,1.9551678E1,-2.5504988E-2,1.7032989E-3,7.6294266E-2,6.658914E-2,7.4636966E-2,2.2653231E-2,-4.3243896E-2,5.0911285E-2,-4.314832E-2,2.1211046E-3,-3.9677963E-2,1.3341959E-2,4.7781583E-2,-3.5443664E-2,-2.8119957E-2,-4.09673E-2,7.665864E-2,4.4655222E-2,5.6233723E-2,-3.382441E-2],"split_indices":[13,0,13,5,5,5,19,0,13,0,1,0,0,5,0,0,5,6,1,0,5,0,1,0,5,0,0,0,0,0,0,0,0,0,0,0,0,0,0,0,0,0,0,0,0],"split_type":[0,0,0,0,0,0,0,0,0,0,0,0,0,0,0,0,0,0,0,0,0,0,0,0,0,0,0,0,0,0,0,0,0,0,0,0,0,0,0,0,0,0,0,0,0],"sum_hessian":[8.390272E3,4.949904E3,3.4403684E3,2.8171682E3,2.1327358E3,3.88132E2,3.0522363E3,2.0128368E3,8.043315E2,9.0050995E2,1.232226E3,1.7874045E2,2.0939154E2,2.991168E0,3.049245E3,1.6535065E3,3.5933026E2,5.884974E2,2.1583409E2,4.906946E2,4.098153E2,1.2781166E2,1.1044143E3,9.375832E1,8.498212E1,1.7083036E0,1.2828643E0,1.5651521E3,8.835433E1,1.9638791E2,1.6294237E2,1.0680644E2,4.8169092E2,2.1456415E2,1.269956E0,2.4719456E2,1.6262074E2,5.235509E1,7.545657E1,6.190085E1,1.0425134E3,8.378169E1,9.976631E0,2.2402584E1,6.2579536E1],"tree_param":{"num_deleted":"0","num_feature":"24","num_nodes":"45","size_leaf_vector":"1"}},{"base_weights":[2.8992608E-1,-3.7750632E-1,4.899573E-1,-7.0439965E-1,7.2051585E-1,2.0255874E-1,7.7488625E-1,-7.8312665E-1,6.2186636E-2,1.0072958E0,2.8218126E-1,-4.5162395E-1,5.536655E-1,9.2096686E-1,9.091713E-2,-4.7022916E-2,-1.5424879E-2,-3.4376606E-2,1.0225668E0,9.95215E-1,-7.661875E-1,-5.533074E-1,6.6371046E-2,-2.6711037E-2,8.103786E-1,6.5592855E-1,9.5947975E-1,-7.403322E-1,1.0019159E0,2.1291172E-2,6.1876286E-2,-2.8705157E-2,6.112041E-2,-4.6646748E-2,-4.9202065E-3,4.63206E-3,-4.3130483E-2,4.7036286E-2,-4.471643E-2,2.2836441E-2,6.0732506E-2,8.439892E-3,5.304443E-2,5.9929732E-2,4.0809713E-2,3.3061933E-2,-4.557996E-2,6.1147027E-2,1.6125847E-2],"categories":[],"categories_nodes":[],"categories_segments":[],"categories_sizes":[],"default_left":[0,0,0,0,0,0,0,0,0,0,0,0,0,0,0,0,0,0,0,0,0,0,0,0,0,0,0,0,0,0,0,0,0,0,0,0,0,0,0,0,0,0,0,0,0,0,0,0,0],"id":7,"left_children":[1,3,5,7,9,11,13,15,-1,17,19,21,23,25,27,-1,-1,-1,29,31,33,35,-1,37,39,41,43,45,47,-1,-1,-1,-1,-1,-1,-1,-1,-1,-1,-1,-1,-1,-1,-1,-1,-1,-1,-1,-1],"loss_changes":[1.2478344E3,7.74313E2,5.8863245E2,2.2870477E2,6.1896088E1,8.2290125E2,3.6062793E2,2.5073242E-1,0E0,7.9142456E0,1.4853436E2,1.9897522E2,3.47336E2,2.9610107E1,4.8305753E2,0E0,0E0,0E0,1.2835693E0,4.666046E0,5.444832E-1,1.22765656E2,0E0,4.1779932E2,1.3973206E2,4.4665573E1,2.7704346E1,8.831863E0,3.5088196E0,0E0,0E0,0E0,0E0,0E0,0E0,0E0,0E0,0E0,0E0,0E0,0E0,0E0,0E0,0E0,0E0,0E0,0E0,0E0,0E0],"parents":[2147483647,0,0,1,1,2,2,3,3,4,4,5,5,6,6,7,7,9,9,10,10,11,11,12,12,13,13,14,14,18,18,19,19,20,20,21,21,23,23,24,24,25,25,26,26,27,27,28,28],"right_children":[2,4,6,8,10,12,14,16,-1,18,20,22,24,26,28,-1,-1,-1,30,32,34,36,-1,38,40,42,44,46,48,-1,-1,-1,-1,-1,-1,-1,-1,-1,-1,-1,-1,-1,-1,-1,-1,-1,-1,-1,-1],"split_conditions":[1.9901041E1,6.973629E-1,4.005071E-1,4.0313053E-1,9.317686E0,1.6840483E-1,7.368133E1,8.7803227E-1,6.2186636E-2,3.9591873E-1,9.988894E-1,7.4635864E1,1.6122797E-1,5.8487946E-1,2.5692907E-1,-4.7022916E-2,-1.5424879E-2,-3.4376606E-2,7.032158E-1,3.2501456E-1,5.4070807E-1,3.4453416E-1,6.6371046E-2,6.9819336E1,4.518171E1,5.1225656E-1,6.530922E1,2.647415E0,9.102861E-1,2.1291172E-2,6.1876286E-2,-2.8705157E-2,6.112041E-2,-4.6646748E-2,-4.9202065E-3,4.63206E-3,-4.3130483E-2,4.7036286E-2,-4.471643E-2,2.2836441E-2,6.0732506E-2,8.439892E-3,5.304443E-2,5.9929732E-2,4.0809713E-2,3.3061933E-2,-4.557996E-2,6.1147027E-2,1.6125847E-2],"split_indices":[5,0,0,15,5,15,5,2,0,1,23,7,6,1,6,0,0,0,0,1,8,6,0,5,5,0,5,19,0,0,0,0,0,0,0,0,0,0,0,0,0,0,0,0,0,0,0,0,0],"split_type":[0,0,0,0,0,0,0,0,0,0,0,0,0,0,0,0,0,0,0,0,0,0,0,0,0,0,0,0,0,0,0,0,0,0,0,0,0,0,0,0,0,0,0,0,0,0,0,0,0],"sum_hessian":[9.343698E3,2.154348E3,7.18935E3,1.6604451E3,4.9390268E2,3.580186E3,3.6091643E3,1.5892346E3,7.1210526E1,2.9762448E2,1.9627818E2,1.2502936E3,2.3298926E3,2.9736438E3,6.355204E2,1.586871E3,2.3636463E0,2.4291961E0,2.9519528E2,1.1685898E2,7.9419205E1,1.1744095E3,7.588395E1,7.1484564E2,1.6150469E3,3.8002417E2,2.5936196E3,3.3242285E2,3.030975E2,4.4437366E0,2.9075156E2,1.4664402E0,1.1539254E2,7.797258E1,1.4466193E0,2.4434715E2,9.3006244E2,3.3584814E2,3.7899747E2,5.171992E2,1.0978475E3,1.17221214E2,2.6280298E2,2.270649E3,3.229708E2,4.4167E0,3.2800616E2,2.9569196E2,7.4055552E0],"tree_param":{"num_deleted":"0","num_feature":"24","num_nodes":"49","size_leaf_vector":"1"}},{"base_weights":[-4.1240275E-1,-6.1538494E-1,4.5274526E-1,-6.264192E-1,-3.5327795E-1,1.459895E0,-6.074248E-1,-6.3134587E-1,-5.363266E-1,4.2820805E-1,-5.9834987E-1,-2.8044528E-1,1.5014664E0,2.6588628E-1,-6.188703E-1,-3.808537E-2,-6.0244024E-1,-2.3841244E-1,-6.301589E-1,-1.805957E-1,1.1675202E0,-1.4501606E-1,-6.29197E-1,-3.7112396E-2,5.9837516E-2,1.1029785E0,1.5420767E0,-2.2828151E-1,5.7609275E-2,-6.3632005E-1,-2.0843215E-1,-3.739659E-2,-1.5781304E-2,-3.6092233E-2,2.7405098E-2,-3.807563E-2,8.135537E-3,-2.1941133E-2,6.4336054E-2,3.2860883E-2,9.424653E-2,-3.4981925E-2,5.2462928E-2,-3.0079113E-5,-3.809419E-2,8.8798724E-2,5.1670503E-3,2.7260756E-2,9.260511E-2,-3.0673388E-2,3.1400245E-2,-7.661011E-3,-3.8271986E-2,-3.1938054E-2,5.10171E-2],"categories":[],"categories_nodes":[],"categories_segments":[],"categories_sizes":[],"default_left":[0,0,0,0,0,0,0,0,0,0,0,0,0,0,0,0,0,0,0,0,0,0,0,0,0,0,0,0,0,0,0,0,0,0,0,0,0,0,0,0,0,0,0,0,0,0,0,0,0,0,0,0,0,0,0],"id":8,"left_children":[1,3,5,7,9,11,13,15,17,19,21,23,25,27,29,-1,31,33,35,37,39,41,43,-1,-1,45,47,49,-1,51,53,-1,-1,-1,-1,-1,-1,-1,-1,-1,-1,-1,-1,-1,-1,-1,-1,-1,-1,-1,-1,-1,-1,-1,-1],"loss_changes":[1.2404459E3,1.6278076E1,1.4347017E3,2.0292969E0,4.5092E1,5.034668E1,6.744156E0,5.3466797E-2,7.9963455E0,2.5694134E1,2.3868446E0,8.120067E0,8.850342E0,3.4579089E0,4.473633E0,0E0,3.8482056E0,1.8502647E1,8.5621643E-1,7.8996916E0,5.3881264E0,6.386266E0,5.979309E-1,0E0,0E0,2.5324692E1,4.5410156E-2,1.6841385E0,0E0,3.8981628E-1,1.020015E1,0E0,0E0,0E0,0E0,0E0,0E0,0E0,0E0,0E0,0E0,0E0,0E0,0E0,0E0,0E0,0E0,0E0,0E0,0E0,0E0,0E0,0E0,0E0,0E0],"parents":[2147483647,0,0,1,1,2,2,3,3,4,4,5,5,6,6,7,7,8,8,9,9,10,10,11,11,12,12,13,13,14,14,16,16,17,17,18,18,19,19,20,20,21,21,22,22,25,25,26,26,27,27,29,29,30,30],"right_children":[2,4,6,8,10,12,14,16,18,20,22,24,26,28,30,-1,32,34,36,38,40,42,44,-1,-1,46,48,50,-1,52,54,-1,-1,-1,-1,-1,-1,-1,-1,-1,-1,-1,-1,-1,-1,-1,-1,-1,-1,-1,-1,-1,-1,-1,-1],"split_conditions":[7.143502E1,6.582443E1,2.4581882E-1,6.565996E1,2.0899184E-1,7.8637767E0,2.5692907E-1,2.3220086E-1,2.7943793E-1,5.1225656E-1,2.7943793E-1,5.4765964E-1,1.6698717E1,4.2938593E-1,8.1498146E-1,-3.808537E-2,2E0,5.543464E-1,9.988894E-1,2.557018E1,8.2088774E-1,5.8333224E-1,1.6394358E0,-3.7112396E-2,5.9837516E-2,1.1999893E-1,4.714136E0,8.45713E1,5.7609275E-2,5.020674E1,1.5972221E-1,-3.739659E-2,-1.5781304E-2,-3.6092233E-2,2.7405098E-2,-3.807563E-2,8.135537E-3,-2.1941133E-2,6.4336054E-2,3.2860883E-2,9.424653E-2,-3.4981925E-2,5.2462928E-2,-3.0079113E-5,-3.809419E-2,8.8798724E-2,5.1670503E-3,2.7260756E-2,9.260511E-2,-3.0673388E-2,3.1400245E-2,-7.661011E-3,-3.8271986E-2,-3.1938054E-2,5.10171E-2],"split_indices":[17,7,6,17,6,13,6,3,6,0,6,0,13,0,0,0,4,0,23,13,1,0,21,0,0,6,19,7,0,11,3,0,0,0,0,0,0,0,0,0,0,0,0,0,0,0,0,0,0,0,0,0,0,0,0],"split_type":[0,0,0,0,0,0,0,0,0,0,0,0,0,0,0,0,0,0,0,0,0,0,0,0,0,0,0,0,0,0,0,0,0,0,0,0,0,0,0,0,0,0,0,0,0,0,0,0,0,0,0,0,0,0,0],"sum_hessian":[7.060551E3,5.719079E3,1.3414717E3,5.486442E3,2.3263705E2,6.877061E2,6.5376556E2,5.1951387E3,2.913035E2,5.5323765E1,1.773133E2,1.588309E1,6.71823E2,8.112228E0,6.456533E2,4.624392E3,5.7074646E2,7.079163E1,2.2051186E2,3.0837103E1,2.448666E1,1.1732474E1,1.6558083E2,1.3049286E1,2.8338041E0,6.5259315E1,6.065637E2,5.209575E0,2.9026527E0,6.1868933E2,2.6963985E1,5.367902E2,3.3956196E1,4.660746E1,2.4184175E1,2.1944644E2,1.0654159E0,2.7608192E1,3.2289104E0,1.07668495E1,1.3719811E1,8.565652E0,3.1668227E0,1.5010735E0,1.6407974E2,4.72098E1,1.8049515E1,1.2494287E0,6.053143E2,4.063648E0,1.1459268E0,2.179208E0,6.1651013E2,2.1104609E1,5.8593774E0],"tree_param":{"num_deleted":"0","num_feature":"24","num_nodes":"55","size_leaf_vector":"1"}},{"base_weights":[2.3423584E-2,4.1441527E-1,-6.777357E-1,8.1202143E-1,-1.3156648E-1,-1.898324E-1,-6.828407E-1,1.1133652E0,9.834812E-2,5.242682E-1,-5.9561855E-1,2.692978E-1,-3.9364733E-2,-2.6900685E-1,-6.8314546E-1,1.184257E0,7.766389E-1,5.232783E-1,-6.9970113E-1,1.1666263E0,-2.9308662E-1,-5.9882797E-2,-6.564002E-1,7.081952E-1,-3.4570284E-2,-2.5192076E-2,2.351658E-3,-4.602471E-1,-4.1025773E-2,7.147186E-2,6.280739E-2,6.9952995E-2,1.8480154E-2,-4.2207953E-2,4.7722086E-2,-4.2165242E-2,-4.258919E-3,2.544022E-2,7.0105016E-2,-3.8266893E-2,1.1610956E-2,5.520394E-2,-2.7323576E-2,-2.636505E-2,-4.0100694E-2,1.09749926E-4,5.4590855E-2,-3.6855258E-2,1.0389671E-2],"categories":[],"categories_nodes":[],"categories_segments":[],"categories_sizes":[],"default_left":[0,0,0,0,0,0,0,0,0,0,0,0,0,0,0,0,0,0,0,0,0,0,0,0,0,0,0,0,0,0,0,0,0,0,0,0,0,0,0,0,0,0,0,0,0,0,0,0,0],"id":9,"left_children":[1,3,5,7,9,11,13,15,17,19,21,23,-1,25,27,29,31,33,35,37,39,41,43,45,-1,-1,-1,47,-1,-1,-1,-1,-1,-1,-1,-1,-1,-1,-1,-1,-1,-1,-1,-1,-1,-1,-1,-1,-1],"loss_changes":[2.2860415E3,1.1622764E3,7.2800293E0,6.6607886E2,6.872231E2,7.1851597E0,1.5209961E-1,5.0886963E1,3.127644E2,4.9174405E2,4.300824E1,6.895602E0,0E0,2.1285945E-1,2.8564453E-2,2.1777344E-1,6.930118E1,2.0150313E2,5.553436E-1,1.026001E-1,6.9381874E1,5.3231945E1,2.7250366E0,1.6933761E0,0E0,0E0,0E0,1.2808709E0,0E0,0E0,0E0,0E0,0E0,0E0,0E0,0E0,0E0,0E0,0E0,0E0,0E0,0E0,0E0,0E0,0E0,0E0,0E0,0E0,0E0],"parents":[2147483647,0,0,1,1,2,2,3,3,4,4,5,5,6,6,7,7,8,8,9,9,10,10,11,11,13,13,14,14,15,15,16,16,17,17,18,18,19,19,20,20,21,21,22,22,23,23,27,27],"right_children":[2,4,6,8,10,12,14,16,18,20,22,24,-1,26,28,30,32,34,36,38,40,42,44,46,-1,-1,-1,48,-1,-1,-1,-1,-1,-1,-1,-1,-1,-1,-1,-1,-1,-1,-1,-1,-1,-1,-1,-1,-1],"split_conditions":[1.1916634E1,4.4537112E-1,1.2093916E1,4.518171E1,1.9901041E1,4.2741863E1,3.2652261E0,3.7573737E-1,5.052145E0,6.973629E-1,5.398506E-1,4.7613063E-1,-3.9364733E-2,3.2383428E0,-4.528522E-1,3.5869774E-1,2.0894234E1,3.5134986E-1,9.947593E-1,7.5109833E-1,9.317686E0,5.271793E-1,5.971779E-1,1.3774807E0,-3.4570284E-2,-2.5192076E-2,2.351658E-3,6.2997425E-1,-4.1025773E-2,7.147186E-2,6.280739E-2,6.9952995E-2,1.8480154E-2,-4.2207953E-2,4.7722086E-2,-4.2165242E-2,-4.258919E-3,2.544022E-2,7.0105016E-2,-3.8266893E-2,1.1610956E-2,5.520394E-2,-2.7323576E-2,-2.636505E-2,-4.0100694E-2,1.09749926E-4,5.4590855E-2,-3.6855258E-2,1.0389671E-2],"split_indices":[13,0,13,5,5,5,19,0,13,0,1,0,0,9,3,0,5,6,1,23,5,0,1,9,0,0,0,0,0,0,0,0,0,0,0,0,0,0,0,0,0,0,0,0,0,0,0,0,0],"split_type":[0,0,0,0,0,0,0,0,0,0,0,0,0,0,0,0,0,0,0,0,0,0,0,0,0,0,0,0,0,0,0,0,0,0,0,0,0,0,0,0,0,0,0,0,0,0,0,0,0],"sum_hessian":[8.336301E3,5.3522075E3,2.9840933E3,3.0965725E3,2.255635E3,3.1374454E1,2.9527188E3,2.1767727E3,9.197998E2,9.346122E2,1.3210227E3,1.6063261E1,1.5311193E1,2.9533346E0,2.9497654E3,1.7956991E3,3.8107364E2,6.0048047E2,3.1931934E2,5.230416E2,4.1157053E2,1.348473E2,1.1861754E3,1.0702335E1,5.360926E0,1.6908836E0,1.2624509E0,1.0622037E1,2.9391433E3,1.7006367E3,9.506231E1,2.0719461E2,1.7387904E2,1.0866245E2,4.9181802E2,3.1763568E2,1.6836629E0,1.9444671E0,5.2109717E2,2.4069585E2,1.708747E2,3.831741E1,9.65299E1,6.425682E1,1.1219186E3,2.6456833E0,8.056652E0,8.573709E0,2.048328E0],"tree_param":{"num_deleted":"0","num_feature":"24","num_nodes":"49","size_leaf_vector":"1"}},{"base_weights":[2.7633467E-1,-3.6720824E-1,4.6567208E-1,-6.8805313E-1,6.906567E-1,1.9704221E-1,7.412742E-1,-7.614689E-1,5.8827087E-2,9.5044875E-1,2.8410357E-1,-4.2176634E-1,5.322702E-1,8.793057E-1,7.860787E-2,-4.5723796E-2,-1.4570112E-2,1.6685031E-1,5.753948E-2,-7.379223E-1,9.468124E-1,-5.1679593E-1,6.452798E-2,-4.669847E-2,7.548696E-1,9.1347075E-1,6.285858E-1,-7.028362E-1,9.476208E-1,-1.5808646E-2,3.613314E-2,-4.5666687E-2,-1.0102338E-2,9.5238015E-3,5.8571808E-2,5.4693595E-3,-4.0779803E-2,4.575993E-2,-4.4466026E-2,1.9609895E-2,5.586995E-2,4.0580153E-2,5.68785E-2,-8.115876E-3,5.7085197E-2,8.246254E-3,-4.448968E-2,5.8648255E-2,3.5681095E-2],"categories":[],"categories_nodes":[],"categories_segments":[],"categories_sizes":[],"default_left":[0,0,0,0,0,0,0,0,0,0,0,0,0,0,0,0,0,0,0,0,0,0,0,0,0,0,0,0,0,0,0,0,0,0,0,0,0,0,0,0,0,0,0,0,0,0,0,0,0],"id":10,"left_children":[1,3,5,7,9,11,13,15,-1,17,19,21,23,25,27,-1,-1,29,-1,31,33,35,-1,37,39,41,43,45,47,-1,-1,-1,-1,-1,-1,-1,-1,-1,-1,-1,-1,-1,-1,-1,-1,-1,-1,-1,-1],"loss_changes":[1.129227E3,7.157347E2,5.2991785E2,1.9901031E2,5.152922E1,7.527689E2,3.231427E2,2.5567627E-1,0E0,1.8096924E0,1.3163922E2,1.821187E2,3.0334595E2,2.4361084E1,4.1537564E2,0E0,0E0,1.066746E0,0E0,8.5843277E-1,2.5391998E0,1.18893005E2,0E0,3.686271E2,1.2791412E2,2.0267578E1,8.758838E1,1.0586319E1,2.3530273E0,0E0,0E0,0E0,0E0,0E0,0E0,0E0,0E0,0E0,0E0,0E0,0E0,0E0,0E0,0E0,0E0,0E0,0E0,0E0,0E0],"parents":[2147483647,0,0,1,1,2,2,3,3,4,4,5,5,6,6,7,7,9,9,10,10,11,11,12,12,13,13,14,14,17,17,19,19,20,20,21,21,23,23,24,24,25,25,26,26,27,27,28,28],"right_children":[2,4,6,8,10,12,14,16,-1,18,20,22,24,26,28,-1,-1,30,-1,32,34,36,-1,38,40,42,44,46,48,-1,-1,-1,-1,-1,-1,-1,-1,-1,-1,-1,-1,-1,-1,-1,-1,-1,-1,-1,-1],"split_conditions":[1.9901041E1,6.973629E-1,4.0652937E-1,1.2093916E1,9.317686E0,5.239578E0,7.368133E1,8.7803227E-1,5.8827087E-2,7.032158E-1,1.3275908E-1,7.4313576E1,1.1277792E-1,6.530922E1,2.6796743E-1,-4.5723796E-2,-1.4570112E-2,4E0,5.753948E-2,2.8589064E-2,7.032158E-1,3.5134986E-1,6.452798E-2,6.9819336E1,1.2093916E1,4.555516E-1,2.9275498E-1,1.1916634E1,2.676536E-1,-1.5808646E-2,3.613314E-2,-4.5666687E-2,-1.0102338E-2,9.5238015E-3,5.8571808E-2,5.4693595E-3,-4.0779803E-2,4.575993E-2,-4.4466026E-2,1.9609895E-2,5.586995E-2,4.0580153E-2,5.68785E-2,-8.115876E-3,5.7085197E-2,8.246254E-3,-4.448968E-2,5.8648255E-2,3.5681095E-2],"split_indices":[5,0,0,13,5,13,5,2,0,0,19,7,6,5,6,0,0,4,0,20,0,6,0,5,13,0,6,13,3,0,0,0,0,0,0,0,0,0,0,0,0,0,0,0,0,0,0,0,0],"split_type":[0,0,0,0,0,0,0,0,0,0,0,0,0,0,0,0,0,0,0,0,0,0,0,0,0,0,0,0,0,0,0,0,0,0,0,0,0,0,0,0,0,0,0,0,0,0,0,0,0],"sum_hessian":[9.264717E3,2.1058777E3,7.1588394E3,1.6161326E3,4.8974503E2,3.6263184E3,3.5325212E3,1.5486432E3,6.748939E1,2.9782568E2,1.9191934E2,1.2741017E3,2.3522166E3,2.9232285E3,6.092927E2,1.5463077E3,2.3354013E0,3.4775283E0,2.9434818E2,7.5439995E1,1.1647935E2,1.1987996E3,7.530217E1,6.5348535E2,1.6987313E3,2.5698665E3,3.533619E2,3.209309E2,2.8836182E2,1.987159E0,1.4903693E0,7.2100815E1,3.3391812E0,4.463075E0,1.1201627E2,2.5340765E2,9.453919E2,3.017089E2,3.5177643E2,4.9655264E2,1.2021786E3,3.2957083E2,2.2402957E3,1.05184525E2,2.481774E2,1.3980791E1,3.0695013E2,2.6391714E2,2.4444675E1],"tree_param":{"num_deleted":"0","num_feature":"24","num_nodes":"49","size_leaf_vector":"1"}},{"base_weights":[-3.9972574E-1,-5.97361E-1,4.6297064E-1,-6.213838E-1,-3.1774193E-1,1.3432072E0,-6.054791E-1,-3.7497766E-2,-5.893177E-1,3.480675E-1,-6.2128323E-1,-7.0709825E-2,1.3704101E0,-6.1997557E-1,2.6389621E-2,-6.1617464E-1,-3.0737877E-1,-7.69073E-2,1.3128886E0,-6.244342E-1,1.7954946E-3,-4.2906258E-1,5.6705862E-2,9.9957436E-1,1.4043111E0,6.769095E-3,-6.216578E-1,-4.8787454E-1,7.544598E-2,-1.0495212E-2,-3.7081584E-2,3.0550396E-2,-3.752133E-2,-2.9500416E-2,4.320424E-2,1.7467191E-2,8.969649E-2,-3.34623E-3,-3.7654344E-2,-3.5130195E-2,1.21995E-2,8.2252994E-2,-3.4457273E-3,8.445106E-2,3.5102732E-2,-3.7776276E-2,-2.677984E-2,-3.4226872E-2,6.8183923E-3],"categories":[],"categories_nodes":[],"categories_segments":[],"categories_sizes":[],"default_left":[0,0,0,0,0,0,0,0,0,0,0,0,0,0,0,0,0,0,0,0,0,0,0,0,0,0,0,0,0,0,0,0,0,0,0,0,0,0,0,0,0,0,0,0,0,0,0,0,0],"id":11,"left_children":[1,3,5,7,9,11,13,-1,15,17,19,21,23,25,27,29,31,33,35,37,-1,39,-1,41,43,-1,45,47,-1,-1,-1,-1,-1,-1,-1,-1,-1,-1,-1,-1,-1,-1,-1,-1,-1,-1,-1,-1,-1],"loss_changes":[1.17199E3,3.732312E1,1.2062448E3,1.4892578E-1,9.016138E1,2.7156494E1,5.3296356E0,0E0,3.845932E0,5.7551216E1,6.5026855E-1,5.7326856E0,6.987671E0,7.8282166E-1,9.695812E0,2.7062988E-1,1.3151369E1,3.294171E1,7.457039E0,5.01503E-1,0E0,1.278456E0,0E0,2.4405586E1,6.644287E-1,0E0,4.5085144E-1,6.165464E-1,0E0,0E0,0E0,0E0,0E0,0E0,0E0,0E0,0E0,0E0,0E0,0E0,0E0,0E0,0E0,0E0,0E0,0E0,0E0,0E0,0E0],"parents":[2147483647,0,0,1,1,2,2,3,3,4,4,5,5,6,6,8,8,9,9,10,10,11,11,12,12,13,13,14,14,15,15,16,16,17,17,18,18,19,19,21,21,23,23,24,24,26,26,27,27],"right_children":[2,4,6,8,10,12,14,-1,16,18,20,22,24,26,28,30,32,34,36,38,-1,40,-1,42,44,-1,46,48,-1,-1,-1,-1,-1,-1,-1,-1,-1,-1,-1,-1,-1,-1,-1,-1,-1,-1,-1,-1,-1],"split_conditions":[7.193556E1,6.530922E1,2.5692907E-1,7.723508E-1,2.7943793E-1,9.198795E0,8.747418E-1,-3.7497766E-2,2.1467464E-1,5.8333224E-1,9.978045E-1,6.1500305E-1,1.6698717E1,6.6243126E1,1.5972221E-1,3.2501456E-1,-1.5438244E-1,6.9819336E1,6.2079746E-1,6.1640892E1,1.7954946E-3,2.8109953E0,5.6705862E-2,1.1999893E-1,2.5143185E-1,6.769095E-3,7.664146E-1,9.4349694E-1,7.544598E-2,-1.0495212E-2,-3.7081584E-2,3.0550396E-2,-3.752133E-2,-2.9500416E-2,4.320424E-2,1.7467191E-2,8.969649E-2,-3.34623E-3,-3.7654344E-2,-3.5130195E-2,1.21995E-2,8.2252994E-2,-3.4457273E-3,8.445106E-2,3.5102732E-2,-3.7776276E-2,-2.677984E-2,-3.4226872E-2,6.8183923E-3],"split_indices":[5,5,6,0,6,13,0,0,3,0,23,0,13,7,3,1,14,5,1,7,0,19,0,6,6,0,0,1,0,0,0,0,0,0,0,0,0,0,0,0,0,0,0,0,0,0,0,0,0],"split_type":[0,0,0,0,0,0,0,0,0,0,0,0,0,0,0,0,0,0,0,0,0,0,0,0,0,0,0,0,0,0,0,0,0,0,0,0,0,0,0,0,0,0,0,0,0,0,0,0,0],"sum_hessian":[6.870726E3,5.590391E3,1.2803347E3,5.146754E3,4.436372E2,7.0182855E2,5.785062E2,4.6100254E3,5.367288E2,1.3886488E2,3.047723E2,1.3211612E1,6.8861694E2,5.655538E2,1.2952441E1,4.88749E2,4.7979813E1,9.7169136E1,4.1695747E1,3.0335385E2,1.4184856E0,1.0278677E1,2.9329355E0,6.0743122E1,6.278738E2,1.1137229E0,5.6444006E2,9.646907E0,3.3055341E0,2.5212932E0,4.862277E2,1.3245171E1,3.4734642E1,6.421159E1,3.2957546E1,6.777279E0,3.491847E1,1.7885473E0,3.0156528E2,8.311528E0,1.9671482E0,4.4688423E1,1.6054699E1,6.2456757E2,3.3062162E0,5.369912E2,2.7448847E1,8.536966E0,1.1099412E0],"tree_param":{"num_deleted":"0","num_feature":"24","num_nodes":"49","size_leaf_vector":"1"}},{"base_weights":[1.5559715E-2,3.8468644E-1,-6.6994995E-1,7.053992E-1,-1.0890194E-1,-2.9883823E-1,-4.021519E-2,9.905708E-1,3.3864077E-2,4.5408252E-1,-5.146381E-1,-2.6855152E-2,2.7743648E-3,1.092986E0,7.593465E-1,4.154648E-1,-6.9078153E-1,9.826542E-1,-4.788051E-2,-1.4963718E-1,-5.7485145E-1,6.675322E-2,6.1461754E-2,6.5018475E-2,2.6498936E-2,-4.1712817E-2,4.0592525E-2,-4.1622993E-2,-3.367862E-3,6.2079653E-2,4.011042E-2,1.5894547E-2,-3.732572E-2,2.4604155E-2,-3.0422559E-2,-2.3118345E-2,-3.7326764E-2],"categories":[],"categories_nodes":[],"categories_segments":[],"categories_sizes":[],"default_left":[0,0,0,0,0,0,0,0,0,0,0,0,0,0,0,0,0,0,0,0,0,0,0,0,0,0,0,0,0,0,0,0,0,0,0,0,0],"id":12,"left_children":[1,3,5,7,9,11,-1,13,15,17,19,-1,-1,21,23,25,27,29,31,33,35,-1,-1,-1,-1,-1,-1,-1,-1,-1,-1,-1,-1,-1,-1,-1,-1],"loss_changes":[2.084236E3,8.4760706E2,8.4106445E-2,6.214617E2,4.821745E2,2.568143E-1,0E0,5.294873E1,2.6819165E2,2.3466583E2,2.6855194E1,0E0,0E0,7.4853516E-1,7.187344E1,1.8476724E2,5.7650757E-1,6.207672E0,8.186204E1,3.532082E1,9.140808E0,0E0,0E0,0E0,0E0,0E0,0E0,0E0,0E0,0E0,0E0,0E0,0E0,0E0,0E0,0E0,0E0],"parents":[2147483647,0,0,1,1,2,2,3,3,4,4,5,5,7,7,8,8,9,9,10,10,13,13,14,14,15,15,16,16,17,17,18,18,19,19,20,20],"right_children":[2,4,6,8,10,12,-1,14,16,18,20,-1,-1,22,24,26,28,30,32,34,36,-1,-1,-1,-1,-1,-1,-1,-1,-1,-1,-1,-1,-1,-1,-1,-1],"split_conditions":[1.2093916E1,4.6137777E-1,3.2652261E0,4.518171E1,1.9901041E1,8.833179E-1,-4.021519E-2,3.2623628E-1,5.052145E0,6.730349E-1,5.8487946E-1,-2.6855152E-2,2.7743648E-3,2.61043E-1,1.9901041E1,3.5134986E-1,9.947593E-1,6.3490134E-1,8.857943E-1,5.7709646E-1,5.232829E-1,6.675322E-2,6.1461754E-2,6.5018475E-2,2.6498936E-2,-4.1712817E-2,4.0592525E-2,-4.1622993E-2,-3.367862E-3,6.2079653E-2,4.011042E-2,1.5894547E-2,-3.732572E-2,2.4604155E-2,-3.0422559E-2,-2.3118345E-2,-3.7326764E-2],"split_indices":[13,2,19,5,5,23,0,2,13,2,1,0,0,2,5,6,1,2,2,2,2,0,0,0,0,0,0,0,0,0,0,0,0,0,0,0,0],"split_type":[0,0,0,0,0,0,0,0,0,0,0,0,0,0,0,0,0,0,0,0,0,0,0,0,0,0,0,0,0,0,0,0,0,0,0,0,0],"sum_hessian":[8.234366E3,5.352649E3,2.881717E3,3.2441943E3,2.1084546E3,3.3194094E0,2.8783975E3,2.2767769E3,9.674175E2,8.8303925E2,1.2254154E3,2.070457E0,1.2489524E0,1.5747896E3,7.019873E2,6.340413E2,3.333762E2,4.2955975E2,4.534795E2,1.7411963E2,1.0512958E3,1.2111732E3,3.6361627E2,3.459551E2,3.560322E2,1.20293175E2,5.137481E2,3.3173038E2,1.6458201E0,3.6618585E2,6.33739E1,2.939848E2,1.594947E2,6.7786835E1,1.06332794E2,2.1200676E2,8.39289E2],"tree_param":{"num_deleted":"0","num_feature":"24","num_nodes":"37","size_leaf_vector":"1"}},{"base_weights":[2.6931044E-1,-3.5006952E-1,4.4761983E-1,-6.668462E-1,6.579197E-1,1.7952324E-1,6.98984E-1,-7.393009E-1,9.332639E-1,9.1079694E-1,2.6967165E-1,-4.1151002E-1,4.9471048E-1,8.242577E-1,7.97212E-2,-4.4394076E-2,-1.37412865E-2,5.683217E-2,2.286102E-2,2.4027033E-1,5.5132758E-2,-7.2864056E-1,9.214429E-1,-5.1077646E-1,6.290254E-2,3.9387187E-3,7.48696E-1,6.19368E-1,8.669817E-1,-6.882375E-1,9.073067E-1,3.985268E-2,-1.6441964E-2,-4.5055345E-2,-1.005373E-2,9.02223E-3,5.698997E-2,6.768592E-3,-4.114332E-2,4.140918E-2,-4.037054E-2,2.026458E-2,5.6431208E-2,2.0135297E-2,5.2452028E-2,5.415703E-2,3.6303736E-2,-4.1308156E-3,-4.3845017E-2,5.5256665E-2,1.4480603E-2],"categories":[],"categories_nodes":[],"categories_segments":[],"categories_sizes":[],"default_left":[0,0,0,0,0,0,0,0,0,0,0,0,0,0,0,0,0,0,0,0,0,0,0,0,0,0,0,0,0,0,0,0,0,0,0,0,0,0,0,0,0,0,0,0,0,0,0,0,0,0,0],"id":13,"left_children":[1,3,5,7,9,11,13,15,17,19,21,23,25,27,29,-1,-1,-1,-1,31,-1,33,35,37,-1,39,41,43,45,47,49,-1,-1,-1,-1,-1,-1,-1,-1,-1,-1,-1,-1,-1,-1,-1,-1,-1,-1,-1,-1],"loss_changes":[1.0199504E3,6.597897E2,4.8303894E2,1.8302765E2,4.8235657E1,6.468747E2,2.8696436E2,2.5750732E-1,9.5062256E-2,1.3545837E0,1.2877448E2,1.7569458E2,2.8225476E2,2.6294434E1,3.972674E2,0E0,0E0,0E0,0E0,1.3487152E0,0E0,8.285866E-1,2.4449463E0,1.235697E2,0E0,3.5975876E2,1.1724841E2,3.835054E1,2.3083496E1,8.478806E0,2.4653015E0,0E0,0E0,0E0,0E0,0E0,0E0,0E0,0E0,0E0,0E0,0E0,0E0,0E0,0E0,0E0,0E0,0E0,0E0,0E0,0E0],"parents":[2147483647,0,0,1,1,2,2,3,3,4,4,5,5,6,6,7,7,8,8,9,9,10,10,11,11,12,12,13,13,14,14,19,19,21,21,22,22,23,23,25,25,26,26,27,27,28,28,29,29,30,30],"right_children":[2,4,6,8,10,12,14,16,18,20,22,24,26,28,30,-1,-1,-1,-1,32,-1,34,36,38,-1,40,42,44,46,48,50,-1,-1,-1,-1,-1,-1,-1,-1,-1,-1,-1,-1,-1,-1,-1,-1,-1,-1,-1,-1],"split_conditions":[1.9901041E1,6.973629E-1,3.9195618E-1,1.2093916E1,9.317686E0,5.239578E0,7.368133E1,8.7803227E-1,2.0689274E1,7.032158E-1,1.3275908E-1,7.446757E1,2.0899184E-1,4.5856676E-1,2.6796743E-1,-4.4394076E-2,-1.37412865E-2,5.683217E-2,2.286102E-2,1.2878078E2,5.5132758E-2,2.8589064E-2,7.032158E-1,3.5134986E-1,6.290254E-2,6.9819336E1,4.518171E1,6.950342E0,6.530922E1,1.352117E1,9.102861E-1,3.985268E-2,-1.6441964E-2,-4.5055345E-2,-1.005373E-2,9.02223E-3,5.698997E-2,6.768592E-3,-4.114332E-2,4.140918E-2,-4.037054E-2,2.026458E-2,5.6431208E-2,2.0135297E-2,5.2452028E-2,5.415703E-2,3.6303736E-2,-4.1308156E-3,-4.3845017E-2,5.5256665E-2,1.4480603E-2],"split_indices":[5,0,0,13,5,13,5,2,17,0,19,5,6,0,6,0,0,0,0,21,0,20,0,6,0,5,5,13,5,13,0,0,0,0,0,0,0,0,0,0,0,0,0,0,0,0,0,0,0,0,0],"split_type":[0,0,0,0,0,0,0,0,0,0,0,0,0,0,0,0,0,0,0,0,0,0,0,0,0,0,0,0,0,0,0,0,0,0,0,0,0,0,0,0,0,0,0,0,0,0,0,0,0,0,0],"sum_hessian":[9.232327E3,2.0634656E3,7.1688613E3,1.5703607E3,4.931048E2,3.4699675E3,3.6988938E3,1.502951E3,6.740968E1,2.976328E2,1.9547198E2,1.2067415E3,2.263226E3,3.0761978E3,6.2269604E2,1.5006454E3,2.3055964E0,6.491303E1,2.49665E0,3.9840338E0,2.9364877E2,7.715415E1,1.1831784E2,1.1306425E3,7.609903E1,7.7224646E2,1.4909795E3,5.339849E2,2.5422126E3,3.2308817E2,2.996079E2,1.9921372E0,1.9918966E0,7.3816666E1,3.337483E0,4.4699383E0,1.138479E2,2.477991E2,8.828434E2,3.8343912E2,3.8880734E2,4.7553458E2,1.015445E3,2.539586E2,2.8002634E2,2.235171E3,3.0704172E2,2.095325E1,3.0213492E2,2.9314536E2,6.462555E0],"tree_param":{"num_deleted":"0","num_feature":"24","num_nodes":"51","size_leaf_vector":"1"}},{"base_weights":[-3.9187127E-1,-5.895359E-1,4.4809043E-1,-6.1339587E-1,-3.1166798E-1,1.2432047E0,-6.0076094E-1,-3.7035108E-2,-5.8120114E-1,3.496009E-1,-5.9460914E-1,-2.958471E-1,1.2625495E0,-6.1739373E-1,-2.0837682E-1,-6.0250574E-1,-1.8307607E-1,-5.9928484E-2,1.1948291E0,-3.752967E-2,-2.1038681E-1,-3.4540944E-2,4.9236305E-2,9.3551934E-1,1.2961134E0,-2.7416795E-3,-6.191914E-1,-5.5087674E-1,9.430189E-1,-3.6256213E-2,-5.661018E-3,-3.6427654E-2,7.217264E-2,-3.0318988E-2,4.9524292E-2,2.0220257E-2,8.172042E-2,6.2348083E-2,-2.3181733E-2,7.513905E-2,-2.8647084E-3,7.7942714E-2,2.7547754E-2,-2.1626484E-2,-3.7359692E-2,8.202164E-3,-3.5972703E-2,7.777169E-2,-1.8294014E-3],"categories":[],"categories_nodes":[],"categories_segments":[],"categories_sizes":[],"default_left":[0,0,0,0,0,0,0,0,0,0,0,0,0,0,0,0,0,0,0,0,0,0,0,0,0,0,0,0,0,0,0,0,0,0,0,0,0,0,0,0,0,0,0,0,0,0,0,0,0],"id":14,"left_children":[1,3,5,7,9,11,13,-1,15,17,19,21,23,25,27,29,31,33,35,-1,37,-1,-1,39,41,-1,43,45,47,-1,-1,-1,-1,-1,-1,-1,-1,-1,-1,-1,-1,-1,-1,-1,-1,-1,-1,-1,-1],"loss_changes":[1.1129006E3,3.5738403E1,1.0660385E3,1.895752E-1,8.097226E1,2.2089233E1,3.4452362E0,0E0,4.573288E0,4.5099102E1,3.4329987E0,3.68959E0,6.427002E0,5.0920105E-1,1.0182493E1,4.032898E-1,1.8451244E1,3.5492504E1,5.544136E0,0E0,5.8299665E0,0E0,0E0,2.2235195E1,8.746338E-1,0E0,2.0362854E-1,7.488818E-1,2.1103163E0,0E0,0E0,0E0,0E0,0E0,0E0,0E0,0E0,0E0,0E0,0E0,0E0,0E0,0E0,0E0,0E0,0E0,0E0,0E0,0E0],"parents":[2147483647,0,0,1,1,2,2,3,3,4,4,5,5,6,6,8,8,9,9,10,10,11,11,12,12,13,13,14,14,15,15,16,16,17,17,18,18,20,20,23,23,24,24,26,26,27,27,28,28],"right_children":[2,4,6,8,10,12,14,-1,16,18,20,22,24,26,28,30,32,34,36,-1,38,-1,-1,40,42,-1,44,46,48,-1,-1,-1,-1,-1,-1,-1,-1,-1,-1,-1,-1,-1,-1,-1,-1,-1,-1,-1,-1],"split_conditions":[7.193556E1,6.530922E1,2.5692907E-1,2.3220086E-1,2.5708136E-1,7.6758866E0,8.1498146E-1,-3.7035108E-2,6.6125435E-1,5.6866395E-1,7.858318E-1,6.1500305E-1,1.6698717E1,5.020674E1,1.8102282E-1,6.483232E1,1.4503895E1,6.9819336E1,6.242162E-1,-3.752967E-2,2.7943793E-1,-3.4540944E-2,4.9236305E-2,1.6373888E-1,2.5143185E-1,-2.7416795E-3,-9.351391E-1,3.0410382E-1,-1.5199576E-1,-3.6256213E-2,-5.661018E-3,-3.6427654E-2,7.217264E-2,-3.0318988E-2,4.9524292E-2,2.0220257E-2,8.172042E-2,6.2348083E-2,-2.3181733E-2,7.513905E-2,-2.8647084E-3,7.7942714E-2,2.7547754E-2,-2.1626484E-2,-3.7359692E-2,8.202164E-3,-3.5972703E-2,7.777169E-2,-1.8294014E-3],"split_indices":[5,5,6,3,8,13,0,0,2,0,0,0,13,11,3,5,13,5,1,0,6,0,0,8,6,0,9,6,14,0,0,0,0,0,0,0,0,0,0,0,0,0,0,0,0,0,0,0,0],"split_type":[0,0,0,0,0,0,0,0,0,0,0,0,0,0,0,0,0,0,0,0,0,0,0,0,0,0,0,0,0,0,0,0,0,0,0,0,0,0,0,0,0,0,0,0,0,0,0,0,0],"sum_hessian":[6.699872E3,5.423857E3,1.2760151E3,4.993615E3,4.3024158E2,7.256735E2,5.503416E2,4.44003E3,5.535855E2,1.288411E2,3.0140048E2,8.795114E0,7.168784E2,5.2730164E2,2.3039988E1,5.2488184E2,2.8703714E1,8.75408E1,4.1300293E1,2.7827783E2,2.3122652E1,7.4972005E0,1.2979128E0,6.995153E1,6.469269E2,1.7522414E0,5.255494E2,1.8240074E1,4.7999134E0,5.2283936E2,2.0424278E0,2.2495298E1,6.208416E0,5.8583874E1,2.8956928E1,7.326337E0,3.3973957E1,2.1278381E0,2.0994814E1,5.265745E1,1.7294075E1,6.440086E2,2.918269E0,8.620345E0,5.169291E2,1.0622413E0,1.7177834E1,3.2302587E0,1.569655E0],"tree_param":{"num_deleted":"0","num_feature":"24","num_nodes":"49","size_leaf_vector":"1"}},{"base_weights":[2.2856904E-2,3.800228E-1,-6.515367E-1,7.5066674E-1,-9.169313E-2,-1.9377586E-1,-6.566639E-1,1.0195447E0,1.0004597E-1,5.1318705E-1,-5.4629993E-1,3.029961E-1,-3.838438E-2,-2.8742325E-1,-6.569724E-1,1.0572699E0,7.6742834E-1,4.8798475E-1,-6.8103987E-1,1.0357805E0,-2.6680756E-1,-8.5769966E-2,-6.2068677E-1,7.7840865E-1,-3.49592E-1,3.4827555E-3,-2.6388122E-2,-3.9475724E-2,-4.974152E-1,6.2680684E-2,6.91097E-2,6.840972E-2,2.2230465E-2,-4.1305616E-2,4.3760937E-2,-4.1061316E-2,-3.5855498E-3,6.2224388E-2,2.386987E-2,-3.6956143E-2,1.2322126E-2,4.1585512E-2,-2.854684E-2,-2.2572493E-2,-3.879783E-2,8.658748E-3,5.446779E-2,1.9874232E-2,-3.3555962E-2,1.379498E-2,-3.4936797E-2],"categories":[],"categories_nodes":[],"categories_segments":[],"categories_sizes":[],"default_left":[0,0,0,0,0,0,0,0,0,0,0,0,0,0,0,0,0,0,0,0,0,0,0,0,0,0,0,0,0,0,0,0,0,0,0,0,0,0,0,0,0,0,0,0,0,0,0,0,0,0,0],"id":15,"left_children":[1,3,5,7,9,11,13,15,17,19,21,23,-1,25,27,29,31,33,35,37,39,41,43,45,47,-1,-1,-1,49,-1,-1,-1,-1,-1,-1,-1,-1,-1,-1,-1,-1,-1,-1,-1,-1,-1,-1,-1,-1,-1,-1],"loss_changes":[1.962112E3,9.311757E2,6.467041E0,5.216013E2,6.4497797E2,7.530955E0,9.106445E-2,1.9095947E1,2.650572E2,4.1060742E2,4.580612E1,5.4140897E0,0E0,2.65502E-1,3.2226562E-2,7.375488E-1,4.0773758E1,1.6650427E2,5.489807E-1,2.1362305E-3,6.6877235E1,5.738033E1,7.0186157E0,6.5165806E-1,1.3271139E0,0E0,0E0,0E0,1.4886327E0,0E0,0E0,0E0,0E0,0E0,0E0,0E0,0E0,0E0,0E0,0E0,0E0,0E0,0E0,0E0,0E0,0E0,0E0,0E0,0E0,0E0,0E0],"parents":[2147483647,0,0,1,1,2,2,3,3,4,4,5,5,6,6,7,7,8,8,9,9,10,10,11,11,13,13,14,14,15,15,16,16,17,17,18,18,19,19,20,20,21,21,22,22,23,23,24,24,28,28],"right_children":[2,4,6,8,10,12,14,16,18,20,22,24,-1,26,28,30,32,34,36,38,40,42,44,46,48,-1,-1,-1,50,-1,-1,-1,-1,-1,-1,-1,-1,-1,-1,-1,-1,-1,-1,-1,-1,-1,-1,-1,-1,-1,-1],"split_conditions":[1.1916634E1,4.231015E-1,1.2093916E1,4.518171E1,1.9901041E1,4.4516396E1,3.2652261E0,3.7573737E-1,5.052145E0,6.973629E-1,5.7965463E-1,3.9195618E-1,-3.838438E-2,1.1657892E-1,9.8428005E-1,7.32393E0,7.980259E-1,3.5134986E-1,9.947593E-1,8.7803227E-1,9.317686E0,5.271793E-1,4.555516E-1,2.3E1,2.0894234E1,3.4827555E-3,-2.6388122E-2,-3.9475724E-2,3.1189809E-2,6.2680684E-2,6.91097E-2,6.840972E-2,2.2230465E-2,-4.1305616E-2,4.3760937E-2,-4.1061316E-2,-3.5855498E-3,6.2224388E-2,2.386987E-2,-3.6956143E-2,1.2322126E-2,4.1585512E-2,-2.854684E-2,-2.2572493E-2,-3.879783E-2,8.658748E-3,5.446779E-2,1.9874232E-2,-3.3555962E-2,1.379498E-2,-3.4936797E-2],"split_indices":[13,0,13,5,5,5,19,0,13,0,1,0,0,2,2,13,1,6,1,2,5,0,0,22,5,0,0,0,20,0,0,0,0,0,0,0,0,0,0,0,0,0,0,0,0,0,0,0,0,0,0],"split_type":[0,0,0,0,0,0,0,0,0,0,0,0,0,0,0,0,0,0,0,0,0,0,0,0,0,0,0,0,0,0,0,0,0,0,0,0,0,0,0,0,0,0,0,0,0,0,0,0,0,0,0],"sum_hessian":[8.1434917E3,5.3242417E3,2.81925E3,2.9811423E3,2.343099E3,3.174336E1,2.7875068E3,2.1089211E3,8.722212E2,1.00531525E3,1.3377838E3,1.5198269E1,1.6545092E1,3.2615867E0,2.784245E3,1.8310951E3,2.7782605E2,5.8307697E2,2.8914423E2,6.017509E2,4.0356436E2,1.8639476E2,1.151389E3,8.658882E0,6.5393867E0,1.2256675E0,2.0359192E0,2.7639307E3,2.031455E1,1.6286711E3,2.0242404E2,1.4211966E2,1.3570638E2,9.888546E1,4.8419153E2,2.8748825E2,1.655977E0,5.9978485E2,1.9660594E0,2.3180319E2,1.7176115E2,6.1882072E1,1.2451268E2,1.122465E2,1.0391426E3,1.8976097E0,6.761272E0,1.3759227E0,5.163464E0,1.9083159E0,1.8406235E1],"tree_param":{"num_deleted":"0","num_feature":"24","num_nodes":"51","size_leaf_vector":"1"}},{"base_weights":[2.5763348E-1,-3.3362707E-1,4.2811266E-1,-6.4461267E-1,6.3082516E-1,1.5548183E-1,6.4911735E-1,-7.193269E-1,5.363239E-2,8.7476784E-1,2.4129091E-1,-4.5788857E-1,4.6998435E-1,7.5829935E-1,1.0268143E-1,-4.3194383E-2,-1.3775049E-2,-3.922138E-2,8.923294E-1,8.852494E-1,-7.1806E-1,-5.7183754E-1,6.124344E-2,-9.179905E-3,7.061366E-1,4.5814317E-1,8.098766E-1,-6.739661E-1,8.6705095E-1,1.8525597E-2,5.399018E-2,-3.0163478E-2,5.4503717E-2,-4.375258E-2,-3.7146762E-3,5.591035E-4,-4.376174E-2,3.946399E-2,-4.0878545E-2,1.7601917E-2,5.3484406E-2,3.717929E-3,4.875785E-2,5.079618E-2,3.2483865E-2,4.0943176E-2,-4.1722786E-2,5.3152107E-2,2.6027914E-2],"categories":[],"categories_nodes":[],"categories_segments":[],"categories_sizes":[],"default_left":[0,0,0,0,0,0,0,0,0,0,0,0,0,0,0,0,0,0,0,0,0,0,0,0,0,0,0,0,0,0,0,0,0,0,0,0,0,0,0,0,0,0,0,0,0,0,0,0,0],"id":16,"left_children":[1,3,5,7,9,11,13,15,-1,17,19,21,23,25,27,-1,-1,-1,29,31,33,35,-1,37,39,41,43,45,47,-1,-1,-1,-1,-1,-1,-1,-1,-1,-1,-1,-1,-1,-1,-1,-1,-1,-1,-1,-1],"loss_changes":[9.2117004E2,6.140206E2,4.2723486E2,1.7864105E2,4.719919E1,6.13132E2,2.3359094E2,2.2070312E-1,0E0,8.930176E0,1.2058688E2,1.8223926E2,2.3772311E2,5.0091797E1,3.8875372E2,0E0,0E0,0E0,9.9676514E-1,4.293686E0,5.2059174E-1,9.1659424E1,0E0,3.1195148E2,1.0730475E2,6.755391E1,2.6902466E1,1.0006271E1,2.2289734E0,0E0,0E0,0E0,0E0,0E0,0E0,0E0,0E0,0E0,0E0,0E0,0E0,0E0,0E0,0E0,0E0,0E0,0E0,0E0,0E0],"parents":[2147483647,0,0,1,1,2,2,3,3,4,4,5,5,6,6,7,7,9,9,10,10,11,11,12,12,13,13,14,14,18,18,19,19,20,20,21,21,23,23,24,24,25,25,26,26,27,27,28,28],"right_children":[2,4,6,8,10,12,14,16,-1,18,20,22,24,26,28,-1,-1,-1,30,32,34,36,-1,38,40,42,44,46,48,-1,-1,-1,-1,-1,-1,-1,-1,-1,-1,-1,-1,-1,-1,-1,-1,-1,-1,-1,-1],"split_conditions":[1.9901041E1,6.973629E-1,3.6769527E-1,1.2093916E1,9.317686E0,5.052145E0,7.368133E1,8.7803227E-1,5.363239E-2,3.9591873E-1,9.988894E-1,7.4635864E1,1.9140454E-1,4.231015E-1,2.5143185E-1,-4.3194383E-2,-1.3775049E-2,-3.922138E-2,7.032158E-1,3.2501456E-1,5.4070807E-1,3.5134986E-1,6.124344E-2,6.9819336E1,4.518171E1,7.824474E-1,6.530922E1,7.8637767E0,8.747418E-1,1.8525597E-2,5.399018E-2,-3.0163478E-2,5.4503717E-2,-4.375258E-2,-3.7146762E-3,5.591035E-4,-4.376174E-2,3.946399E-2,-4.0878545E-2,1.7601917E-2,5.3484406E-2,3.717929E-3,4.875785E-2,5.079618E-2,3.2483865E-2,4.0943176E-2,-4.1722786E-2,5.3152107E-2,2.6027914E-2],"split_indices":[5,0,0,13,5,13,5,2,0,1,23,7,6,0,6,0,0,0,0,1,8,6,0,5,5,1,5,13,0,0,0,0,0,0,0,0,0,0,0,0,0,0,0,0,0,0,0,0,0],"split_type":[0,0,0,0,0,0,0,0,0,0,0,0,0,0,0,0,0,0,0,0,0,0,0,0,0,0,0,0,0,0,0,0,0,0,0,0,0,0,0,0,0,0,0,0,0,0,0,0,0],"sum_hessian":[9.135907E3,2.0443809E3,7.091526E3,1.5462075E3,4.9817343E2,3.17585E3,3.915676E3,1.4752053E3,7.100218E1,3.0541498E2,1.9275845E2,1.0762689E3,2.099581E3,3.2631992E3,6.5247687E2,1.4728987E3,2.3066657E0,2.9755216E0,3.0243945E2,1.15393776E2,7.736468E1,9.999444E2,7.6324585E1,6.935295E2,1.4060516E3,4.8024597E2,2.7829531E3,3.2370953E2,3.2876733E2,4.4832344E0,2.979562E2,1.4849156E0,1.1390886E2,7.5940636E1,1.4240435E0,2.1348048E2,7.864639E2,3.4812848E2,3.4540103E2,4.365481E2,9.695036E2,2.2745293E2,2.5279303E2,2.4457976E3,3.3715567E2,4.455508E0,3.1925403E2,3.1388083E2,1.4886491E1],"tree_param":{"num_deleted":"0","num_feature":"24","num_nodes":"49","size_leaf_vector":"1"}},{"base_weights":[-3.823817E-1,-5.8955204E-1,3.9240763E-1,-6.045264E-1,-3.6021596E-1,1.1449382E0,-5.9147394E-1,-3.647124E-2,-5.71656E-1,1.5479769E-1,-5.953734E-1,-2.309946E-1,1.1770649E0,-6.0965407E-1,-1.8675789E-1,-5.98425E-1,-2.919026E-1,-4.9799478E-1,9.577252E-1,-3.6990322E-2,-2.8619158E-1,-3.7884947E-2,6.6070236E-2,8.228069E-1,1.2125467E0,1.6570158E-3,-3.6678065E-2,-5.076102E-1,7.8585744E-1,-1.2853367E-2,-3.603294E-2,-3.4823623E-2,5.349087E-2,-3.775743E-2,3.430638E-2,3.1028412E-2,7.680707E-2,-3.067205E-2,3.9098583E-2,7.278298E-2,-1.1247769E-2,7.290245E-2,3.1685274E-2,3.163846E-2,-3.5819605E-2,7.746677E-2,-2.4438629E-2],"categories":[],"categories_nodes":[],"categories_segments":[],"categories_sizes":[],"default_left":[0,0,0,0,0,0,0,0,0,0,0,0,0,0,0,0,0,0,0,0,0,0,0,0,0,0,0,0,0,0,0,0,0,0,0,0,0,0,0,0,0,0,0,0,0,0,0],"id":17,"left_children":[1,3,5,7,9,11,13,-1,15,17,19,21,23,25,27,29,31,33,35,-1,37,-1,-1,39,41,-1,-1,43,45,-1,-1,-1,-1,-1,-1,-1,-1,-1,-1,-1,-1,-1,-1,-1,-1,-1,-1],"loss_changes":[1.0488262E3,1.7440918E1,1.02176434E3,1.1193848E-1,3.87342E1,3.4881958E1,4.266205E0,0E0,3.2711945E0,5.3470787E1,1.220398E0,1.0883715E1,8.4071045E0,6.2075806E-1,9.0463E0,1.9087219E-1,1.527917E1,8.36128E0,5.692318E0,0E0,3.831507E0,0E0,0E0,2.9169796E1,4.1131592E-1,0E0,0E0,2.3548827E0,5.020552E0,0E0,0E0,0E0,0E0,0E0,0E0,0E0,0E0,0E0,0E0,0E0,0E0,0E0,0E0,0E0,0E0,0E0,0E0],"parents":[2147483647,0,0,1,1,2,2,3,3,4,4,5,5,6,6,8,8,9,9,10,10,11,11,12,12,13,13,14,14,15,15,16,16,17,17,18,18,20,20,23,23,24,24,27,27,28,28],"right_children":[2,4,6,8,10,12,14,-1,16,18,20,22,24,26,28,30,32,34,36,-1,38,-1,-1,40,42,-1,-1,44,46,-1,-1,-1,-1,-1,-1,-1,-1,-1,-1,-1,-1,-1,-1,-1,-1,-1,-1],"split_conditions":[7.0198616E1,6.530922E1,2.5692907E-1,7.858318E-1,2.6796743E-1,7.6758866E0,8.1498146E-1,-3.647124E-2,2.1467464E-1,5.1225656E-1,7.858318E-1,6.1500305E-1,1.6457832E1,6.6243126E1,1.8102282E-1,-4.0321283E-2,1.7574772E1,6.9819336E1,6.341214E-1,-3.6990322E-2,1.9795197E-1,-3.7884947E-2,6.6070236E-2,1.1999893E-1,2.5143185E-1,1.6570158E-3,-3.6678065E-2,2.9275498E-1,-1.5199576E-1,-1.2853367E-2,-3.603294E-2,-3.4823623E-2,5.349087E-2,-3.775743E-2,3.430638E-2,3.1028412E-2,7.680707E-2,-3.067205E-2,3.9098583E-2,7.278298E-2,-1.1247769E-2,7.290245E-2,3.1685274E-2,3.163846E-2,-3.5819605E-2,7.746677E-2,-2.4438629E-2],"split_indices":[5,5,6,0,6,13,0,0,3,0,0,0,13,7,3,16,13,5,0,0,3,0,0,6,6,0,0,6,14,0,0,0,0,0,0,0,0,0,0,0,0,0,0,0,0,0,0],"split_type":[0,0,0,0,0,0,0,0,0,0,0,0,0,0,0,0,0,0,0,0,0,0,0,0,0,0,0,0,0,0,0,0,0,0,0,0,0,0,0,0,0,0,0,0,0,0,0],"sum_hessian":[6.5312686E3,5.153551E3,1.3777174E3,4.835836E3,3.1771527E2,7.805275E2,5.971899E2,4.372228E3,4.6360773E2,9.972331E1,2.1799196E2,1.7639233E1,7.628883E2,5.7093536E2,2.625449E1,4.2187268E2,4.1735046E1,5.525548E1,4.4467827E1,2.0292934E2,1.5062624E1,1.404794E1,3.5912914E0,7.2095825E1,6.907925E2,1.422945E0,5.6951245E2,2.0173311E1,6.081178E0,2.9915242E0,4.1888113E2,3.4046688E1,7.688361E0,4.965525E1,5.600233E0,2.0110071E1,2.4357756E1,1.2588285E1,2.4743385E0,5.183309E1,2.0262733E1,6.8735754E2,3.4349291E0,1.1363922E0,1.9036919E1,4.202917E0,1.8782609E0],"tree_param":{"num_deleted":"0","num_feature":"24","num_nodes":"47","size_leaf_vector":"1"}},{"base_weights":[2.3931433E-2,7.019028E-1,-2.2856688E-1,9.2700285E-1,-2.7838162E-1,4.732639E-2,-5.8680445E-1,9.40236E-1,1.5789573E-1,-6.108382E-1,1.2434844E-1,4.9686873E-1,-3.920305E-1,-2.5603E-1,-6.192966E-1,9.7474533E-1,7.920347E-1,8.7795734E-1,-5.6251764E-1,6.210523E-2,-6.3230693E-1,1.1193894E0,-6.418669E-1,9.4308835E-1,5.0206777E-2,7.243273E-1,-5.976081E-1,1.3764775E-1,-5.8474135E-1,-4.317053E-1,-6.334533E-1,5.9288222E-2,5.427471E-2,-1.169575E-2,5.243223E-2,1.1555966E-2,5.5930585E-2,4.340826E-4,-3.65559E-2,3.902635E-3,-3.8682066E-2,-3.2055248E-3,6.845084E-2,1.5560503E-2,-4.1226134E-2,6.1566923E-2,2.8123178E-2,-4.04107E-2,1.5528232E-2,4.8659198E-2,-3.703783E-2,-1.9609936E-2,-3.7937533E-2,4.166095E-2,-2.5015727E-2,6.677112E-3,-3.6860928E-2,1.734033E-2,-4.0948894E-2,-1.5346655E-4,-3.8033605E-2],"categories":[],"categories_nodes":[],"categories_segments":[],"categories_sizes":[],"default_left":[0,0,0,0,0,0,0,0,0,0,0,0,0,0,0,0,0,0,0,0,0,0,0,0,0,0,0,0,0,0,0,0,0,0,0,0,0,0,0,0,0,0,0,0,0,0,0,0,0,0,0,0,0,0,0,0,0,0,0,0,0],"id":18,"left_children":[1,3,5,7,9,11,13,15,17,19,21,23,25,27,29,31,33,35,37,-1,39,41,43,45,47,49,51,53,55,57,59,-1,-1,-1,-1,-1,-1,-1,-1,-1,-1,-1,-1,-1,-1,-1,-1,-1,-1,-1,-1,-1,-1,-1,-1,-1,-1,-1,-1,-1,-1],"loss_changes":[1.3754764E3,4.8144275E2,5.7867676E2,1.787207E1,5.4732277E1,6.537026E2,2.7186707E1,7.9891357E0,1.6902222E1,8.692146E0,1.4232422E2,3.2598242E2,3.8467587E2,2.9845203E1,5.8293457E0,2.512207E-1,2.7315308E1,3.8626957E-1,4.433689E-1,0E0,1.9658356E0,2.115532E0,4.5182877E0,3.165033E1,1.2381753E2,3.0928818E1,1.3034027E1,3.2942524E1,2.6684647E0,3.0322908E1,5.9606934E-1,0E0,0E0,0E0,0E0,0E0,0E0,0E0,0E0,0E0,0E0,0E0,0E0,0E0,0E0,0E0,0E0,0E0,0E0,0E0,0E0,0E0,0E0,0E0,0E0,0E0,0E0,0E0,0E0,0E0,0E0],"parents":[2147483647,0,0,1,1,2,2,3,3,4,4,5,5,6,6,7,7,8,8,9,9,10,10,11,11,12,12,13,13,14,14,15,15,16,16,17,17,18,18,20,20,21,21,22,22,23,23,24,24,25,25,26,26,27,27,28,28,29,29,30,30],"right_children":[2,4,6,8,10,12,14,16,18,20,22,24,26,28,30,32,34,36,38,-1,40,42,44,46,48,50,52,54,56,58,60,-1,-1,-1,-1,-1,-1,-1,-1,-1,-1,-1,-1,-1,-1,-1,-1,-1,-1,-1,-1,-1,-1,-1,-1,-1,-1,-1,-1,-1,-1],"split_conditions":[2.0268381E1,6.973629E-1,4.231015E-1,4.3818154E0,9.317686E0,3.7100186E0,5.398506E-1,1.5774448E1,3.5323439E0,3.9591873E-1,1.3275908E-1,4.518171E1,-3.5893512E-1,5.7208365E-1,4.4828057E-1,1.25496E1,1.0859902E1,1.0007595E0,4.7715196E-1,6.210523E-2,7.032158E-1,-4.441655E-2,7.032158E-1,3.701295E-1,3.5134986E-1,5.6877895E1,4.285597E0,1.5619618E0,2.7505118E-1,7.111995E-1,2.2025558E-1,5.9288222E-2,5.427471E-2,-1.169575E-2,5.243223E-2,1.1555966E-2,5.5930585E-2,4.340826E-4,-3.65559E-2,3.902635E-3,-3.8682066E-2,-3.2055248E-3,6.845084E-2,1.5560503E-2,-4.1226134E-2,6.1566923E-2,2.8123178E-2,-4.04107E-2,1.5528232E-2,4.8659198E-2,-3.703783E-2,-1.9609936E-2,-3.7937533E-2,4.166095E-2,-2.5015727E-2,6.677112E-3,-3.6860928E-2,1.734033E-2,-4.0948894E-2,-1.5346655E-4,-3.8033605E-2],"split_indices":[5,0,0,9,5,19,1,5,19,1,19,5,9,0,0,5,11,19,1,0,0,14,0,0,6,5,19,9,1,1,2,0,0,0,0,0,0,0,0,0,0,0,0,0,0,0,0,0,0,0,0,0,0,0,0,0,0,0,0,0,0],"split_type":[0,0,0,0,0,0,0,0,0,0,0,0,0,0,0,0,0,0,0,0,0,0,0,0,0,0,0,0,0,0,0,0,0,0,0,0,0,0,0,0,0,0,0,0,0,0,0,0,0,0,0,0,0,0,0,0,0,0,0,0,0],"sum_hessian":[8.032628E3,2.1792065E3,5.8534214E3,1.7723027E3,4.0690384E2,3.3073435E3,2.5460776E3,1.7420621E3,3.0240637E1,2.2255937E2,1.8434447E2,1.6346455E3,1.672698E3,2.2868532E2,2.3173923E3,1.4076029E3,3.3445926E2,1.4992767E1,1.52478695E1,2.1361053E0,2.2042328E2,7.995642E1,1.0438805E2,8.170605E2,8.17585E2,2.5965463E2,1.4130433E3,1.043769E2,1.2430842E2,1.6526392E2,2.1521284E3,1.1688264E3,2.3877647E2,2.5481918E1,3.0897736E2,1.4996083E0,1.3493158E1,1.233112E0,1.4014757E1,3.760208E0,2.1666307E2,1.4044852E0,7.855193E1,4.7177653E0,9.967029E1,6.941672E2,1.2289336E2,1.8232878E2,6.352562E2,2.4434625E2,1.5308383E1,1.6186751E2,1.2511758E3,5.193773E1,5.243917E1,4.9369836E0,1.1937144E2,4.261343E1,1.2265049E2,1.5061551E0,2.1506223E3],"tree_param":{"num_deleted":"0","num_feature":"24","num_nodes":"61","size_leaf_vector":"1"}},{"base_weights":[2.4191567E-1,-3.2562748E-1,4.056448E-1,-6.300899E-1,6.1083364E-1,1.626603E-1,6.372944E-1,-4.2235747E-2,5.1449895E-2,8.3666474E-1,2.556951E-1,-3.8576552E-1,4.4793415E-1,7.5087696E-1,6.677508E-2,-3.917414E-2,8.5409594E-1,8.5839623E-1,-7.162931E-1,-4.9071372E-1,5.9956778E-2,-1.5712613E-2,6.717093E-1,4.9308097E-1,7.8942347E-1,-6.532794E-1,8.229118E-1,1.1592592E-2,5.1596567E-2,7.239815E-3,5.3142082E-2,-4.3676376E-2,-3.744953E-3,5.2054278E-3,-3.8774125E-2,3.7583012E-2,-3.9111663E-2,1.6894374E-2,5.1248204E-2,-1.4750547E-3,4.2819776E-2,4.946692E-2,3.320253E-2,-3.0078513E-3,-4.1807074E-2,-3.9361897E-3,5.003194E-2],"categories":[],"categories_nodes":[],"categories_segments":[],"categories_sizes":[],"default_left":[0,0,0,0,0,0,0,0,0,0,0,0,0,0,0,0,0,0,0,0,0,0,0,0,0,0,0,0,0,0,0,0,0,0,0,0,0,0,0,0,0,0,0,0,0,0,0],"id":19,"left_children":[1,3,5,7,9,11,13,-1,-1,15,17,19,21,23,25,-1,27,29,31,33,-1,35,37,39,41,43,45,-1,-1,-1,-1,-1,-1,-1,-1,-1,-1,-1,-1,-1,-1,-1,-1,-1,-1,-1,-1],"loss_changes":[8.363884E2,5.7512665E2,3.9303076E2,1.67862E2,3.945294E1,5.338022E2,2.316289E2,0E0,0E0,8.514084E0,1.1449796E2,1.7032005E2,2.3284671E2,2.9161987E1,3.2456873E2,0E0,9.56604E-1,2.2972946E0,5.1646805E-1,9.762158E1,0E0,2.9936594E2,1.0743872E2,4.467202E1,2.0880493E1,7.972107E0,2.895279E0,0E0,0E0,0E0,0E0,0E0,0E0,0E0,0E0,0E0,0E0,0E0,0E0,0E0,0E0,0E0,0E0,0E0,0E0,0E0,0E0],"parents":[2147483647,0,0,1,1,2,2,3,3,4,4,5,5,6,6,9,9,10,10,11,11,12,12,13,13,14,14,16,16,17,17,18,18,19,19,21,21,22,22,23,23,24,24,25,25,26,26],"right_children":[2,4,6,8,10,12,14,-1,-1,16,18,20,22,24,26,-1,28,30,32,34,-1,36,38,40,42,44,46,-1,-1,-1,-1,-1,-1,-1,-1,-1,-1,-1,-1,-1,-1,-1,-1,-1,-1,-1,-1],"split_conditions":[1.9901041E1,6.973629E-1,3.9489552E-1,1.2093916E1,9.317686E0,5.052145E0,7.368133E1,-4.2235747E-2,5.1449895E-2,3.9591873E-1,9.988894E-1,7.4635864E1,1.9140454E-1,5.894397E-1,2.5692907E-1,-3.917414E-2,4.7715196E-1,7.032158E-1,5.4070807E-1,3.314231E-1,5.9956778E-2,6.9819336E1,4.518171E1,5.030867E-1,6.483232E1,1.352117E1,2.7811092E-1,1.1592592E-2,5.1596567E-2,7.239815E-3,5.3142082E-2,-4.3676376E-2,-3.744953E-3,5.2054278E-3,-3.8774125E-2,3.7583012E-2,-3.9111663E-2,1.6894374E-2,5.1248204E-2,-1.4750547E-3,4.2819776E-2,4.946692E-2,3.320253E-2,-3.0078513E-3,-4.1807074E-2,-3.9361897E-3,5.003194E-2],"split_indices":[5,0,0,13,5,13,5,0,0,1,23,7,6,1,6,0,1,0,8,6,0,5,5,0,5,13,8,0,0,0,0,0,0,0,0,0,0,0,0,0,0,0,0,0,0,0,0],"split_type":[0,0,0,0,0,0,0,0,0,0,0,0,0,0,0,0,0,0,0,0,0,0,0,0,0,0,0,0,0,0,0,0,0,0,0,0,0,0,0,0,0,0,0,0,0,0,0],"sum_hessian":[8.997937E3,2.0143387E3,6.983598E3,1.5204141E3,4.9392465E2,3.4094072E3,3.5741907E3,1.4491166E3,7.1297485E1,3.0093457E2,1.9299008E2,1.1664802E3,2.242927E3,2.9804456E3,5.937451E2,2.9748454E0,2.9795972E2,1.1921107E2,7.3779015E1,1.0850391E3,8.144115E1,7.304989E2,1.5124281E3,3.898315E2,2.5906143E3,3.0421255E2,2.8953256E2,2.9711933E0,2.9498853E2,4.4868836E0,1.1472418E2,7.235436E1,1.4246554E0,2.3032928E2,8.547098E2,3.635591E2,3.669398E2,4.828549E2,1.0295732E3,1.1679692E2,2.730346E2,2.2532778E3,3.373362E2,2.0640352E1,2.835722E2,3.4530847E0,2.8607947E2],"tree_param":{"num_deleted":"0","num_feature":"24","num_nodes":"47","size_leaf_vector":"1"}},{"base_weights":[-3.7516284E-1,-5.814897E-1,3.8703752E-1,-5.923324E-1,-3.3283308E-1,1.0741411E0,-5.766447E-1,-5.975696E-1,-5.0037277E-1,2.859786E-1,-5.7995933E-1,3.071766E-2,1.1053818E0,-5.989513E-1,-1.0813025E-1,-3.6080427E-2,-5.6363004E-1,-1.9800295E-1,-5.9787077E-1,-2.5881824E-1,9.9161464E-1,-2.9271277E-2,-5.969198E-1,-4.1253126E-1,6.472277E-2,8.484853E-1,1.1344639E0,-1.5374759E-3,-3.6041364E-2,-4.9688724E-1,9.284849E-1,-3.550902E-2,-1.6492726E-2,-3.557756E-2,2.3589661E-2,-3.6720093E-2,-1.8228933E-2,-2.9497186E-2,3.284176E-2,2.8875431E-2,7.620986E-2,-2.8972019E-2,4.663961E-2,2.253856E-3,-3.6198433E-2,-3.635931E-2,7.623465E-3,6.541757E-2,-1.8071232E-4,1.7134417E-2,6.8145774E-2,3.1271014E-2,-3.5360422E-2,7.7205926E-2,-6.14072E-3],"categories":[],"categories_nodes":[],"categories_segments":[],"categories_sizes":[],"default_left":[0,0,0,0,0,0,0,0,0,0,0,0,0,0,0,0,0,0,0,0,0,0,0,0,0,0,0,0,0,0,0,0,0,0,0,0,0,0,0,0,0,0,0,0,0,0,0,0,0,0,0,0,0,0,0],"id":20,"left_children":[1,3,5,7,9,11,13,15,17,19,21,23,25,27,29,-1,31,33,35,37,39,41,43,45,-1,47,49,-1,-1,51,53,-1,-1,-1,-1,-1,-1,-1,-1,-1,-1,-1,-1,-1,-1,-1,-1,-1,-1,-1,-1,-1,-1,-1,-1],"loss_changes":[1.0001901E3,1.3255371E1,8.981129E2,1.949707E0,3.259353E1,2.5762207E1,5.825699E0,1.7297363E-1,7.6899796E0,2.3857224E1,1.3965988E0,1.1796512E1,4.586548E0,5.185852E-1,1.1489272E1,0E0,3.6466675E0,1.582303E1,6.091614E-1,6.989358E0,3.0959167E0,2.571245E0,6.236801E-1,1.9616418E0,0E0,1.707581E1,3.6810303E-1,0E0,0E0,2.2996984E0,3.045968E0,0E0,0E0,0E0,0E0,0E0,0E0,0E0,0E0,0E0,0E0,0E0,0E0,0E0,0E0,0E0,0E0,0E0,0E0,0E0,0E0,0E0,0E0,0E0,0E0],"parents":[2147483647,0,0,1,1,2,2,3,3,4,4,5,5,6,6,7,7,8,8,9,9,10,10,11,11,12,12,13,13,14,14,16,16,17,17,18,18,19,19,20,20,21,21,22,22,23,23,25,25,26,26,29,29,30,30],"right_children":[2,4,6,8,10,12,14,16,18,20,22,24,26,28,30,-1,32,34,36,38,40,42,44,46,-1,48,50,-1,-1,52,54,-1,-1,-1,-1,-1,-1,-1,-1,-1,-1,-1,-1,-1,-1,-1,-1,-1,-1,-1,-1,-1,-1,-1,-1],"split_conditions":[7.143502E1,6.582443E1,2.5692907E-1,6.565996E1,2.5708136E-1,9.556205E0,8.1498146E-1,7.723508E-1,2.7943793E-1,5.1225656E-1,2.6796743E-1,6.1500305E-1,1.8039936E1,5.020674E1,1.8102282E-1,-3.6080427E-2,2.1467464E-1,5.3752744E-1,7.9242665E-1,1.9906965E1,8.102946E-1,2E0,1.6394358E0,7.8637767E0,6.472277E-2,1.3985328E-1,-4.528522E-1,-1.5374759E-3,-3.6041364E-2,2.727377E-1,-1.5199576E-1,-3.550902E-2,-1.6492726E-2,-3.557756E-2,2.3589661E-2,-3.6720093E-2,-1.8228933E-2,-2.9497186E-2,3.284176E-2,2.8875431E-2,7.620986E-2,-2.8972019E-2,4.663961E-2,2.253856E-3,-3.6198433E-2,-3.635931E-2,7.623465E-3,6.541757E-2,-1.8071232E-4,1.7134417E-2,6.8145774E-2,3.1271014E-2,-3.5360422E-2,7.7205926E-2,-6.14072E-3],"split_indices":[17,7,6,17,8,13,0,0,6,0,6,0,13,11,3,0,3,0,0,13,1,4,21,13,0,6,3,0,0,8,14,0,0,0,0,0,0,0,0,0,0,0,0,0,0,0,0,0,0,0,0,0,0,0,0],"split_type":[0,0,0,0,0,0,0,0,0,0,0,0,0,0,0,0,0,0,0,0,0,0,0,0,0,0,0,0,0,0,0,0,0,0,0,0,0,0,0,0,0,0,0,0,0,0,0,0,0,0,0,0,0,0,0],"sum_hessian":[6.357092E3,5.0030547E3,1.354037E3,4.7924214E3,2.1063316E2,7.9036835E2,5.636687E2,4.5279526E3,2.644688E2,6.0057842E1,1.5057533E2,2.3045336E1,7.67323E2,5.3773254E2,2.5936186E1,4.0571204E3,4.7083215E2,6.537103E1,1.9909778E2,3.4320244E1,2.5737598E1,4.596686E0,1.4597864E2,1.6706827E1,6.338509E0,8.171399E1,6.85609E2,1.6823869E0,5.360501E2,1.9316721E1,6.6194644E0,4.2781113E2,4.302103E1,3.918674E1,2.6184294E1,1.8873082E2,1.0366971E1,2.6993525E1,7.3267183E0,1.0243243E1,1.5494355E1,3.2504172E0,1.3462688E0,1.3965771E0,1.4458206E2,1.21890545E1,4.5177727E0,6.3379105E1,1.8334887E1,1.4524598E0,6.8415656E2,1.1448785E0,1.8171843E1,4.6910744E0,1.9283901E0],"tree_param":{"num_deleted":"0","num_feature":"24","num_nodes":"55","size_leaf_vector":"1"}},{"base_weights":[1.8471409E-2,3.4628743E-1,-6.3460964E-1,6.6360897E-1,-1.2146997E-1,-2.6861042E-1,-6.349274E-1,9.0645427E-1,6.2161185E-2,4.3029165E-1,-5.45406E-1,-2.5738588E-2,4.903477E-3,-4.066487E-1,-3.8136095E-2,9.602387E-1,6.5463555E-1,4.1911185E-1,-6.6208386E-1,5.587682E-2,-2.6524797E-1,-1.4657112E-2,-6.1229926E-1,-3.4238398E-2,1.4322818E-2,5.6560017E-2,6.2206127E-2,5.799594E-2,1.9618923E-2,-4.0548254E-2,3.9173342E-2,-3.9917316E-2,-2.5724215E-3,-3.6177333E-2,9.683473E-3,3.7249196E-2,-3.0754937E-2,-2.169372E-2,-3.7379995E-2],"categories":[],"categories_nodes":[],"categories_segments":[],"categories_sizes":[],"default_left":[0,0,0,0,0,0,0,0,0,0,0,0,0,0,0,0,0,0,0,0,0,0,0,0,0,0,0,0,0,0,0,0,0,0,0,0,0,0,0],"id":21,"left_children":[1,3,5,7,9,11,13,15,17,19,21,-1,-1,23,-1,25,27,29,31,-1,33,35,37,-1,-1,-1,-1,-1,-1,-1,-1,-1,-1,-1,-1,-1,-1,-1,-1],"loss_changes":[1.6838829E3,7.773721E2,1.0095215E-1,4.5567053E2,4.9561868E2,2.8702307E-1,9.399414E-2,2.9349487E1,2.3268205E2,3.2114514E2,4.2524475E1,0E0,0E0,1.3342481E0,0E0,1.2866211E0,3.9990753E1,1.5482071E2,5.555115E-1,0E0,5.5797897E1,4.320181E1,2.584259E0,0E0,0E0,0E0,0E0,0E0,0E0,0E0,0E0,0E0,0E0,0E0,0E0,0E0,0E0,0E0,0E0],"parents":[2147483647,0,0,1,1,2,2,3,3,4,4,5,5,6,6,7,7,8,8,9,9,10,10,13,13,15,15,16,16,17,17,18,18,20,20,21,21,22,22],"right_children":[2,4,6,8,10,12,14,16,18,20,22,-1,-1,24,-1,26,28,30,32,-1,34,36,38,-1,-1,-1,-1,-1,-1,-1,-1,-1,-1,-1,-1,-1,-1,-1,-1],"split_conditions":[1.2093916E1,4.4537112E-1,3.2652261E0,4.518171E1,1.9901041E1,-6.7486255E-3,-4.528522E-1,3.7573737E-1,5.052145E0,6.973629E-1,5.4514885E-1,-2.5738588E-2,4.903477E-3,6.2997425E-1,-3.8136095E-2,5.052145E0,7.962407E-1,3.5134986E-1,9.947593E-1,5.587682E-2,9.317686E0,5.7208365E-1,5.894397E-1,-3.4238398E-2,1.4322818E-2,5.6560017E-2,6.2206127E-2,5.799594E-2,1.9618923E-2,-4.0548254E-2,3.9173342E-2,-3.9917316E-2,-2.5724215E-3,-3.6177333E-2,9.683473E-3,3.7249196E-2,-3.0754937E-2,-2.169372E-2,-3.7379995E-2],"split_indices":[13,0,19,5,5,10,3,0,13,0,1,0,0,0,0,13,1,6,1,0,5,0,1,0,0,0,0,0,0,0,0,0,0,0,0,0,0,0,0],"split_type":[0,0,0,0,0,0,0,0,0,0,0,0,0,0,0,0,0,0,0,0,0,0,0,0,0,0,0,0,0,0,0,0,0,0,0,0,0,0,0],"sum_hessian":[7.8628564E3,5.2354634E3,2.627393E3,3.1190388E3,2.1164246E3,3.1600113E0,2.624233E3,2.2214714E3,8.975672E2,9.1956866E2,1.196856E3,1.9829465E0,1.1770649E0,9.862486E0,2.6143706E3,1.827723E3,3.9374844E2,6.015791E2,2.9598807E2,5.3430707E2,3.852616E2,1.3412627E2,1.0627297E3,7.9749365E0,1.8875492E0,1.4994266E3,3.2829648E2,2.0050488E2,1.9324358E2,1.0544575E2,4.9613336E2,2.943752E2,1.6128545E0,2.1476653E2,1.7049507E2,5.8794113E1,7.533216E1,4.5206085E1,1.0175236E3],"tree_param":{"num_deleted":"0","num_feature":"24","num_nodes":"39","size_leaf_vector":"1"}},{"base_weights":[2.347138E-1,-3.1921718E-1,3.9091825E-1,-6.1457294E-1,5.7925546E-1,1.6645107E-1,6.1896425E-1,-6.8719286E-1,5.0044928E-2,8.060312E-1,2.2486661E-1,-3.679881E-1,4.4057748E-1,7.341021E-1,7.6102E-2,-4.1267578E-2,-1.2220459E-2,-4.852831E-1,8.233236E-1,8.083394E-1,-6.8451715E-1,-4.610147E-1,5.8022328E-2,-2.7721733E-2,6.370945E-1,4.389435E-1,7.6399404E-1,-6.4526325E-1,8.005207E-1,-8.232737E-3,-3.578233E-2,1.1501705E-2,4.987794E-2,-3.1200757E-2,4.9857277E-2,-4.240548E-2,-1.1600157E-2,5.357114E-3,-3.728951E-2,3.538267E-2,-3.89114E-2,1.5066781E-2,4.7971506E-2,5.5968696E-3,4.4599917E-2,4.7630712E-2,3.2822534E-2,1.2248473E-2,-3.9945766E-2,4.952284E-2,2.569082E-2],"categories":[],"categories_nodes":[],"categories_segments":[],"categories_sizes":[],"default_left":[0,0,0,0,0,0,0,0,0,0,0,0,0,0,0,0,0,0,0,0,0,0,0,0,0,0,0,0,0,0,0,0,0,0,0,0,0,0,0,0,0,0,0,0,0,0,0,0,0,0,0],"id":22,"left_children":[1,3,5,7,9,11,13,15,-1,17,19,21,23,25,27,-1,-1,29,31,33,35,37,-1,39,41,43,45,47,49,-1,-1,-1,-1,-1,-1,-1,-1,-1,-1,-1,-1,-1,-1,-1,-1,-1,-1,-1,-1,-1,-1],"loss_changes":[7.6974896E2,5.197827E2,3.550487E2,1.5570154E2,3.8745148E1,5.127112E2,2.1503137E2,2.3913574E-1,0E0,7.0705566E0,1.0192473E2,1.4791237E2,2.1286844E2,2.4646118E1,3.1599765E2,0E0,0E0,8.1816554E-2,1.2782745E0,4.0273743E0,6.579628E-1,9.810809E1,0E0,2.629506E2,1.0190326E2,2.7683418E1,1.616394E1,5.440071E0,2.3681335E0,0E0,0E0,0E0,0E0,0E0,0E0,0E0,0E0,0E0,0E0,0E0,0E0,0E0,0E0,0E0,0E0,0E0,0E0,0E0,0E0,0E0,0E0],"parents":[2147483647,0,0,1,1,2,2,3,3,4,4,5,5,6,6,7,7,9,9,10,10,11,11,12,12,13,13,14,14,17,17,18,18,19,19,20,20,21,21,23,23,24,24,25,25,26,26,27,27,28,28],"right_children":[2,4,6,8,10,12,14,16,-1,18,20,22,24,26,28,-1,-1,30,32,34,36,38,-1,40,42,44,46,48,50,-1,-1,-1,-1,-1,-1,-1,-1,-1,-1,-1,-1,-1,-1,-1,-1,-1,-1,-1,-1,-1,-1],"split_conditions":[1.9901041E1,6.973629E-1,4.0652937E-1,1.2093916E1,9.317686E0,5.052145E0,7.279562E1,8.7803227E-1,5.0044928E-2,4.4627264E-1,9.988894E-1,7.4635864E1,1.7683356E-1,5.398506E-1,2.5692907E-1,-4.1267578E-2,-1.2220459E-2,7.3859507E-1,7.032158E-1,3.2501456E-1,2.8589064E-2,3.4453416E-1,5.8022328E-2,6.9819336E1,1.2093916E1,5.7208365E-1,6.483232E1,9.198795E0,8.557207E-1,-8.232737E-3,-3.578233E-2,1.1501705E-2,4.987794E-2,-3.1200757E-2,4.9857277E-2,-4.240548E-2,-1.1600157E-2,5.357114E-3,-3.728951E-2,3.538267E-2,-3.89114E-2,1.5066781E-2,4.7971506E-2,5.5968696E-3,4.4599917E-2,4.7630712E-2,3.2822534E-2,1.2248473E-2,-3.9945766E-2,4.952284E-2,2.569082E-2],"split_indices":[5,0,0,13,5,13,5,2,0,1,23,7,8,1,6,0,0,0,0,1,20,6,0,5,13,0,5,13,0,0,0,0,0,0,0,0,0,0,0,0,0,0,0,0,0,0,0,0,0,0,0],"split_type":[0,0,0,0,0,0,0,0,0,0,0,0,0,0,0,0,0,0,0,0,0,0,0,0,0,0,0,0,0,0,0,0,0,0,0,0,0,0,0,0,0,0,0,0,0,0,0,0,0,0,0],"sum_hessian":[8.893178E3,1.9559065E3,6.937271E3,1.4722963E3,4.8361017E2,3.497114E3,3.440157E3,1.4026151E3,6.968125E1,2.9396848E2,1.896417E2,1.1854805E3,2.3116335E3,2.8378445E3,6.023124E2,1.4003701E3,2.2448814E0,3.455459E0,2.9051303E2,1.1560275E2,7.403894E1,1.1089901E3,7.649039E1,6.836144E2,1.6280192E3,2.6270203E2,2.5751426E3,3.0185794E2,3.0045444E2,1.4849414E0,1.9705176E0,3.9971063E0,2.8651593E2,1.4933728E0,1.1410938E2,7.0327805E1,3.7111335E0,2.5050468E2,8.5848535E2,3.427672E2,3.4084714E2,4.8309717E2,1.144922E3,1.2374521E2,1.3895682E2,2.2608704E3,3.142723E2,6.860039E0,2.949979E2,2.8028094E2,2.017352E1],"tree_param":{"num_deleted":"0","num_feature":"24","num_nodes":"51","size_leaf_vector":"1"}},{"base_weights":[-3.6800063E-1,-5.747564E-1,3.622766E-1,-5.8993745E-1,-3.4840804E-1,1.015268E0,-5.701436E-1,-5.952418E-1,-5.608613E-1,1.2799008E-1,-5.8439744E-1,-1.4022392E-1,1.039365E0,-5.9390473E-1,-1.0912764E-1,-3.5754494E-2,-4.6304336E-1,-5.7915443E-1,-3.853271E-1,-4.0693992E-1,1.0345718E0,3.1880673E-3,-5.889521E-1,-3.6922332E-2,5.838062E-2,7.1774876E-1,1.0689865E0,-1.2395351E-1,-5.9562755E-1,-4.9791738E-1,8.6795455E-1,1.2447935E-2,-3.229219E-2,-4.7200215E-3,-3.4836456E-2,-3.2117512E-2,1.7679552E-2,-3.021032E-2,2.028807E-2,-2.5591498E-2,6.6999644E-2,-1.7767873E-2,-3.6166422E-2,6.454725E-2,-1.1038389E-2,6.426659E-2,2.8730137E-2,9.678363E-3,-1.9150019E-2,-3.5841294E-2,-1.877373E-2,3.0232497E-2,-3.5107397E-2,7.53522E-2,-9.24904E-3],"categories":[],"categories_nodes":[],"categories_segments":[],"categories_sizes":[],"default_left":[0,0,0,0,0,0,0,0,0,0,0,0,0,0,0,0,0,0,0,0,0,0,0,0,0,0,0,0,0,0,0,0,0,0,0,0,0,0,0,0,0,0,0,0,0,0,0,0,0,0,0,0,0,0,0],"id":23,"left_children":[1,3,5,7,9,11,13,15,17,19,21,23,25,27,29,-1,31,33,35,37,39,-1,41,-1,-1,43,45,47,49,51,53,-1,-1,-1,-1,-1,-1,-1,-1,-1,-1,-1,-1,-1,-1,-1,-1,-1,-1,-1,-1,-1,-1,-1,-1],"loss_changes":[9.336773E2,1.6310547E1,8.31676E2,2.956543E-1,3.4468346E1,2.2536682E1,6.0883484E0,3.540039E-3,2.0351715E0,5.0107952E1,6.319809E-1,9.955895E0,6.5753784E0,3.446045E-1,1.1558045E1,0E0,1.3652611E0,4.1583252E-1,7.457306E0,4.8944645E0,5.164612E0,0E0,6.088333E-1,0E0,0E0,2.28405E1,2.8424072E-1,2.5499323E-1,3.590393E-2,2.236539E0,3.685492E0,0E0,0E0,0E0,0E0,0E0,0E0,0E0,0E0,0E0,0E0,0E0,0E0,0E0,0E0,0E0,0E0,0E0,0E0,0E0,0E0,0E0,0E0,0E0,0E0],"parents":[2147483647,0,0,1,1,2,2,3,3,4,4,5,5,6,6,7,7,8,8,9,9,10,10,11,11,12,12,13,13,14,14,16,16,17,17,18,18,19,19,20,20,22,22,25,25,26,26,27,27,28,28,29,29,30,30],"right_children":[2,4,6,8,10,12,14,16,18,20,22,24,26,28,30,-1,32,34,36,38,40,-1,42,-1,-1,44,46,48,50,52,54,-1,-1,-1,-1,-1,-1,-1,-1,-1,-1,-1,-1,-1,-1,-1,-1,-1,-1,-1,-1,-1,-1,-1,-1],"split_conditions":[7.0198616E1,6.530922E1,2.5692907E-1,6.973629E-1,2.7943793E-1,7.6758866E0,8.1498146E-1,7.996529E-1,2.3220086E-1,5.6866395E-1,1.6394358E0,5.210552E-1,1.5919201E1,5.020674E1,1.8102282E-1,-3.5754494E-2,-9.809731E-3,-7.862895E0,1.7574772E1,6.9819336E1,-2.7793527E-1,3.1880673E-3,5.0869545E1,-3.6922332E-2,5.838062E-2,1.1999893E-1,2.5143185E-1,-9.532782E-2,1.9592555E-1,3.0410382E-1,-5.0720023E-3,1.2447935E-2,-3.229219E-2,-4.7200215E-3,-3.4836456E-2,-3.2117512E-2,1.7679552E-2,-3.021032E-2,2.028807E-2,-2.5591498E-2,6.6999644E-2,-1.7767873E-2,-3.6166422E-2,6.454725E-2,-1.1038389E-2,6.426659E-2,2.8730137E-2,9.678363E-3,-1.9150019E-2,-3.5841294E-2,-1.877373E-2,3.0232497E-2,-3.5107397E-2,7.53522E-2,-9.24904E-3],"split_indices":[5,5,6,0,6,13,0,2,3,0,21,0,13,11,3,0,16,9,13,5,3,0,11,0,0,6,6,3,20,6,16,0,0,0,0,0,0,0,0,0,0,0,0,0,0,0,0,0,0,0,0,0,0,0,0],"split_type":[0,0,0,0,0,0,0,0,0,0,0,0,0,0,0,0,0,0,0,0,0,0,0,0,0,0,0,0,0,0,0,0,0,0,0,0,0,0,0,0,0,0,0,0,0,0,0,0,0,0,0,0,0,0,0],"sum_hessian":[6.180888E3,4.8172783E3,1.36361E3,4.5126865E3,3.0459158E2,8.019104E2,5.616995E2,3.7966929E3,7.159938E2,1.010826E2,2.0350899E2,1.6263569E1,7.8564685E2,5.338392E2,2.7860374E1,3.7734604E3,2.3232235E1,6.459204E2,7.007335E1,6.3987827E1,3.7094772E1,1.3528069E0,2.0215619E2,1.1774616E1,4.4889517E0,6.881051E1,7.168363E2,2.2696543E0,5.315695E2,2.035101E1,7.5093646E0,2.1287782E0,2.1103456E1,2.0615754E0,6.438589E2,5.7620926E1,1.2452425E1,5.6990623E1,6.9972057E0,1.7053995E0,3.5389374E1,1.0324933E1,1.9183125E2,4.9087948E1,1.9722567E1,7.13292E2,3.5443158E0,1.006833E0,1.2628214E0,5.2701447E2,4.5550537E0,1.1705487E0,1.9180462E1,5.2444925E0,2.264872E0],"tree_param":{"num_deleted":"0","num_feature":"24","num_nodes":"55","size_leaf_vector":"1"}},{"base_weights":[2.1061894E-2,3.3740216E-1,-6.254486E-1,6.381879E-1,-1.022438E-1,-1.6840449E-1,-6.2579006E-1,8.702924E-1,6.348335E-2,4.274622E-1,-5.245989E-1,-2.0428881E-2,5.4763285E-3,-4.098715E-1,-6.2647605E-1,9.173446E-1,6.309884E-1,4.2371476E-1,-3.9477974E-2,5.3428452E-2,-2.5578663E-1,-5.0454866E-2,-6.023983E-1,-3.403201E-2,1.45372795E-2,-4.8313108E-1,-3.764945E-2,5.3919364E-2,5.9930865E-2,5.7645958E-2,1.6252467E-2,-4.0080916E-2,3.851219E-2,-3.4965906E-2,9.347409E-3,4.521491E-2,-2.2307632E-2,-2.5819689E-2,-3.6974277E-2,-3.3977665E-2,3.4819E-2],"categories":[],"categories_nodes":[],"categories_segments":[],"categories_sizes":[],"default_left":[0,0,0,0,0,0,0,0,0,0,0,0,0,0,0,0,0,0,0,0,0,0,0,0,0,0,0,0,0,0,0,0,0,0,0,0,0,0,0,0,0],"id":24,"left_children":[1,3,5,7,9,11,13,15,17,19,21,-1,-1,23,25,27,29,31,-1,-1,33,35,37,-1,-1,39,-1,-1,-1,-1,-1,-1,-1,-1,-1,-1,-1,-1,-1,-1,-1],"loss_changes":[1.5824028E3,6.8708295E2,2.703247E-1,4.1143274E2,4.7265494E2,1.9546525E-1,6.7993164E-2,2.4046875E1,2.3131442E2,2.9680756E2,4.3318665E1,0E0,0E0,1.3462929E0,4.272461E-3,1.7156982E0,4.3021805E1,1.418686E2,0E0,0E0,5.1188896E1,4.347763E1,2.0858765E0,0E0,0E0,2.4281626E0,0E0,0E0,0E0,0E0,0E0,0E0,0E0,0E0,0E0,0E0,0E0,0E0,0E0,0E0,0E0],"parents":[2147483647,0,0,1,1,2,2,3,3,4,4,5,5,6,6,7,7,8,8,9,9,10,10,13,13,14,14,15,15,16,16,17,17,20,20,21,21,22,22,25,25],"right_children":[2,4,6,8,10,12,14,16,18,20,22,-1,-1,24,26,28,30,32,-1,-1,34,36,38,-1,-1,40,-1,-1,-1,-1,-1,-1,-1,-1,-1,-1,-1,-1,-1,-1,-1],"split_conditions":[4.0313053E-1,4.3809828E-1,3.2652261E0,4.518171E1,1.9901041E1,5.096775E-2,-4.528522E-1,3.7573737E-1,1.6840483E-1,6.973629E-1,5.7965463E-1,-2.0428881E-2,5.4763285E-3,6.2997425E-1,-4.0321283E-2,1.6840483E-1,7.962407E-1,3.5134986E-1,-3.9477974E-2,5.3428452E-2,9.317686E0,5.1818645E-1,4.6434087E-1,-3.403201E-2,1.45372795E-2,9.268356E-1,-3.764945E-2,5.3919364E-2,5.9930865E-2,5.7645958E-2,1.6252467E-2,-4.0080916E-2,3.851219E-2,-3.4965906E-2,9.347409E-3,4.521491E-2,-2.2307632E-2,-2.5819689E-2,-3.6974277E-2,-3.3977665E-2,3.4819E-2],"split_indices":[15,0,19,5,5,20,3,0,15,0,1,0,0,0,16,15,1,6,0,0,5,0,0,0,0,1,0,0,0,0,0,0,0,0,0,0,0,0,0,0,0],"split_type":[0,0,0,0,0,0,0,0,0,0,0,0,0,0,0,0,0,0,0,0,0,0,0,0,0,0,0,0,0,0,0,0,0,0,0,0,0,0,0,0,0],"sum_hessian":[7.734819E3,5.193964E3,2.5408547E3,3.0836973E3,2.1102668E3,2.339797E0,2.538515E3,2.196133E3,8.8756415E2,9.3615405E2,1.1741128E3,1.1826769E0,1.1571201E0,1.0314064E1,2.528201E3,1.8324374E3,3.6369565E2,5.9230963E2,2.9525452E2,5.5779407E2,3.7836E2,1.6577638E2,1.0083365E3,8.435411E0,1.8786525E0,2.1796495E1,2.5064043E3,1.5023762E3,3.3006113E2,1.8879941E2,1.7489624E2,9.82342E1,4.9407544E2,2.105716E2,1.6778839E2,4.6874775E1,1.1890161E2,7.7930565E1,9.304059E2,2.0735905E1,1.0605906E0],"tree_param":{"num_deleted":"0","num_feature":"24","num_nodes":"41","size_leaf_vector":"1"}},{"base_weights":[2.2976194E-1,-3.0646336E-1,3.7776953E-1,-5.973996E-1,5.564554E-1,1.3670245E-1,5.700803E-1,-6.7073596E-1,4.8253253E-2,7.78991E-1,2.1818587E-1,-4.1040665E-1,4.0767124E-1,6.6311073E-1,7.404061E-2,-4.0282793E-2,-6.568995E-3,1.7719063E-1,4.7204208E-2,-6.897168E-1,8.021573E-1,-5.203419E-1,5.7575848E-2,-9.516377E-3,6.2100375E-1,4.080326E-1,7.10659E-1,-6.2174565E-1,7.6904184E-1,3.6344334E-2,-1.904228E-2,-4.2075448E-2,-2.5984647E-3,1.1655116E-2,4.9298394E-2,1.7908158E-3,-4.1151814E-2,3.498183E-2,-3.7860442E-2,1.320638E-2,4.765735E-2,1.0264524E-2,4.7204964E-2,4.477255E-2,2.8703487E-2,3.686872E-2,-3.843739E-2,4.703489E-2,6.8049044E-3],"categories":[],"categories_nodes":[],"categories_segments":[],"categories_sizes":[],"default_left":[0,0,0,0,0,0,0,0,0,0,0,0,0,0,0,0,0,0,0,0,0,0,0,0,0,0,0,0,0,0,0,0,0,0,0,0,0,0,0,0,0,0,0,0,0,0,0,0,0],"id":25,"left_children":[1,3,5,7,9,11,13,15,-1,17,19,21,23,25,27,-1,-1,29,-1,31,33,35,-1,37,39,41,43,45,47,-1,-1,-1,-1,-1,-1,-1,-1,-1,-1,-1,-1,-1,-1,-1,-1,-1,-1,-1,-1],"loss_changes":[6.923531E2,4.742146E2,3.1681085E2,1.4578772E2,3.5664886E1,4.5012845E2,1.7539221E2,3.9697266E-1,0E0,1.1703033E0,1.01795135E2,1.5209166E2,1.8070203E2,3.8480713E1,2.9158536E2,0E0,0E0,1.3317778E0,0E0,5.2536774E-1,1.1898651E0,8.489172E1,0E0,2.5384908E2,9.311371E1,4.5230827E1,2.1839478E1,7.5058746E0,2.8342896E0,0E0,0E0,0E0,0E0,0E0,0E0,0E0,0E0,0E0,0E0,0E0,0E0,0E0,0E0,0E0,0E0,0E0,0E0,0E0,0E0],"parents":[2147483647,0,0,1,1,2,2,3,3,4,4,5,5,6,6,7,7,9,9,10,10,11,11,12,12,13,13,14,14,17,17,19,19,20,20,21,21,23,23,24,24,25,25,26,26,27,27,28,28],"right_children":[2,4,6,8,10,12,14,16,-1,18,20,22,24,26,28,-1,-1,30,-1,32,34,36,-1,38,40,42,44,46,48,-1,-1,-1,-1,-1,-1,-1,-1,-1,-1,-1,-1,-1,-1,-1,-1,-1,-1,-1,-1],"split_conditions":[1.9901041E1,6.973629E-1,3.6456177E-1,1.2093916E1,9.317686E0,5.052145E0,7.406517E1,8.7803227E-1,4.8253253E-2,7.032158E-1,1.3275908E-1,7.4635864E1,2.0899184E-1,4.231015E-1,2.5692907E-1,-4.0282793E-2,-6.568995E-3,1.2878078E2,4.7204208E-2,5.4070807E-1,7.032158E-1,3.5134986E-1,5.7575848E-2,6.9819336E1,1.2093916E1,1.2093916E1,6.483232E1,2.647415E0,9.102861E-1,3.6344334E-2,-1.904228E-2,-4.2075448E-2,-2.5984647E-3,1.1655116E-2,4.9298394E-2,1.7908158E-3,-4.1151814E-2,3.498183E-2,-3.7860442E-2,1.320638E-2,4.765735E-2,1.0264524E-2,4.7204964E-2,4.477255E-2,2.8703487E-2,3.686872E-2,-3.843739E-2,4.703489E-2,6.8049044E-3],"split_indices":[5,0,0,13,5,13,5,2,0,0,19,7,6,0,6,0,0,21,0,8,0,6,0,5,13,13,5,19,0,0,0,0,0,0,0,0,0,0,0,0,0,0,0,0,0,0,0,0,0],"split_type":[0,0,0,0,0,0,0,0,0,0,0,0,0,0,0,0,0,0,0,0,0,0,0,0,0,0,0,0,0,0,0,0,0,0,0,0,0,0,0,0,0,0,0,0,0,0,0,0,0],"sum_hessian":[8.720661E3,1.8861033E3,6.834558E3,1.410812E3,4.7529123E2,3.0337356E3,3.8008225E3,1.3412596E3,6.955238E1,2.8574573E2,1.8954553E2,1.004648E3,2.0290875E3,3.200227E3,6.0059534E2,1.3394873E3,1.7723234E0,3.9951756E0,2.8175055E2,7.410966E1,1.15435875E2,9.307081E2,7.393992E1,6.869168E2,1.3421708E3,5.0462238E2,2.6956047E3,3.0019138E2,3.0040396E2,1.9959149E0,1.9992605E0,7.270971E1,1.3999463E0,3.9935164E0,1.1144236E2,2.1547145E2,7.1523663E2,3.5168488E2,3.352319E2,4.0588242E2,9.362883E2,3.1147772E2,1.9314465E2,2.3354868E3,3.6011798E2,3.9456017E0,2.9624576E2,2.935108E2,6.8931594E0],"tree_param":{"num_deleted":"0","num_feature":"24","num_nodes":"49","size_leaf_vector":"1"}},{"base_weights":[-3.6085063E-1,-5.692466E-1,3.5470018E-1,-5.8466315E-1,-3.4450415E-1,9.662452E-1,-5.6583947E-1,-5.9210443E-1,-5.692488E-1,9.805772E-2,-5.728124E-1,-1.263378E-1,9.905984E-1,-5.885862E-1,-1.24441E-1,-2.7690998E-1,-3.554503E-2,-5.7181543E-1,3.194787E-2,-4.884312E-1,8.078265E-1,-5.908138E-1,-2.6148978E-1,-3.6736224E-2,6.480526E-2,9.9811506E-1,2.630006E-1,-3.542115E-2,-3.1667992E-1,-5.343253E-1,9.050881E-1,7.241018E-3,-2.5870323E-2,5.5788183E-3,-3.438783E-2,7.200692E-2,-2.9134935E-2,-3.6770236E-2,3.141733E-2,2.188369E-2,7.328998E-2,-2.7666068E-2,-3.633941E-2,-3.289527E-2,3.3759452E-2,4.8771616E-2,6.1242864E-2,-2.6821882E-2,3.6875732E-2,-2.732075E-2,7.217978E-3,7.436858E-3,-3.4682956E-2,-1.8428188E-2,6.785595E-2],"categories":[],"categories_nodes":[],"categories_segments":[],"categories_sizes":[],"default_left":[0,0,0,0,0,0,0,0,0,0,0,0,0,0,0,0,0,0,0,0,0,0,0,0,0,0,0,0,0,0,0,0,0,0,0,0,0,0,0,0,0,0,0,0,0,0,0,0,0,0,0,0,0,0,0],"id":26,"left_children":[1,3,5,7,9,11,13,15,17,19,21,23,25,27,29,31,-1,33,35,37,39,41,43,-1,-1,45,47,-1,49,51,53,-1,-1,-1,-1,-1,-1,-1,-1,-1,-1,-1,-1,-1,-1,-1,-1,-1,-1,-1,-1,-1,-1,-1,-1],"loss_changes":[8.9627106E2,1.5883301E1,7.640388E2,9.49707E-2,3.0549126E1,2.1841064E1,5.354309E0,8.9660645E-2,2.2569885E0,4.3636974E1,9.309006E-1,1.1837564E1,4.047058E0,2.305603E-2,1.2432062E1,3.7732115E-1,0E0,1.3250427E0,5.1090636E0,7.6276608E0,8.147615E0,2.558899E-2,3.4521797E0,0E0,0E0,2.307495E0,2.7723596E0,0E0,4.24048E-1,6.858721E-1,2.7282987E0,0E0,0E0,0E0,0E0,0E0,0E0,0E0,0E0,0E0,0E0,0E0,0E0,0E0,0E0,0E0,0E0,0E0,0E0,0E0,0E0,0E0,0E0,0E0,0E0],"parents":[2147483647,0,0,1,1,2,2,3,3,4,4,5,5,6,6,7,7,8,8,9,9,10,10,11,11,12,12,13,13,14,14,15,15,17,17,18,18,19,19,20,20,21,21,22,22,25,25,26,26,28,28,29,29,30,30],"right_children":[2,4,6,8,10,12,14,16,18,20,22,24,26,28,30,32,-1,34,36,38,40,42,44,-1,-1,46,48,-1,50,52,54,-1,-1,-1,-1,-1,-1,-1,-1,-1,-1,-1,-1,-1,-1,-1,-1,-1,-1,-1,-1,-1,-1,-1,-1],"split_conditions":[7.0198616E1,6.530922E1,2.5692907E-1,1.8433005E0,2.7943793E-1,7.6758866E0,8.1498146E-1,-4.0321283E-2,9.4551295E-1,5.154487E-1,7.9242665E-1,5.4765964E-1,2.4581882E-1,1.9592555E-1,1.8102282E-1,-1.603231E-2,-3.554503E-2,-1.274103E1,6.8969466E-2,6.9819336E1,8.102946E-1,6.001803E-1,1.9795197E-1,-3.6736224E-2,6.480526E-2,1.8039936E1,1.610914E1,-3.542115E-2,3E1,3.0410382E-1,6.691705E-1,7.241018E-3,-2.5870323E-2,5.5788183E-3,-3.438783E-2,7.200692E-2,-2.9134935E-2,-3.6770236E-2,3.141733E-2,2.188369E-2,7.328998E-2,-2.7666068E-2,-3.633941E-2,-3.289527E-2,3.3759452E-2,4.8771616E-2,6.1242864E-2,-2.6821882E-2,3.6875732E-2,-2.732075E-2,7.217978E-3,7.436858E-3,-3.4682956E-2,-1.8428188E-2,6.785595E-2],"split_indices":[5,5,6,9,6,13,0,16,0,0,0,0,6,20,3,14,0,13,6,5,1,1,3,0,0,13,13,0,22,6,2,0,0,0,0,0,0,0,0,0,0,0,0,0,0,0,0,0,0,0,0,0,0,0,0],"split_type":[0,0,0,0,0,0,0,0,0,0,0,0,0,0,0,0,0,0,0,0,0,0,0,0,0,0,0,0,0,0,0,0,0,0,0,0,0,0,0,0,0,0,0,0,0,0,0,0,0,0,0,0,0,0,0],"sum_hessian":[6.0076626E3,4.6528257E3,1.3548365E3,4.3523477E3,3.004782E2,8.140059E2,5.408307E2,2.9050398E3,1.447308E3,1.0249072E2,1.979875E2,1.7638645E1,7.9636725E2,5.139452E2,2.6885475E1,3.933866E0,2.901106E3,1.4412137E3,6.0941386E0,5.6323925E1,4.6166794E1,1.8614674E2,1.1840752E1,1.2995298E1,4.6433473E0,7.8778265E2,8.584617E0,5.0923187E2,4.7133484E0,1.9642464E1,7.2430124E0,1.1726627E0,2.7612033E0,2.680294E0,1.4385334E3,1.3850634E0,4.709075E0,5.057979E1,5.7441387E0,2.3380852E1,2.2785942E1,2.3064606E1,1.6308215E2,9.082263E0,2.7584891E0,9.047648E1,6.9730615E2,2.7352204E0,5.8493967E0,3.539674E0,1.1736743E0,1.0862992E0,1.8556164E1,1.0696586E0,6.173354E0],"tree_param":{"num_deleted":"0","num_feature":"24","num_nodes":"55","size_leaf_vector":"1"}},{"base_weights":[1.7620012E-2,3.262042E-1,-6.118494E-1,6.0941356E-1,-1.0759678E-1,-1.475015E-1,-6.174117E-1,8.3260167E-1,8.6890705E-2,3.939365E-1,-5.026742E-1,2.7703992E-1,-3.618988E-2,-1.5058574E-1,-6.1776876E-1,8.8085943E-1,6.096134E-1,4.0724996E-1,-6.084221E-1,8.267442E-1,-2.3118459E-1,5.1638125E-3,-5.688764E-1,6.870265E-1,-3.3836138E-1,-1.9424016E-2,5.9287054E-3,-4.7514814E-1,-3.712849E-2,5.180212E-2,5.777225E-2,5.368617E-2,1.878613E-2,-3.4828216E-2,3.6129065E-2,1.22100385E-2,-3.7854068E-2,5.0139647E-2,1.904858E-2,-3.4536205E-2,1.1581036E-2,3.5059363E-2,-2.7331565E-2,-1.1324161E-2,-3.5282858E-2,5.8366824E-3,4.8405323E-2,1.7337661E-2,-3.181091E-2,-3.347381E-2,3.4617394E-2],"categories":[],"categories_nodes":[],"categories_segments":[],"categories_sizes":[],"default_left":[0,0,0,0,0,0,0,0,0,0,0,0,0,0,0,0,0,0,0,0,0,0,0,0,0,0,0,0,0,0,0,0,0,0,0,0,0,0,0,0,0,0,0,0,0,0,0,0,0,0,0],"id":27,"left_children":[1,3,5,7,9,11,13,15,17,19,21,23,-1,25,27,29,31,33,35,37,39,41,43,45,47,-1,-1,49,-1,-1,-1,-1,-1,-1,-1,-1,-1,-1,-1,-1,-1,-1,-1,-1,-1,-1,-1,-1,-1,-1,-1],"loss_changes":[1.4727273E3,6.251294E2,6.3326416E0,3.5890466E2,3.986215E2,6.216688E0,2.9919434E-1,2.2565063E1,2.0581865E2,2.4010542E2,3.7831787E1,4.5484695E0,0E0,1.8824364E-1,1.2145996E-2,1.5418701E0,3.2437897E1,1.2215245E2,5.4743195E0,2.0617065E0,5.3264217E1,3.5258987E1,7.121216E0,6.508961E-1,1.0947671E0,0E0,0E0,2.387042E0,0E0,0E0,0E0,0E0,0E0,0E0,0E0,0E0,0E0,0E0,0E0,0E0,0E0,0E0,0E0,0E0,0E0,0E0,0E0,0E0,0E0,0E0,0E0],"parents":[2147483647,0,0,1,1,2,2,3,3,4,4,5,5,6,6,7,7,8,8,9,9,10,10,11,11,13,13,14,14,15,15,16,16,17,17,18,18,19,19,20,20,21,21,22,22,23,23,24,24,27,27],"right_children":[2,4,6,8,10,12,14,16,18,20,22,24,-1,26,28,30,32,34,36,38,40,42,44,46,48,-1,-1,50,-1,-1,-1,-1,-1,-1,-1,-1,-1,-1,-1,-1,-1,-1,-1,-1,-1,-1,-1,-1,-1,-1,-1],"split_conditions":[1.1916634E1,4.4537112E-1,1.2093916E1,4.4407715E1,1.9613441E1,4.5666492E1,3.2652261E0,3.7573737E-1,4.9125037E0,7.032158E-1,5.4514885E-1,3.9195618E-1,-3.618988E-2,3.2383428E0,-4.0321283E-2,5.4914703E0,7.962407E-1,3.5134986E-1,4.5944965E1,4.025173E0,9.491424E0,5.7208365E-1,2.1750874E1,2.3E1,2.030642E1,-1.9424016E-2,5.9287054E-3,9.268356E-1,-3.712849E-2,5.180212E-2,5.777225E-2,5.368617E-2,1.878613E-2,-3.4828216E-2,3.6129065E-2,1.22100385E-2,-3.7854068E-2,5.0139647E-2,1.904858E-2,-3.4536205E-2,1.1581036E-2,3.5059363E-2,-2.7331565E-2,-1.1324161E-2,-3.5282858E-2,5.8366824E-3,4.8405323E-2,1.7337661E-2,-3.181091E-2,-3.347381E-2,3.4617394E-2],"split_indices":[13,0,13,7,7,17,19,0,13,0,1,0,0,9,16,13,1,6,17,9,7,0,7,22,7,0,0,1,0,0,0,0,0,0,0,0,0,0,0,0,0,0,0,0,0,0,0,0,0,0,0],"split_type":[0,0,0,0,0,0,0,0,0,0,0,0,0,0,0,0,0,0,0,0,0,0,0,0,0,0,0,0,0,0,0,0,0,0,0,0,0,0,0,0,0,0,0,0,0,0,0,0,0,0,0],"sum_hessian":[7.579397E3,5.0864497E3,2.4929473E3,3.0770771E3,2.0093724E3,2.9899677E1,2.4630476E3,2.155622E3,9.21455E2,8.8539996E2,1.1239725E3,1.5721947E1,1.417773E1,2.270312E0,2.4607773E3,1.7692018E3,3.864203E2,6.311537E2,2.9030133E2,5.229466E2,3.6245337E2,1.2975172E2,9.942208E2,9.351931E0,6.3700166E0,1.1288891E0,1.141423E0,2.1781605E1,2.4389956E3,1.4696078E3,2.99594E2,1.957477E2,1.906726E2,1.0362564E2,5.27528E2,7.5604653E0,2.8274088E2,5.131922E2,9.754378E0,1.998017E2,1.6265169E2,5.7341938E1,7.240978E1,4.8357975E1,9.4586285E2,1.945241E0,7.406689E0,1.3493748E0,5.020642E0,2.0715961E1,1.0656428E0],"tree_param":{"num_deleted":"0","num_feature":"24","num_nodes":"51","size_leaf_vector":"1"}},{"base_weights":[2.252617E-1,-3.0202505E-1,3.675685E-1,-5.879158E-1,5.345049E-1,1.3562573E-1,5.550491E-1,-6.5848637E-1,7.759152E-1,7.540494E-1,2.0213903E-1,-3.9849532E-1,3.9807028E-1,6.3905597E-1,5.562552E-2,-3.954776E-2,-1.0865855E-2,4.740122E-2,3.202593E-1,-3.7573814E-2,7.6921636E-1,-6.6628194E-1,7.6906896E-1,-5.129128E-1,5.576048E-2,-1.8625061E-3,5.997187E-1,5.0722265E-1,7.165765E-1,-6.2254053E-1,7.4242294E-1,2.6334856E-2,3.2693136E-3,2.6023133E-2,4.6621066E-2,-4.065386E-2,-2.6415891E-3,-3.1694017E-2,4.753089E-2,1.1531981E-3,-4.0426765E-2,3.3127427E-2,-3.664328E-2,1.3387579E-2,4.640383E-2,2.5207722E-3,3.910548E-2,4.514149E-2,2.4059564E-2,4.8860135E-3,-3.8778055E-2,-9.014287E-3,4.508573E-2],"categories":[],"categories_nodes":[],"categories_segments":[],"categories_sizes":[],"default_left":[0,0,0,0,0,0,0,0,0,0,0,0,0,0,0,0,0,0,0,0,0,0,0,0,0,0,0,0,0,0,0,0,0,0,0,0,0,0,0,0,0,0,0,0,0,0,0,0,0,0,0,0,0],"id":28,"left_children":[1,3,5,7,9,11,13,15,17,19,21,23,25,27,29,-1,-1,-1,31,-1,33,35,37,39,-1,41,43,45,47,49,51,-1,-1,-1,-1,-1,-1,-1,-1,-1,-1,-1,-1,-1,-1,-1,-1,-1,-1,-1,-1,-1,-1],"loss_changes":[6.4035815E2,4.3420123E2,2.9210138E2,1.307876E2,3.3577393E1,4.2144168E2,1.5583984E2,2.5170898E-1,1.2759781E-1,6.4016876E0,9.2033035E1,1.5108713E2,1.6255374E2,3.206653E1,2.5034148E2,0E0,0E0,0E0,9.847051E-2,0E0,3.1718445E-1,4.8360825E-1,3.887329E0,7.816029E1,0E0,2.286994E2,8.743707E1,7.9427185E1,2.2220215E1,4.5876846E0,2.2819366E0,0E0,0E0,0E0,0E0,0E0,0E0,0E0,0E0,0E0,0E0,0E0,0E0,0E0,0E0,0E0,0E0,0E0,0E0,0E0,0E0,0E0,0E0],"parents":[2147483647,0,0,1,1,2,2,3,3,4,4,5,5,6,6,7,7,8,8,9,9,10,10,11,11,12,12,13,13,14,14,18,18,20,20,21,21,22,22,23,23,25,25,26,26,27,27,28,28,29,29,30,30],"right_children":[2,4,6,8,10,12,14,16,18,20,22,24,26,28,30,-1,-1,-1,32,-1,34,36,38,40,-1,42,44,46,48,50,52,-1,-1,-1,-1,-1,-1,-1,-1,-1,-1,-1,-1,-1,-1,-1,-1,-1,-1,-1,-1,-1,-1],"split_conditions":[1.9901041E1,6.973629E-1,3.6769527E-1,1.2093916E1,9.317686E0,4.9125037E0,7.532459E1,8.7803227E-1,2.0689274E1,3.9591873E-1,1.3275908E-1,7.4635864E1,2.0899184E-1,7.45209E-1,2.5692907E-1,-3.954776E-2,-1.0865855E-2,4.740122E-2,1.9195992E1,-3.7573814E-2,7.075801E-1,5.4070807E-1,3.2501456E-1,3.5134986E-1,5.576048E-2,6.9819336E1,4.518171E1,4.555516E-1,6.747164E1,1.1916634E1,2.7811092E-1,2.6334856E-2,3.2693136E-3,2.6023133E-2,4.6621066E-2,-4.065386E-2,-2.6415891E-3,-3.1694017E-2,4.753089E-2,1.1531981E-3,-4.0426765E-2,3.3127427E-2,-3.664328E-2,1.3387579E-2,4.640383E-2,2.5207722E-3,3.910548E-2,4.514149E-2,2.4059564E-2,4.8860135E-3,-3.8778055E-2,-9.014287E-3,4.508573E-2],"split_indices":[5,0,0,13,5,13,5,2,17,1,19,7,6,1,6,0,0,0,5,0,0,8,1,6,0,5,5,0,5,13,8,0,0,0,0,0,0,0,0,0,0,0,0,0,0,0,0,0,0,0,0,0,0],"split_type":[0,0,0,0,0,0,0,0,0,0,0,0,0,0,0,0,0,0,0,0,0,0,0,0,0,0,0,0,0,0,0,0,0,0,0,0,0,0,0,0,0,0,0,0,0,0,0,0,0,0,0,0,0],"sum_hessian":[8.530982E3,1.8127788E3,6.7182036E3,1.3513134E3,4.614654E2,3.0039353E3,3.714268E3,1.2854208E3,6.589268E1,2.7698218E2,1.8448323E2,9.895019E2,2.0144333E3,3.1791719E3,5.350964E2,1.2832356E3,2.1851528E0,6.306003E1,2.8326435E0,2.4850092E0,2.7449716E2,7.2783485E1,1.11699745E2,9.116804E2,7.782151E1,6.7563116E2,1.3388021E3,1.1805508E3,1.998621E3,2.692965E2,2.6579984E2,1.4178592E0,1.4147843E0,7.78123E0,2.6671594E2,7.138255E1,1.4009316E0,1.4961352E0,1.1020361E2,2.1187456E2,6.9980585E2,3.5381503E2,3.2181613E2,4.2342285E2,9.1537933E2,2.802075E2,9.003433E2,1.7935978E3,2.0502315E2,8.6973715E0,2.6059915E2,2.466867E0,2.6333298E2],"tree_param":{"num_deleted":"0","num_feature":"24","num_nodes":"53","size_leaf_vector":"1"}},{"base_weights":[-3.5562575E-1,-5.586596E-1,3.4713435E-1,-5.764313E-1,-3.1514034E-1,9.1480976E-1,-5.5692184E-1,-5.8160883E-1,-5.479782E-1,1.8684329E-1,-5.691239E-1,-2.2378618E-1,9.3759376E-1,-5.7573056E-1,-1.3487036E-3,-3.493913E-2,-4.451846E-1,-5.550265E-1,-3.4379065E-1,-3.899897E-1,8.3266896E-1,-5.8640784E-1,-2.7493784E-1,-3.6000002E-2,5.0512437E-2,6.83524E-1,9.64456E-1,-3.1579952E-3,-5.776092E-1,8.109167E-1,-4.048778E-1,1.4645371E-2,-3.141042E-2,4.0349932E-3,-3.338918E-2,-2.8544758E-2,1.419252E-2,-3.6386736E-2,3.5673987E-2,2.8870085E-2,6.835043E-2,-3.54861E-2,6.5309014E-3,1.7451284E-2,-3.2400664E-2,5.7397492E-2,-2.177837E-3,5.798881E-2,2.577377E-2,-3.486248E-2,-1.8845238E-2,6.9915093E-3,5.543136E-2,3.0993564E-2,-3.3034578E-2],"categories":[],"categories_nodes":[],"categories_segments":[],"categories_sizes":[],"default_left":[0,0,0,0,0,0,0,0,0,0,0,0,0,0,0,0,0,0,0,0,0,0,0,0,0,0,0,0,0,0,0,0,0,0,0,0,0,0,0,0,0,0,0,0,0,0,0,0,0,0,0,0,0,0,0],"id":29,"left_children":[1,3,5,7,9,11,13,15,17,19,21,23,25,27,29,-1,31,33,35,37,39,41,43,-1,-1,45,47,-1,49,51,53,-1,-1,-1,-1,-1,-1,-1,-1,-1,-1,-1,-1,-1,-1,-1,-1,-1,-1,-1,-1,-1,-1,-1,-1],"loss_changes":[8.312284E2,1.933899E1,6.7096484E2,2.3803711E-1,3.9652283E1,2.1078552E1,5.271652E0,3.1982422E-2,7.337494E-1,3.952709E1,8.547516E-1,7.3089147E0,4.5821533E0,4.4311523E-1,6.203928E0,0E0,1.4185605E0,6.3053894E-1,2.0857253E0,1.243309E1,4.7234E0,